YearMo,101448,101461,101466,101642,101644,101699,107608,107609,107611,107613,107615,107616,107617,107618,107619,107620,107621,107622,107624,107625,107626,107627,107628,107630,107633,107638,107639,107640,107641,107642,107645,107646,107647,107648,107649,107650,107652,107653,107654,107656,107657,107658,107659,107661,107666,107668,107670,107671,107672,107673,107674,107676,107677,107678,107679,107680,107681,107682,107683,107688,109463,109464,12222,12223,12224,12294,12300,12302,12304,12305,12379,12380,12393,12394,12395,12396,12397,12398,12399,12400,12401,12402,12403,12404,12405,12406,12407,12408,12409,12410,12411,12412,12413,12414,12416,12420,12421,12422,12423,12424,12425,12426,12427,12428,12429,12430,12431,12432,12433,12434,12435,12436,31694,41128,41129,41130,41131,7169,7170,7171,7172,7173,7175,7176,7177,7184,7185,7187,7188,7189,7190,7191,7192,7195,7200,7202,7203,7204,7205,7210,7211,7212,7215,7216,7219,7220,7221,7230,7233,7241,7242,7244,7245,7246,7248,7249,7250,7253,7254,7255,7256,7257,7258,7259,7260,7262,7265,7266,7267,7268,7269,7270,7272,7275,7276,7279,7280,7281,7283,7285,7287,7288,7291,7292,7293,7294,7295,7296,7298,7299,7300,7301,7302,7303,7305,7306,7307,7308,7309,7310,7311,7312,7313,7316,7317,7320,7323,7328,7333,7335,7336,7339,7341,7347,7349,7355,7356,7358,7359,7360,7367,7372,7373,7375,7376,7377,7378,7380,7384,7385,7386,7389,7390,7392,7393,7396,7397,7401,7402,7406,7407,7411,7412,7415,7416,7418,7422,7423,7424,7425,7428,7432,7433,7434,7435,7436,7438,7440,7443,7444,7445,7446,7447,7448,7449,7451,7453,7454,7455,7456,7457,7459,7461,7464,7465,7466,7467,7468,7470,7471,7479,7480,7481,7482,7483,7484,7485,7486,7487,7488,7489,7490,7492,7493,7495,7497,7498,7508,7517,7518,7520,7521,7522,7523,7526,7529,7530,7531,7539,7540,7541,7542,7543,7547,7548,7549,7551,7555,7558,7559,7560,7561,7562,7563,7564,7565,7572,7573,7574,7575,7576,7577,7579,7582,7587,7589,7590,7591,7592,7604,7605,7606,7607,7608,7609,7610,7611,7614,7615,7616,7617,7618,7619,7620,7621,7622,7623,7624,7625,7626,7627,7628,7629,7630,7631,7632,7634,7635,7639,7640,7641,7642,7643,7644,7645,7647,7648,7649,7650,7653,7654,7656,7657,7658,7659,7660,7661,7662,7663,7664,7665,7666,7669,7670,7671,7673,7674,7680,7681,7683,7684,7685,7686,7688,7690,7691,7692,7695,7696,7697,7698,7699,7703,7704,7707,7708,7709,7710,7711,7712,7713,7714,7715,7719,7720,7721,7724,7727,7728,7730,7731,7732,7733,7735,7736,7738,7747,7753,7756,7758,7759,7760,7761,7763,7766,7767,7769,7777,7778,7779,7782,7783,7784,7785,7786,7787,7788,7789,7790,7791,7792,7794,8873,8874
201201,0.0,0.0,0.0,-0.0002373,-0.0014687,0.0,0.00184002,0.00038360000000000005,0.001608,-0.00145708,4.828e-05,-0.00082867,0.0006977999999999999,-0.00053534,0.008377289999999999,0.0006622,0.00095396,0.00010669000000000001,0.0015666,-0.00012474,4.8719999999999994e-05,-5.6439999999999995e-05,-0.00012852000000000002,0.00025758000000000004,0.00298845,0.0005601,-0.00034408,5.74e-05,0.01683108,-0.00021546,-0.00052007,0.0,0.00091506,-0.00062652,0.003421,-0.0032211200000000005,0.0016187100000000002,0.0,-0.018613800000000003,5.1590000000000006e-05,0.00211482,-0.00037701,5.1540000000000005e-05,0.00080432,0.0055389,0.0,0.00040152,0.0017547300000000001,0.00062,0.0065184299999999995,0.0,0.0,0.00197612,0.0,0.0,0.0,0.0,0.0,0.0,0.0,0.0011190899999999999,0.0012144200000000001,0.03123444,0.0006626400000000001,-0.00015136000000000001,-0.0007435399999999999,7.058999999999999e-05,9.520000000000001e-05,0.00140544,6.996000000000001e-05,5.2839999999999996e-05,5.8800000000000005e-06,-0.010722569999999997,0.0016740100000000003,0.0012962499999999999,0.00084966,0.000204,-0.0012779,0.00079285,-0.00042980000000000004,8.580000000000001e-05,-0.00028612999999999995,6.3e-05,4.284e-05,-0.0006395999999999999,-0.0010199999999999999,0.0,0.0004536,0.00013122,0.0,0.0010274000000000001,0.00010143,0.00032659999999999997,0.0007867200000000001,0.00064384,0.00033516,0.00659175,0.04049033,-1.2959999999999998e-05,0.00187902,0.00041700000000000005,0.0026155600000000003,0.0096355,0.0,0.0,0.0,5.994000000000001e-05,0.00092,0.00046631,-2.904e-05,0.0018303400000000002,0.00060356,0.0,0.0,0.0,0.0,0.0,0.56,0.19886382,0.10303768,0.04470592,0.00667128,0.0034516800000000004,0.0029105399999999997,0.00039311999999999995,-0.0005445,-3.814999999999999e-05,-0.00259008,0.00030443999999999995,1.978e-05,-8.869e-05,-0.00012614,2.2619999999999997e-05,0.000106,0.03018478,0.01120599,0.00011465999999999999,0.00031570000000000003,0.0016353000000000001,-0.00037752,-0.0011025599999999998,0.016794840000000002,-0.0038964,0.004809539999999999,-0.004140039999999999,-0.00118125,-0.00495813,6.582e-05,9.009e-05,0.008595599999999998,0.00482898,0.00027449999999999995,0.0009165600000000001,0.00038130000000000005,0.0007008,0.0008141999999999998,0.0,0.00067944,0.0153615,0.00010176,0.0022275,-5.661e-05,0.0032416199999999997,3.4170000000000007e-05,0.00735702,0.00016472,-0.00024339,0.0034636,-0.0011764,0.0009555,-0.0006156000000000001,0.00015674000000000002,0.00014136000000000002,0.0006307,-0.0049095499999999995,0.0035908999999999997,0.0003885,-0.00011522999999999999,-0.01708288,-0.00028017,-0.0017360000000000001,0.0008238999999999999,0.0054735,-0.0017492999999999999,-0.0035960399999999996,0.0008521500000000001,-0.00243711,-0.0003162,-0.00248844,-0.00174783,-0.006816150000000001,-0.0012705,-0.00112955,0.01025304,6.6e-05,0.00108544,7.275e-05,0.0,0.0,0.00026199000000000003,0.0003458,0.0001795,1.815e-05,0.0,0.0004973699999999999,0.00545105,0.00046935,0.0,0.0028900800000000006,0.00090132,0.000549,-0.0010295999999999999,0.0,-0.00016637000000000002,-0.00010637000000000001,-0.00022403999999999998,-0.00037928000000000007,0.00013104000000000002,-0.00025079999999999997,-1.541e-05,0.00042372000000000004,-0.0034190500000000003,-0.0024643200000000003,-0.0029664,-0.00039893,0.00128266,0.00076425,0.00022931999999999998,0.0016782499999999998,0.0005142500000000001,-0.00014209999999999998,0.013934810000000002,0.00011396000000000001,0.007564320000000001,0.00011172,0.00135584,0.0024192000000000003,0.0023223199999999997,3.657e-05,-2.086e-05,8.096000000000001e-05,6.623999999999999e-05,0.00049104,0.0007426,7.280000000000001e-05,-0.0007110400000000001,8.840000000000001e-05,3.6880000000000006e-05,5.279999999999999e-06,0.0002646,-0.0003198,0.09645031,0.09645031,0.06526640000000002,0.028668839999999998,0.00102828,-0.00052812,-0.00225182,0.00033072000000000006,0.0009606400000000001,0.07746957,0.08694867,0.06494111999999999,0.048062299999999995,0.012274860000000002,0.00384644,0.0009106,0.0192024,0.000832,0.0002724,0.00016616,0.0011697100000000002,0.0024876,0.00058695,0.00068475,0.00083772,0.00047368999999999997,-1.1400000000000001e-05,0.0006357,-0.00025632000000000004,-0.0092456,0.0036983000000000003,0.00016236,0.0005552500000000001,0.0030511799999999993,-0.013033240000000001,-0.013033240000000001,0.007481279999999999,-0.00486087,-0.00770196,-0.0018017999999999999,-0.008529430000000001,-0.00025857,0.0027880599999999998,-0.00020932,-1.566e-05,0.0009559000000000002,-0.00039269999999999995,0.00311144,0.0013824000000000002,0.0017344199999999998,0.01063975,0.00960432,0.0037787199999999997,0.0018837,-8.5e-06,-9.272e-05,0.0043146,0.00024885,-0.00047437000000000005,0.00109932,-0.0055783000000000004,0.0018160000000000001,0.00393014,0.00148512,0.00148512,1.653e-05,0.0037547999999999995,0.00466844,-0.0017297200000000001,0.00255312,-0.00024145000000000001,3.31e-05,0.0003102,-0.0006762000000000001,-0.00034700999999999997,-0.00139454,0.002082,-0.00027258,-0.0005321200000000001,-0.00170373,0.000152,-0.0019117799999999996,0.0008064900000000001,-0.0029456000000000005,-0.00046240000000000007,0.00031098,-0.00011158000000000001,-8.092e-05,0.00019213000000000002,0.00019213000000000002,-0.0016969500000000002,0.00136695,2.565e-05,-0.00016146,0.0025786200000000002,0.00028512,-0.0038992800000000006,0.0058835,0.0058835,0.0018326100000000001,0.00409244,-3.874e-05,0.00012222000000000003,0.00012222000000000003,-0.0004824,0.00044588999999999995,0.00015810000000000002,0.14174049,0.14174049,0.1550091,0.06876795999999999,0.00164388,0.0,0.02321724,0.00141736,0.060148089999999994,0.0,-4.655e-05,0.010316700000000002,0.0018036500000000002,0.00119119,0.00884741,-0.00033945000000000004,0.0050944,0.01203592,0.00043473,0.0011515,0.00039072,0.00011707,-0.00255783,-0.0240795,-0.014387099999999998,-0.0125225,0.000375,0.0332808,0.004523279999999999,0.00312597,2.316e-05,-0.0008244,0.0008060000000000001,5.97e-05,0.00045119999999999996,0.00046253000000000006,0.00164346,0.0003851,0.00042348,-2.5050000000000002e-05,0.00091608,0.04283796,0.02029188,0.00906441,0.0078372,0.00011248000000000001,0.00412488,0.00073775,0.00272688,0.0182886,0.0182886,-0.01360578,-0.01360578,-0.0008796799999999999,0.00034668,-0.01493349,0.00123795,7.704e-05,0.0011284,0.00105825,-0.00121017,0.0705882,0.02945341,0.02945341,0.0006796199999999999,-0.0067224599999999995,0.02601026,0.00010609,0.00313168,0.0,0.0,0.04077647,0.0016104000000000001,-7.097e-05,0.0034384000000000003,-0.0005312,0.00040979,0.00331594,-4.68e-05,0.015410429999999998,0.006743100000000001,0.0,0.0,-0.00028798,-0.00041952,0.00012852000000000002,0.01705665,0.01705665,0.0003914999999999999,0.00292188,0.00076373,0.00016277,0.004379119999999999,0.0012460799999999999,0.00027984000000000006,0.00284902,0.01042251,0.01042251,0.01042251,0.0,0.01290912,0.00083851,0.0,-0.00320661,0.0,0.0
201202,0.0,0.0,0.0,1.21e-05,-0.00091896,0.0,-0.0011264,0.00057414,0.0004718,0.0011905400000000001,1.768e-05,8.965e-05,0.00134444,0.00719664,-0.00203155,0.00048199000000000007,0.00855162,-3.431e-05,0.0006346799999999999,6.440000000000001e-05,-0.00013919999999999997,7.590000000000001e-06,0.00032921999999999997,9.6e-05,-0.00010338,-7.452e-05,-0.00054982,0.000429,0.01169976,0.0010922,0.0002145,0.00015312,-0.0014196,-0.00018837,0.0028728,0.0044981100000000005,-0.00230048,0.0,-0.00440986,0.00020482,0.00078064,0.0018308400000000002,0.00088816,0.0006025800000000001,-0.00106512,0.0,0.015886509999999996,0.054294020000000005,0.02791552,0.08233434000000002,0.009531560000000001,0.0,0.00037608,0.05157975,0.0095627,0.0054579699999999995,0.019662719999999998,0.00595265,0.0,0.0,-0.00075264,0.00041426,0.02377375,-5.414999999999999e-05,-3.654e-05,-0.0017080799999999998,-0.00014644000000000001,-0.00038988,-0.0011819999999999999,1.584e-05,-0.00203825,5.901e-05,-0.005132050000000001,-0.0008496,-0.0002142,0.0033867899999999998,0.0,-0.0001943,-0.0007179900000000001,0.00077888,-6.864e-05,0.0004392,0.00028215000000000005,-0.00013668000000000003,0.0016533499999999998,0.00244948,0.0,0.0006680999999999999,-0.00046464,-2.204e-05,-0.00011665,0.00040391999999999994,0.00093456,0.00036846000000000003,0.0006344100000000001,2.356e-05,0.00540958,0.0019744500000000004,0.00021285000000000002,0.00339268,0.00038836000000000003,0.0033677199999999994,0.19038789,0.01090458,0.0,0.0,0.00012485,0.0001903,0.00033824,-0.00042959,0.0001904,0.0005049,0.0,0.0,0.0,0.0,0.0,0.45,0.044070120000000004,-0.00455202,0.03800979,0.00519588,0.00070218,0.007946680000000001,0.0003842,-0.007215599999999999,-8.316000000000001e-05,-0.007445200000000001,0.00016835,-1.38e-06,0.00021714000000000003,-0.0010096900000000002,-4.68e-06,0.0020678,-0.02252406,-0.00130761,0.0007293,0.0023026500000000003,0.0005043999999999999,-0.00013516000000000003,-0.00029896,-0.03785472,0.01104132,0.0025488,-0.013731839999999999,-0.00570318,-0.00942956,0.00034912,5.7329999999999995e-05,0.0099764,0.00586482,4.6e-06,0.00052089,0.0001638,0.00170232,0.0012852699999999998,0.0,0.00043766000000000003,0.01909202,-0.00026712000000000003,0.0024064800000000003,-0.00022066000000000002,0.0011611599999999998,-0.0004977600000000001,0.004279010000000001,0.00052488,-4.4880000000000004e-05,0.00112585,0.00583424,0.00052002,0.0012984600000000002,0.0031693999999999997,-0.00131556,0.0005860800000000001,-9.688000000000001e-05,0.0014807999999999998,-0.00073255,-7.744e-05,-0.05249819,-0.00046872,2.141e-05,-0.00077337,-0.00821309,-0.00467236,-0.007150199999999999,-0.0098296,-0.00596259,-0.0002184,0.00056006,-0.0016906999999999998,-0.00574342,0.0006478,-0.00730485,0.00050286,0.00030709,-0.00032185999999999993,-4.186e-05,0.0,0.0,-0.00026500000000000004,0.00028879999999999997,-5.454e-05,-4.73e-05,0.0,9.216e-05,-0.00066912,0.00010268,0.0,3.66e-05,0.0,-0.00099958,0.0028339999999999997,0.00134976,-5.031e-05,0.008252400000000002,-0.0002597,-0.00584567,0.00017835,0.0015369799999999999,8.096e-05,0.00030502000000000003,0.00464412,0.0002391,0.00402005,0.0009148499999999999,-0.00015302000000000002,-0.0006642999999999999,0.00036445,0.0011484,0.0016275600000000001,-0.00023232,0.01503055,-0.0007128000000000001,0.00354065,0.0004514,-0.00074802,0.00012859000000000001,0.0017819099999999996,0.00010418999999999999,0.00039812000000000007,-0.00013185,9.7e-05,0.00035531999999999995,-0.00103628,-1.804e-05,-0.0008939700000000001,-7.225000000000001e-05,0.00037179000000000004,0.00014006,3.536e-05,0.00015066,0.047326259999999995,0.047326259999999995,0.02853004,0.011131470000000001,0.0009704900000000001,0.0007651699999999998,0.005549439999999999,0.00033708000000000007,0.00060576,0.08766779999999999,0.07417538,0.059077349999999994,0.044308459999999994,0.01071884,0.00309813,0.00075922,0.014436000000000001,0.00055125,0.00013282,0.0002948,0.00134566,0.00041365000000000005,0.0007293,0.00090885,-0.0018314099999999997,-9.891e-05,-5.415e-05,0.00021559999999999998,-0.00018515,0.01330404,0.008212379999999998,-0.00010064,0.00795672,0.00033668999999999995,0.0050961,0.0050961,0.0027944999999999997,0.01677029,0.02055625,0.009346210000000002,0.005427400000000001,0.0031632,0.0027757,-0.00046827,-0.00086358,-0.0006904600000000002,-3.164e-05,-0.0032592000000000003,-0.001792,-0.00146125,-0.01987029,-0.004161,-0.0024915000000000002,0.00157365,6.732e-05,-3.388e-05,-0.0021245400000000003,-3.3320000000000006e-05,-0.0006312,-0.01577933,-0.0022739200000000005,-0.0005526,-0.01141312,0.005614290000000001,0.005614290000000001,-7.182e-05,0.0017978100000000002,-0.015267170000000002,-0.008598800000000002,0.00031793999999999995,-0.0019208,-0.00035532,5.6279999999999996e-05,0.0,-0.00042768000000000005,-0.01128714,-0.00296286,-0.0001312,7.104999999999999e-05,-0.00223665,-0.00627563,0.00036938,-0.0002418,0.0024803000000000004,-0.0008357600000000001,3.0730000000000006e-05,-0.00132888,-5.745000000000001e-05,-0.00936488,-0.00936488,-4.134e-05,0.00020999999999999998,-0.00015255,-0.00018941999999999996,-0.0007041599999999999,-5.2159999999999995e-05,-0.00612943,0.00207522,0.00207522,-0.0005979599999999999,0.0026938599999999997,-2.9600000000000005e-06,0.00045239999999999994,0.00045239999999999994,0.0009715200000000001,-0.00021717,-0.00030438000000000004,-0.06787671,-0.06787671,-0.021993839999999997,0.019863359999999997,0.0010153,0.0020625,0.007892320000000001,-0.0013419600000000001,-0.05508203999999999,0.0020384,0.00179644,-0.00205444,-0.0089745,0.0011858,0.00345874,0.00098826,-0.00012033,0.0045846,0.0021873599999999997,0.00027038,0.00052761,0.00068072,-0.0027676800000000002,-0.04397257,-0.0162964,-0.02824654,4.992e-05,0.07745079999999999,0.02026512,0.01970433,0.0,0.00351826,0.00363182,0.0013068,0.00138676,0.0007414800000000001,-0.00023232000000000003,0.00091968,0.00533596,-0.00038922,-0.00012539999999999999,0.033637679999999996,0.00986718,0.00382746,0.00493808,1.755e-05,0.00539654,0.00048848,0.00428162,0.018593409999999998,0.018593409999999998,0.02349333,0.02349333,0.002834,-0.00017298000000000001,0.01699674,1.906e-05,-0.00025488,0.00109752,0.00138958,0.0018782700000000002,0.087604,0.08528662,0.08528662,0.00013122,0.0116964,0.06266668,0.00013905,0.00209842,0.00318182,7.564e-05,0.00216209,0.0012845,2.384e-05,0.00482349,0.0002849,6.664000000000001e-05,0.00022445,0.00012324,0.00417375,-0.015064720000000002,0.0,0.0,-0.0001678,-0.00012621,-4.046e-05,0.2453411,0.2453411,0.00037026,0.00129099,0.00070511,0.00019008,0.00210816,0.00113361,0.00019874999999999998,0.00077625,-0.008406160000000001,-0.008406160000000001,-0.008406160000000001,0.0,-0.0080106,0.00042624000000000004,0.0,-0.00084513,0.0,0.0
201203,0.0,0.0,0.0,2.7249999999999998e-05,-0.0010268100000000002,0.0,-0.0011592,-0.0019958199999999997,0.00072738,0.0003444,-1.36e-05,-0.00019722999999999998,-0.00106444,-0.00144935,-0.0020135099999999996,-0.0002914,0.00431046,9.400000000000001e-05,0.00104272,-6.601e-05,0.0002492,7.458e-05,-0.00030996,-0.0001104,0.0027097,0.00040765999999999996,-0.00013266,0.00035014,0.013908090000000001,0.000387,0.0006201000000000001,-0.00016643999999999999,-0.00019624,0.00138105,-0.0026672099999999997,-0.006866400000000001,-0.00020210000000000003,0.0,-0.027974319999999997,-0.0002223,0.00014924,-0.0020805000000000003,0.00047245000000000007,0.00058336,-0.00060336,0.0,0.00174336,0.008595239999999999,0.00237921,0.0035095199999999995,0.0009247999999999999,0.0,0.0003126,0.00511764,0.00131322,0.00023189999999999997,0.00084276,0.00206275,0.0,0.0,0.0005326999999999999,0.0010325,0.00241986,1.0340000000000001e-05,-0.00036330000000000005,-0.00217634,1.1999999999999999e-05,0.0018403399999999998,0.00170368,0.00015312,0.0012870000000000002,-2.709e-05,0.00267989,0.00254826,0.0014592,0.0022694399999999997,-0.00010448999999999998,-0.0019126800000000002,0.00126651,0.0017079999999999999,-0.0002046,0.00080608,-6.897000000000001e-05,1.4000000000000001e-05,5.4670000000000003e-05,-0.0005532800000000001,0.0,-0.00016639999999999998,-0.00079826,0.0,0.0005805,-0.00044800000000000005,0.00055302,0.0009112,0.00010090000000000001,0.00012306,0.0037055200000000003,-0.011012120000000002,-0.00012236000000000001,0.00226044,0.0015096500000000002,0.0058382799999999995,0.01725455,0.00063423,0.0,0.0,-1.12e-06,4.76e-05,0.000342,0.00011328,-0.00021177,0.00127922,0.0,0.0,0.0,0.0,0.0,0.21,0.05783375,0.03171168,0.0061824,0.002562,0.00032639999999999996,0.00036252,0.00051984,0.00053226,3.959e-05,0.00059179,0.0001554,-3.358e-05,4.9000000000000005e-06,-2.896e-05,-7.8e-06,0.0009639,-0.01509546,-0.0028918499999999996,-0.0002346,-0.00098226,-0.00010800000000000001,-0.00030927000000000005,-0.00040689000000000003,-0.0175275,0.0069494399999999994,0.00041579999999999997,-0.005988479999999999,-0.0026802,-0.00296527,0.0012753,-3.2000000000000003e-06,0.004612499999999999,0.0027911200000000002,-0.00017664,0.00018849,0.00028692,-0.00105848,0.00174028,0.0,0.00082593,0.02929797,-0.00012874999999999999,-0.00024168000000000003,-0.00022200000000000003,-0.0005903999999999999,-0.00036846,0.0014118499999999999,-3.773e-05,2.208e-05,0.00034290000000000004,0.01219953,0.0018858899999999999,0.00055808,0.0057967,-0.00103148,0.00043983000000000005,0.00187824,0.0067176,0.0008131999999999999,-9.765e-05,-0.04195945999999999,-0.00096915,-0.0015776800000000001,6.758e-05,-0.0120064,-0.0018235200000000001,-0.004382420000000001,-0.010875,-0.0030919199999999997,-9.308e-05,-0.0032623500000000002,0.0016702400000000001,-0.00050407,9.629999999999998e-05,-0.003171,0.0122342,0.00028939000000000005,0.00021402,0.000144,0.0,0.0,-0.00050699,0.0006019800000000001,0.00015903,0.00027702,0.0,0.00050368,0.005839840000000001,-0.0004046,0.0,0.00309339,0.005136359999999999,0.00021672,0.0014249999999999998,0.00041445,-3.84e-06,0.00286551,0.005363130000000001,0.00505278,3.358e-05,0.00176885,5.039999999999999e-06,0.00013260000000000002,0.00303059,-0.00152416,0.00450754,0.00036784000000000003,-0.00042354,-0.00022242,0.000226,0.0073535,0.0057323,0.00014518000000000002,0.015801060000000002,0.0008351200000000001,0.00816846,6.342e-05,3.539e-05,0.00040774999999999996,0.00032214,-0.00012810000000000002,-0.00043928000000000006,3.74e-05,8.730000000000001e-05,-0.0002032,0.00315964,-0.00013612,0.00218601,5.124e-05,0.0008159700000000001,6.959999999999998e-05,-0.00019511999999999996,-6.318e-05,0.02490137,0.02490137,0.02178855,0.00460252,-0.0010134300000000003,-0.0004528999999999999,-0.0043040199999999995,0.00011448,0.0015114,0.07023264,0.058302179999999995,0.03818416,0.01687905,0.007580639999999999,0.01369239,-7.567e-05,0.0156611,-0.0007617600000000001,5.9800000000000003e-05,5.38e-05,0.0017680000000000003,0.00486219,0.00010754,0.00034972,0.00270385,0.00034164,6.5999999999999995e-06,0.00012701,-0.00049875,0.011449,0.0045330200000000005,-5.016000000000001e-05,0.00454321,0.0,0.00711207,0.00711207,-0.0185564,0.0092148,0.00449965,0.00138437,0.00387348,0.00302,-0.0035887500000000004,0.00470925,0.00213714,0.00106149,0.00033299999999999996,6.696e-05,-0.0009364699999999999,0.0009955200000000002,-0.030464280000000003,-0.0162885,-0.0126336,-0.0014313400000000001,-0.00015028,-0.000396,-0.00124785,-1.8959999999999998e-05,-0.0004653,-0.014185979999999999,-0.0077421,-0.0038262,-0.00247904,0.0027504400000000003,0.0027504400000000003,0.00016688,0.0016933200000000003,-0.0402173,-0.03930056,-0.0080733,-0.00038096,-0.00025389000000000005,0.0012622500000000001,-0.005769279999999999,-0.00029008,-0.021561100000000003,0.0012350399999999997,0.00160555,0.00013230000000000002,-0.00490032,-0.01784374,-0.00051296,-0.0013383499999999999,-0.00940152,0.00129398,0.00101384,-0.0010075,-0.00284607,0.0013253100000000001,0.0013253100000000001,0.00057624,-0.0012201,4.654999999999999e-05,-0.00045372,-0.005713889999999999,-0.00023003999999999996,0.008494999999999999,-0.0030672,-0.0030672,-0.0030488,-1.613e-05,-5.88e-06,0.0006009899999999999,0.0006009899999999999,0.00032635,-5.2079999999999996e-05,0.00032565,0.03265888,0.03265888,0.019808000000000003,0.00608212,0.00073948,-0.00011573999999999997,0.00563616,-0.00112905,0.007577700000000001,-0.00018625,0.0011468,-0.009204659999999998,-0.0021395999999999997,0.00118206,0.0037833600000000004,-0.00116737,0.002994,0.01474911,0.0,0.0,3.717e-05,-0.00032319,-0.0010679200000000002,0.02302256,0.00444477,0.017907,0.0004478399999999999,0.042145419999999996,0.0018779,0.00069216,0.00224812,0.00049296,0.00038832,-0.00047616,1.879e-05,-0.00026039,0.00018891,0.0015674299999999996,-0.00133779,0.00021691999999999998,0.0002595,0.03138146,0.01181488,0.004900999999999999,0.004927290000000001,3.08e-05,0.0013275600000000002,0.000568,0.0006165900000000001,0.0183108,0.0183108,0.00901442,0.00901442,0.00350848,-0.00032436000000000005,0.00010362,0.0007963199999999999,6.93e-05,0.0024593600000000003,0.00137148,0.0012447,0.05498240000000001,0.06609651000000001,0.06609651000000001,0.00032495,0.013856640000000002,0.049225979999999996,0.0003276,-0.00114688,0.0,7.564e-05,-0.0107681,0.00108442,6.406999999999999e-05,-0.00049662,0.00048552,0.0010723699999999998,0.0030402800000000002,-0.00020600000000000002,-0.0007998,-0.024010420000000005,0.0,0.0,-5.0039999999999995e-05,-0.00012537,6.872999999999999e-05,0.024784379999999998,0.024784379999999998,0.0,0.00039186,0.0,8.316e-05,0.002013,0.0012426,-0.00018885999999999995,0.00094875,-0.0176886,-0.0176886,-0.0176886,0.0,-0.016320710000000002,-0.0006393600000000002,0.0,-0.00055902,0.0,0.0
201204,0.0,0.0,0.0,4.36e-05,0.0013243999999999999,0.0,-0.00026865,0.00178752,0.00068952,0.0005631599999999999,-3.06e-05,-7.728e-05,-0.00211692,0.004572090000000001,0.0062464,1.842e-05,-0.0010992,2.9279999999999997e-05,0.0009543799999999999,-7.120000000000001e-05,7.076e-05,1.5180000000000002e-05,0.00031265,-0.0001431,0.00207,0.0020383,-0.00041132000000000007,-0.00017856,0.0177008,0.00011937000000000002,-0.00043164000000000006,0.0002764,-0.0026196,-0.0004876200000000001,0.0046219600000000005,0.0036218000000000005,-0.00018135000000000002,0.0,0.0062844400000000005,-0.00014288,-0.0005974800000000001,0.0009503600000000001,0.00018102,0.00275575,-0.00122647,0.0,7.32e-05,0.00035295,6.738e-05,0.00131652,0.0,0.00076895,0.00034364,0.0,0.0,0.0,0.0,0.0,0.0,0.00122421,0.00027432000000000004,0.00050201,0.0331692,-6.298000000000001e-05,-0.00010646999999999999,-0.00029694,9.6e-06,-0.0011316,0.0008560800000000001,6.03e-05,0.0012691000000000002,8.4e-07,0.0074916900000000005,0.00034032,0.0009951500000000002,0.0013936,-9.600000000000001e-06,0.00045815999999999994,0.0006934399999999999,0.00179075,-0.0003116,-0.0014475400000000002,-0.000275,-0.00021700000000000002,-0.00057794,0.0007103599999999999,0.0,-9.029999999999999e-05,0.00015912,0.0,9.292e-05,0.00203679,2.8399999999999996e-05,0.00011968,0.0009072,0.00027542,0.0020505000000000002,0.13348104,0.0007179200000000001,0.00202904,0.0008521699999999999,0.00284016,0.00176148,0.0,0.0,0.0,0.00013035,0.00026847000000000004,-0.00025648,-0.00033984,0.00126594,0.00070798,0.0,0.0,0.0,0.0,0.0,0.64,0.11801451,0.09360822,0.041125430000000004,0.00226028,0.0033641300000000003,0.0006592000000000001,0.0016042500000000002,0.00796905,0.00043549,0.00030863999999999995,0.00016639999999999998,4.185e-05,0.00017101,-9.386e-05,9.933e-05,0.00708008,-0.0039451600000000005,0.00368554,-0.00011234000000000001,-0.00092829,-0.00029126999999999994,-0.00021831000000000002,0.00025461999999999994,-0.0074470199999999995,0.00089889,0.00026892,0.00946152,0.0012117999999999999,-0.0016383,0.00751983,-1.053e-05,0.0033472000000000003,0.0020497,-0.00015842,-3.3299999999999996e-05,0.00048242999999999995,0.0004325,0.00024675,0.0,0.00033462,0.00275904,-2.222e-05,-0.0005229,-4.044e-05,0.00590964,-0.00024108,-0.00091905,-0.00023716,-1.456e-05,-0.00735909,-0.00021461999999999997,0.0003237,-0.00099498,-0.0037455600000000006,0.0005805799999999999,-0.00013505,0.00564094,0.00351852,0.00111665,9.76e-05,-0.034103699999999994,0.00028034000000000007,-0.0029779200000000002,-0.0001001,-0.009573120000000001,0.0003333,-0.00304494,-0.012269899999999999,-0.0014976500000000001,-0.00033286,0.0018088000000000002,-0.0023275799999999997,-0.00050198,-0.0014188199999999997,-0.0021663,0.007407619999999999,0.0002116,0.00061832,-5.3460000000000007e-05,0.0,0.0,0.0005915999999999999,-0.0001158,-5.88e-06,3.192e-05,0.0,0.00082869,0.005742359999999999,0.00029056,0.0,-0.00048416,0.0022437,-0.00065016,0.00068616,-0.00011999,0.00014224000000000002,0.006686819999999999,0.00429484,0.0168507,6.861999999999999e-05,0.0025534600000000005,2.8799999999999995e-05,0.00012444000000000002,0.008016750000000001,0.00336256,0.00304451,0.0006014,0.0013716,-0.0004024,6.0599999999999996e-05,0.010447920000000001,0.00969172,-0.00022944,0.005898420000000001,0.0022392899999999997,-0.0004966,0.00038807,0.0042384,-0.00088692,0.00187148,8.348999999999999e-05,0.00032487,0.00017512000000000002,4.018e-05,7.56e-05,0.007691840000000001,-0.00010881,0.00443733,0.00016235000000000002,0.0016941600000000001,-7.007e-05,0.00051724,0.00078408,0.024930509999999996,0.024930509999999996,0.02767407,-0.01381302,0.00055862,0.0006869399999999999,0.00492328,7.608e-05,0.0026544000000000003,0.11738,0.09384351,0.0615915,0.030836099999999998,0.01600042,0.01453144,0.00017920000000000002,0.02129688,0.0007487999999999999,0.00023,-7.801e-05,0.00022230000000000004,0.011413979999999997,0.0010188,0.0020250000000000003,0.00425733,0.0003431,0.00016128,0.00100528,0.0007785000000000001,0.0229085,0.0071682000000000004,-5.8740000000000003e-05,0.007215000000000001,0.0,0.015580660000000003,0.015580660000000003,-0.03642058,-0.013153319999999998,-0.007117739999999999,-0.00090285,-0.00214742,-0.0030780000000000004,-0.00068136,-0.0028134,0.00022764999999999998,-0.00041855999999999995,-0.00072732,-0.0031395999999999998,-0.00221408,-0.0008981600000000001,-0.02215476,-0.009605699999999998,-0.00580558,-0.0027199099999999994,2.97e-06,0.00043005,-0.0012588,-0.00013745999999999997,0.00015872,-0.0125268,-0.0040782399999999995,-0.00054873,-0.0050778,-0.00129312,-0.00129312,1.197e-05,-0.00095,0.06406848,0.041384420000000005,0.015398739999999998,0.007406879999999999,0.0013004699999999998,0.00199606,6.96e-05,3.57e-05,0.01779188,0.010549299999999998,0.0031208,0.00024255,0.007093520000000001,-0.0023991,0.00030286,-0.00117003,0.00818178,0.0031180799999999996,0.00135888,0.0008545600000000002,-0.00087848,0.02325192,0.02325192,0.0026767,0.00596324,3.059e-05,-0.00041032000000000004,0.0027504,-0.00039680000000000005,0.01283942,-0.00094332,-0.00094332,-0.00046777,-0.0006118,0.00012555999999999998,0.00056,0.00056,0.00037052999999999994,0.00014361999999999998,4.5900000000000004e-05,0.020405000000000003,0.020405000000000003,0.01836125,0.00110636,0.00560304,0.0,-0.00044736000000000005,-0.00112095,0.011783199999999999,0.00054908,0.00090155,0.00611832,-0.019560750000000002,0.00118129,0.0038874,-0.00048465000000000004,0.0021675600000000002,0.01143556,0.00156366,0.0,6.195e-05,0.0007889500000000001,-0.0007597000000000001,-0.0036717100000000003,-0.01089963,0.007848899999999999,9.960000000000001e-05,0.10666271999999999,0.05512206000000001,0.0545811,0.004182910000000001,0.00693576,0.007211820000000001,0.0033970000000000003,0.0030749999999999996,0.00502992,0.00278901,0.00915609,0.00967932,-5.94e-05,0.00054028,0.03483106,0.01139122,0.0051168,0.00416547,6.6e-05,0.00513797,0.00083074,0.0034093799999999996,0.0183906,0.0183906,0.0161894,0.0161894,0.00346375,0.00130013,-0.0015505500000000001,0.00170766,0.00014280000000000003,0.0031960499999999998,0.00388368,-0.00033432000000000004,0.22371582999999998,0.08993019000000001,0.08993019000000001,0.0006561000000000001,0.0087388,0.06712368,5.0289999999999995e-05,0.00112141,0.009806519999999999,7.564e-05,0.01805282,-0.0010158500000000002,9.834e-05,0.00059015,0.00025131999999999997,-5.7419999999999996e-05,-0.00062888,0.00028234,0.00649066,0.006784919999999999,0.11601855999999999,0.11601855999999999,-0.00034111999999999993,-0.00039864999999999996,5.925e-05,0.00184204,0.00184204,0.0,0.0005592,-0.0007185,0.00015048,-0.0004967999999999999,0.00071172,0.00014202,-0.00133287,0.02247836,0.02247836,0.02247836,0.0,0.008586479999999999,-3.5249999999999996e-05,0.015018,-0.0023510400000000004,0.0,0.0
201205,0.0,0.0,0.0,0.00020601,0.00218892,0.0,0.00026622,0.00151536,0.002349,-0.00021371,0.00013601,0.0006026100000000001,0.0026407399999999995,-0.0034750799999999997,0.006482519999999999,0.00114375,0.0018400500000000002,6.72e-05,0.0007017600000000001,0.00013143,7.198e-05,-4.059e-05,0.0005797,0.00027632,0.00165504,0.00098686,0.00030575999999999997,0.00026266,0.0205575,-6.721e-05,-0.00019061,-0.00105952,0.0011812799999999998,0.0006333199999999999,-0.008024,0.00409384,0.0024,0.0,-0.0231,-8.584e-05,-0.00030645,0.0004115,0.0003003,0.00016569000000000002,0.00242452,0.0,0.0,0.0,0.0,0.0,0.0,0.0,-0.0001556,0.0,0.0,0.0,0.0,0.0,0.0,0.0,-0.0013662,0.000882,0.029408699999999996,-0.00015717,0.00067969,0.000276,2.4569999999999997e-05,-0.00038475,0.0008578199999999999,5.1590000000000006e-05,-0.000364,4.2839999999999996e-05,-0.00083385,0.0006351,0.00217402,0.00020873999999999998,7.189e-05,-0.0002853,-1.58e-05,0.0006095599999999999,-0.00013468000000000003,-0.00036982,-0.0003337200000000001,6.111e-05,-4.62e-05,0.00044165,0.0,0.00013824,-0.00047633999999999996,0.0,0.00027707999999999997,0.0009241399999999999,0.0007055,0.00063297,0.00024264,0.00013455000000000002,-0.00020475,0.030164249999999997,0.00027692,0.0008815499999999999,0.0012703600000000001,-0.0011752000000000002,0.0,0.0,0.0,0.0,-0.00021784000000000001,-0.00027552999999999996,0.00053312,2.4360000000000004e-05,0.0008690000000000001,-0.0001326,0.0,0.0,0.0,0.0,0.0,0.36,0.16870738,0.12529265,0.049098,0.01081797,0.00517888,0.0019486400000000002,0.0017626900000000001,0.0034481,-0.00012987,0.0007677,2.3399999999999996e-05,8.099999999999999e-06,2.2950000000000002e-05,-0.00045107999999999997,5.390000000000001e-06,0.002964,0.035635200000000006,0.00065032,0.00018549,0.00037932000000000005,-0.0009073999999999999,0.00123695,0.00025728,0.0223062,0.012162850000000001,-0.00047309999999999995,0.00223464,-0.00141717,-0.00290444,0.0019522300000000001,5.967e-05,0.00206976,0.00047978000000000007,0.00042978000000000005,0.001058,-0.000286,-0.0002960099999999999,0.00060865,0.0,6.669e-05,-0.02157094,0.00036461,-0.0005236,-4.103999999999999e-05,0.0007889700000000001,-6.720000000000001e-05,0.0035826699999999996,-6.512000000000001e-05,-6.336e-05,-0.0015232,-0.013726150000000001,-0.00104148,0.00031388,8.601999999999999e-05,-0.00035151999999999997,-0.0009919,-0.005836470000000001,-0.003471,0.00075125,0.00028917,0.00074295,0.00028930000000000004,0.00107588,-9.504000000000001e-05,-0.00217035,-0.0007625500000000001,-0.001575,-0.00330723,0.00032606000000000003,-0.00018684000000000002,0.00022763000000000001,0.00302036,0.00196575,0.00088755,0.00084847,-0.00370566,0.0006048,6.942000000000001e-05,-1.2219999999999998e-05,0.0,0.0,0.00021417,-0.00010313999999999999,-0.00011536000000000001,-9.24e-05,0.0,3.696e-05,-0.0033251399999999994,-0.00022044,0.0,-0.00043889999999999993,0.00499418,-0.00065395,0.00344487,0.00147476,0.00015999999999999999,-0.0010613,-0.00021153,0.01088718,5.84e-06,0.00427315,-1.536e-05,0.00035292000000000006,0.00782452,0.0008531999999999998,0.0042097,-0.0001261,0.0018479,0.000996,0.00012928,0.01399635,0.01144416,0.0003713,0.01674798,0.0004544400000000001,0.0030328000000000004,-0.00017402,0.01026528,3.45e-05,0.00208305,-7.038e-05,-0.00042899999999999997,0.00014759999999999998,-1.372e-05,0.0006551100000000001,0.0016879500000000001,0.00017974000000000004,0.00305292,-0.00010492,4.338e-05,0.00022752,-9.52e-05,-0.00032273999999999996,0.04248003,0.04248003,0.0135828,0.01449263,0.00179299,0.0008578500000000002,0.01034924,-0.00027764,-0.00020312,0.117564,0.0910836,0.06518234999999999,0.02373273,0.00747347,0.03452159999999999,-0.0005570600000000001,0.02450159,0.00070875,0.0001104,8.010000000000001e-05,0.0013265999999999998,0.0016664000000000002,0.00031460000000000006,0.0008834,-0.0014825799999999998,0.000517,3.135e-05,0.0006957999999999999,7.322000000000001e-05,0.02607807,0.00167202,0.00022271999999999998,0.0014433900000000001,0.0,0.024341759999999997,0.024341759999999997,0.007726330000000001,0.00524446,0.0037349,-0.0029267700000000004,0.00484218,0.0010901,0.0009246999999999999,0.0005149,0.00085347,0.00055168,0.0010581999999999998,0.00105216,-0.00014867999999999997,0.0012069000000000001,0.0013363000000000001,0.0048346,0.0006123,0.0016554999999999999,9.306000000000001e-05,-8.769e-05,0.00273504,0.00024804,-0.00040799999999999994,-0.00351821,0.00095642,-0.0007051999999999999,-0.005022850000000001,0.0009959600000000002,0.0009959600000000002,0.00010317,-0.00013563000000000003,0.05838489000000001,0.03135602,0.00078835,0.005318010000000001,6.56e-06,0.0036384,-0.00011535000000000001,7.5899999999999985e-06,0.02385339,0.009550770000000002,0.0035995500000000004,6.15e-05,-6.792e-05,0.009072,0.00139656,0.0003026,0.00678022,0.0012977,0.00171375,-0.00027576,0.00026304,0.02129792,0.02129792,0.006343380000000001,0.005255999999999999,0.00022176000000000002,0.0005685400000000001,0.0049712,0.0005733,0.0010424999999999998,0.005006999999999999,0.005006999999999999,0.00433329,0.00054162,0.00012789,0.0004725,0.0004725,-0.0001076,0.00027554999999999995,0.00030260000000000004,-0.11772665999999998,-0.11772665999999998,-0.05740608,0.0019243000000000003,0.0045483599999999996,0.0,-0.0007404,2.4660000000000004e-05,-0.06294084999999999,5.944000000000001e-05,-0.00031449,-0.026364000000000002,-0.01722399,0.0011750200000000001,0.005723089999999999,0.00128986,0.00024060000000000002,0.00221962,0.00018558,0.0,-0.0001394,-0.00040527,0.003771,-0.03333696,-0.020804160000000002,-0.01300738,0.0006194999999999999,0.07356030000000001,0.03516144,0.03417064,0.00203493,0.004561700000000001,0.0029565000000000004,-0.0018172700000000002,0.00346602,0.00154508,0.00234321,0.00724842,0.01010438,0.00027987,-8.304e-05,0.029210680000000003,0.00716431,0.0030023,0.00274073,8.6e-05,0.0034728,0.0006498,0.0026186399999999998,0.0183804,0.0183804,0.00981721,0.00981721,0.00019509,0.00035372,0.0028716800000000006,0.0010325500000000001,-7.140000000000001e-05,0.0006972,0.00137345,0.0006905,0.0611418,0.030842,0.030842,1.4699999999999998e-05,0.00599616,0.02410914,8.881e-05,-0.00040848,0.0013223999999999998,7.564e-05,-0.010702299999999998,0.0012410000000000001,0.00024435999999999994,-0.0002544,0.00014419999999999998,0.00045648,0.0024959200000000004,-0.00027552,-0.00100525,-0.017561309999999997,0.04091088,0.04091088,-5.761e-05,-0.0005752600000000001,0.00052156,-0.00045776000000000004,-0.00045776000000000004,0.0,-0.00083415,-0.0008377999999999999,0.00014972,0.0004929,-0.00030268,0.00014202,0.00064866,-0.00926763,-0.00926763,-0.00926763,0.00012050999999999998,-0.0210714,0.00074752,0.00934464,0.0015182899999999998,0.0,0.0
201206,0.0,0.0,0.0,2.9970000000000003e-05,-0.0015506199999999997,0.0,0.0011721499999999998,0.0013503599999999999,0.00167018,0.00065569,0.00032911999999999997,6.764999999999999e-05,-0.0039663300000000005,0.00228984,0.00213194,0.0002079,0.00694518,5.8559999999999995e-05,0.00075166,6.56e-05,0.00014691000000000001,1.1220000000000001e-05,0.00022079999999999995,6.201000000000001e-05,0.0018986000000000003,-0.00095115,-0.00045012,0.00031405,0.012753040000000002,0.00062708,0.00030108,0.0008840000000000001,-0.0006227999999999999,-0.0001074,0.0031466499999999995,0.0029484,0.0029448199999999995,0.0,-0.06676048,0.00013942999999999998,0.0021018,0.00094415,-6.864000000000001e-05,0.00145044,-0.0013446,0.0,0.0,0.0,0.0,0.0,0.0,0.00080771,-7.745000000000001e-05,0.0,0.0,0.0,0.0,0.0,0.0,0.0,-0.00023984000000000003,0.00026433,-0.00987005,-1.8200000000000002e-05,0.00029756,0.00051085,-7.748e-05,-0.00013527,-0.00064415,1.9719999999999998e-05,-0.0004769299999999999,-5.04e-05,0.00304392,-0.0039762,0.0017945199999999998,0.00023912000000000003,8.611000000000001e-05,-0.0019866000000000003,0.00036202000000000006,0.0008099,0.00021608,0.0011443199999999999,0.00075888,-4.074e-05,0.00025311,0.00035205999999999996,0.0,-6.912e-05,0.0008390200000000001,0.0,0.00043756999999999997,0.00030537,0.0009608400000000002,0.00015834,0.0010392700000000001,0.00041464,0.00399742,0.01897813,-0.00046368,0.00096089,0.00046332,-0.0038491200000000006,0.0,0.0,0.0,0.0,5.454e-05,-0.00037912,0.0,2.7760000000000002e-05,8.912e-05,0.00066736,0.0,0.0,0.0,0.0,0.0,0.08,0.15771716000000002,0.10159411,-0.0019608,0.005268159999999999,0.0026781,0.0022933199999999997,-0.0023325,0.0009528000000000001,0.0001744,-0.0024035799999999998,-3.626e-05,5.399999999999999e-06,-6.018e-05,-0.00012053000000000001,7.007e-05,0.0021631800000000002,0.0525862,0.026133930000000003,0.0014956799999999999,-0.0004094999999999999,0.0002592,-0.00042411,-0.00016047999999999998,0.020587099999999997,0.00224774,0.0028536,0.00027894,-0.00145844,-0.0020493,0.00036704000000000006,8.680000000000001e-05,0.0062050000000000004,0.005016,7.280000000000001e-06,0.00028371,-0.00019598,0.00155127,-0.00020708,0.0,-0.00025972,-0.00066784,0.00018746,0.0008456000000000001,-6.710000000000001e-06,0.00110744,0.00014937,0.00013440000000000001,-0.0015023399999999998,1.665e-05,0.0065871,0.0037975500000000002,0.00072116,0.00017141000000000001,-0.00019152,0.0008241600000000001,-0.004329240000000001,0.00131544,-0.0090132,-0.0013622400000000002,-9.337999999999999e-05,0.00419492,0.0003498,-0.00238165,0.00019822,-0.0004627000000000001,0.0002673,-0.00064975,-0.00020169999999999997,0.00065076,0.0002023,-0.0002672,0.00277873,0.00318351,-0.000624,0.0005892800000000001,-0.009286949999999999,-0.00031374,-0.0015082199999999998,-5.668e-05,0.0,0.0,-1.3530000000000001e-05,-0.001596,-3.807e-05,-0.00023815,0.0,-0.00035727999999999997,-0.00295816,0.00069312,0.0,-0.0034138,0.00171948,0.00055413,0.0032453599999999997,-0.0013363199999999998,0.00043343999999999994,-0.00010561000000000001,0.0015304000000000001,0.0026336800000000002,-8.7e-06,0.0011759,4.7279999999999995e-05,0.00031878,0.019218600000000002,0.00307385,0.0092073,0.00082025,0.0034162000000000003,0.0023046,0.00038784,0.00890487,0.0074982600000000005,-0.00038479000000000003,0.00967626,-0.00011354000000000003,-0.00175122,5.472e-05,0.004079040000000001,-8.029e-05,0.0013866199999999999,-0.00012036,0.0002726,2.867e-05,-0.00018818,7.196000000000001e-05,0.005631,4.16e-05,0.004552479999999999,-9.659999999999999e-05,0.0002976,7.800000000000001e-05,5.94e-05,0.00084216,0.05621279999999999,0.05621279999999999,0.03249098,0.011051459999999999,0.00037515,0.00043032,0.0059740800000000005,0.00103916,0.00336091,0.041327720000000005,0.06003604,0.046937679999999996,0.025691079999999998,0.00859842,0.01258861,7.439999999999999e-05,0.01147411,9.539999999999999e-05,0.00042780000000000004,0.0003165399999999999,-0.00011080000000000001,0.00191291,0.0008079299999999999,3.798e-05,-0.0003197,0.00015609,7.182e-05,0.00027524,4.176e-05,-0.019254059999999996,0.0034550600000000002,-0.00011088000000000001,0.0007751100000000001,0.00277092,-0.02273243,-0.02273243,-0.00136065,0.008651840000000001,0.007317480000000001,0.00781572,0.00014912999999999998,0.0011711500000000001,-0.00202725,0.00441524,0.00048856,0.00030240000000000003,0.00051983,-0.0030222000000000005,-0.00266436,-0.00035216999999999996,-0.01180046,-0.01072938,-0.00991278,0.00018984,-0.00012639000000000001,0.00039647999999999994,-0.0005018399999999999,-0.000354,-0.00041328,-0.0011068200000000001,-0.00475397,0.0013584,0.0029564,0.00163484,0.00163484,-3.305999999999999e-05,0.0011656499999999998,0.02571426,0.02211352,0.0059717,0.00048259999999999997,0.00048321999999999997,0.00226176,-0.00043623999999999996,-9.072e-05,0.01310386,0.0040234400000000005,0.00336552,-1.96e-05,0.007138129999999999,-0.0015256500000000001,-1.595e-05,0.00011557,0.0032638499999999996,-8.244e-05,0.00090816,0.00010654,-0.0013784399999999999,-0.00076624,-0.00076624,-0.0021279999999999997,-0.0011337600000000001,-0.00017554000000000002,-0.00035298,0.00567273,-0.00077198,-0.00492385,0.003376,0.003376,0.0019795599999999996,0.00152928,-0.00015288,0.0006569999999999999,0.0006569999999999999,0.00051798,0.00017745,-3.44e-05,-0.23728738000000002,-0.23728738000000002,0.0390008,0.023856270000000002,0.00347776,0.0,0.007147929999999999,0.00017192000000000005,0.0039193200000000004,0.0,0.0001419,-0.24990959999999998,-0.19099992,0.0011722700000000002,-0.00013892,6.45e-05,-0.00191904,0.00936925,0.0008343,0.0,0.0006242400000000001,0.00014732,-0.0031697400000000003,-0.02630019,-0.016258139999999997,-0.01183828,-4.955999999999999e-05,0.042483240000000005,0.00190095,0.0017541000000000002,0.001316,0.00187965,0.00082575,0.00041391,-0.0005189400000000001,2.042e-05,0.00040413,0.001582,-0.005356499999999999,-0.00044772000000000003,-0.00024767999999999996,0.028821279999999998,0.007293000000000001,0.00395692,0.00238659,9.102e-05,0.003132,0.00037653,0.0017155,0.018433799999999997,0.018433799999999997,0.011673639999999999,0.011673639999999999,0.00091707,0.00032504,0.00245904,0.00013608,9.879999999999999e-05,0.0012291399999999999,0.0018859100000000002,0.00419049,0.04801332,0.02903519,0.02903519,-5.844e-05,0.0037517999999999996,0.022352840000000002,0.00014765999999999998,-0.00104076,0.0,7.564e-05,0.022773750000000002,0.0019957900000000003,9.75e-05,0.00020566,0.00023483999999999997,0.0002856,0.006029100000000001,0.00012806000000000002,0.00167832,0.0164241,-0.0036780000000000003,-0.0036780000000000003,-0.0001312,-0.00060216,0.0004704,0.00273684,0.00273684,0.0,0.00088544,0.0,0.00014972,0.0017706600000000003,0.00041856,4.4710000000000004e-05,0.00129732,-0.00048517000000000005,-0.00048517000000000005,-0.00048517000000000005,0.00020685,0.0,7.026e-05,0.0,-0.00059856,0.0,0.0
201207,0.0,0.0,0.0,-0.00011988000000000001,0.00380063,0.0,-0.00160356,4.128e-05,0.0021452000000000003,-2.495e-05,-7.344e-05,-0.00041745,0.00058708,-0.00049296,0.00393104,0.00034236000000000005,0.00817887,0.00012201,0.0005502,-4.346e-05,0.000219,-1.98e-06,5.238e-05,0.00011448,0.00471648,0.0008338499999999999,0.00033281,-9.758e-05,0.00531202,0.0001768,4.656e-05,5.4720000000000005e-05,-0.00013728000000000001,-8.93e-05,-0.0018149400000000003,-0.00140238,-0.00026585,0.0,-0.014128660000000001,-0.00012358,0.0010111200000000001,-0.00049332,-0.00022282,0.00077658,0.001584,0.0,0.0,0.0,0.0,0.0,0.0,0.00221089,0.00030940000000000004,0.0,0.0,0.0,0.0,0.0,0.0,0.0,-0.00025415,0.001469,-0.02111292,0.00068614,-0.00043648000000000005,-0.0010908,4.7399999999999993e-05,0.0001411,-0.000246,7.955999999999999e-05,-0.00046188,-9.66e-06,-0.005271929999999999,-0.00141032,0.00032844,-0.00296176,-0.00010320000000000001,0.0017764999999999999,-0.00062331,0.0008401800000000002,-0.00025604,-0.00024435,-0.00041473,2.037e-05,0.00027647999999999995,0.00032994000000000003,0.0,-0.00031364999999999995,7.034999999999999e-05,0.0015732400000000003,0.00046100000000000004,-9.064e-05,0.00052577,2.735e-05,0.0003054,0.00014675000000000002,0.0045265,0.03080964,0.0007156800000000001,0.0019306,-8.441999999999998e-05,-0.0005175,0.0,0.0,0.0077947500000000005,0.0,0.00018039999999999997,-9.672e-05,-9.847e-05,1.735e-05,0.0009039600000000001,0.0005943200000000001,0.0,0.0,0.0,0.0,0.0,0.43,0.2123303,0.12049475,-0.013590030000000001,0.00352755,0.00160308,0.00416772,-0.0018233600000000002,0.0023836,0.00037962,0.0011895699999999998,8.514e-05,-2.6999999999999996e-05,-6.3e-05,0.00023364,0.000117,0.00209391,0.09577925000000001,-0.013355520000000001,0.00012998,-6.45e-05,0.00021960000000000003,-4.278e-05,-5.536e-05,0.10076065999999999,-0.00176256,0.009261199999999999,0.0009294,0.0002142,-0.0015178199999999998,0.00040358,7.120000000000001e-05,0.010225799999999998,0.006257679999999999,-0.00016562,0.00023715999999999999,-7.838999999999999e-05,0.00204864,0.0011786,0.0,0.0007402199999999999,0.00408415,-0.00011550000000000002,-0.0002666,-2.2000000000000005e-06,-0.00012362,-0.00010240000000000001,-0.0005712000000000001,-0.00114318,-2.535e-05,0.00223535,0.0029484000000000003,0.00034816000000000003,-0.00064575,0.0007128400000000001,0.001113,0.00033792,0.0016874199999999998,-0.00237188,-7.434e-05,0.0001122,-0.027907609999999996,-0.00027068000000000003,-0.0019232399999999999,0.0009352800000000001,-0.006892819999999999,-0.00013916000000000002,-0.00246145,-0.00817481,-0.0018038599999999998,-0.00030444,0.00037296000000000003,0.0007427700000000001,-0.00077169,0.00057834,-0.00666985,-0.00017813999999999997,-0.0012515400000000002,0.00132277,-0.0001305,0.0,0.0,0.00030135000000000003,0.0009438,4.3679999999999995e-05,0.00038425,0.0,3.577e-05,-0.00143583,0.00021655,0.0,-0.000351,0.0,0.00015379,0.00034836000000000003,-5.484e-05,0.00019816999999999998,0.005169989999999999,0.00506801,-0.0013177500000000001,-0.00011165,0.0016102500000000001,2.9279999999999997e-05,-0.00013230000000000002,0.01995003,0.00199752,0.017584620000000002,-0.00028217,0.0014982,-0.00063488,-0.0001236,0.0037858400000000004,0.00338436,5.6399999999999995e-05,0.00738041,-9.72e-05,-0.00045432,-4.408e-05,0.0028704000000000004,-0.00042364999999999997,0.0025434000000000003,4.422000000000001e-05,0.00067767,8.554000000000001e-05,0.00010355,0.00062194,0.010964159999999999,9.04e-05,0.00998778,-8.3e-05,0.00112056,3.3150000000000006e-05,1.08e-05,0.00016236,0.09130964999999999,0.09130964999999999,0.0282924,0.04621418000000001,0.0014779800000000003,0.00054448,0.009225,0.00038796,0.00020464000000000005,0.0798606,0.07773128000000001,0.0638848,0.0440916,0.015354239999999998,0.00382025,0.00089745,0.00906796,-0.00068499,0.00024804,0.00020444,0.0015491,0.004164999999999999,0.00053452,0.00018989999999999998,0.00248898,-0.00014694,1.334e-05,0.00042354999999999997,-0.00012528,0.0031928400000000006,0.00155194,3.575e-05,0.00132864,0.00019224000000000002,0.0013469600000000001,0.0013469600000000001,-0.00045304000000000004,-0.0031971800000000004,-0.0020174000000000004,0.0002997,-0.0004969000000000001,-0.0013965000000000002,-0.00019559999999999996,0.00036225000000000005,-0.00017424,0.0009883799999999999,0.00010575,-0.0013662599999999998,-0.00041446000000000007,-0.0009698500000000001,0.0018899,0.00228866,0.00041355,0.00151872,0.00010976,0.0001195,-0.0001251,6.959999999999998e-05,0.000115,-0.00033984,-0.0031774499999999996,0.00010344,0.00285868,0.0005708800000000001,0.0005708800000000001,-8.55e-06,6.19e-05,0.00264552,-0.01580492,-0.0025219200000000004,9.654000000000001e-05,0.0004533299999999999,-0.00224315,0.0008244,0.00015311,-0.010231,-0.0036244000000000007,-0.0028919400000000004,0.00047775,-0.004555320000000001,-7.244e-05,-0.0007013599999999999,0.0011734800000000002,-0.0029847999999999997,-0.0008232,-0.00092544,0.00057075,-0.0001728,0.0172197,0.0172197,0.002526,0.00525821,3.5640000000000004e-05,4.36e-05,-0.0011347699999999998,0.00037008999999999995,0.0103215,0.0010218,0.0010218,-0.0005127399999999999,0.0012856000000000002,0.00024215,7.056e-05,7.056e-05,1.617e-05,-0.00012312,0.000172,-0.005957039999999999,-0.005957039999999999,0.027983009999999996,0.00469795,0.0,0.0,0.00490578,0.012275000000000001,0.00446426,0.0,-3.7840000000000004e-05,0.0,0.00032923,0.00117271,-0.0012839,0.0009245,0.0029415,0.00838733,0.00110959,0.00236535,0.00023597999999999997,5.09e-06,-0.0025534000000000004,-0.033326800000000004,-0.01696866,-0.018848,0.0017703399999999998,0.04036824,0.00874184,0.007364700000000001,0.0008499600000000001,0.00243136,0.0029441199999999997,-0.00019740000000000003,0.0006511,-0.00046919999999999997,-0.00029806000000000006,0.00134912,0.0007790200000000001,0.00032629,0.0006173999999999999,0.027075569999999993,0.006258199999999999,0.0030359,0.00167388,2.1419999999999998e-05,0.0012819399999999999,0.00072072,0.00025648,0.01945755,0.01945755,0.00452642,0.00452642,0.0015601600000000003,0.0005556399999999999,-0.00708078,-0.00013608,5.775000000000001e-05,0.0001672,0.0018796800000000003,0.00283177,0.09332686999999999,0.06263818,0.06263818,0.00013122,0.00338418,0.05046806000000001,1.962e-05,-0.0014545699999999999,0.0058321200000000005,7.626e-05,0.02965193,0.00347612,0.00023103000000000002,0.00066486,9.108e-05,0.00072504,0.0030304100000000003,0.00011816999999999999,0.005132800000000001,0.0125425,0.00082368,0.00082368,0.0003272,0.00028649999999999997,4.165e-05,0.005472599999999999,0.005472599999999999,0.0,0.0031566599999999995,0.00047838,0.00015405,0.00210752,0.0003801899999999999,1.052e-05,0.00170181,0.0072711,0.0072711,0.0072711,0.00038584000000000003,0.0,0.0008079899999999999,0.0,-0.0016159,0.0,0.0
201208,0.0,0.0,0.0,0.00025069999999999997,-0.0012112000000000002,0.0,0.0012492800000000002,-0.00074034,0.0006300000000000001,-0.000248,7.242e-05,0.000644,0.006079050000000001,-0.00028595000000000004,9.986000000000001e-05,0.0001431,0.005816999999999999,-3.15e-05,0.00063176,4.360000000000001e-05,0.00016988000000000002,1.98e-05,0.00066348,-6.400000000000001e-05,0.00486639,0.0005562000000000001,-0.00059204,0.00012562,0.00782376,0.00048786,-8.514e-05,0.0019081999999999999,-0.00030708,0.00033782,0.0006007499999999999,0.0023530499999999998,0.0006712199999999999,0.0,0.00229755,-3.1389999999999996e-05,8.078000000000001e-05,0.0014716799999999997,0.00024679,0.0019599400000000003,0.0010168,0.0,0.00037862999999999997,0.00055656,0.00056457,0.006058499999999999,0.0012779199999999999,0.0007043199999999999,-1.543e-05,0.010668249999999999,0.0018622200000000002,0.0005867400000000001,0.00198746,0.0016629099999999999,0.0,0.0,0.00062412,-8.819999999999999e-05,-0.02679957,-0.00063341,-9.576000000000002e-05,0.00043216000000000006,-0.00010188,-0.00050796,-0.00049878,0.00020944,-0.00059831,4.860000000000001e-05,0.00119028,0.00278936,0.0019344,-0.00269563,0.00022357000000000003,-0.0007520000000000001,0.0006084,0.0014078400000000003,8.99e-05,0.00058435,0.00043523,0.00012707000000000001,0.00039935999999999997,0.00029939,0.0,0.00036646000000000004,0.0005241600000000001,-0.00156017,0.0025989999999999997,0.00010151999999999999,0.0006105999999999999,7.085e-05,0.0004779899999999999,0.00083798,0.00352155,-0.0162684,-7.728e-05,0.0010697400000000002,-0.00042000000000000007,-0.00220066,0.009261440000000001,0.004553379999999999,0.0,0.0,-0.00023016,0.00014586000000000002,-3.859000000000001e-05,0.00067124,0.00135035,0.00156215,0.0,0.0,0.0,0.0,0.0,0.41,0.20629487999999999,0.13622963,-0.02092582,0.009287519999999999,-0.0017518,-0.00015818,-0.00155044,0.00542178,-4.788e-05,0.00308904,-0.0003225,0.00017235,0.00020433,0.000707,-1.4220000000000001e-05,0.00038399999999999996,0.07405846,0.0071635200000000005,0.00020580000000000002,0.0002363,0.000341,0.00321718,0.00067584,0.05680416,-0.00157331,0.007594230000000001,0.0037052000000000005,0.001068,0.0025697,0.00033208,5.330000000000001e-06,-0.00874752,-0.006174720000000001,-8.722e-05,-0.0010969200000000001,-9.348e-05,0.0004913200000000001,-0.0010084199999999999,0.0,-0.0007840000000000002,-0.0007506,-0.00026416,0.00107712,-2.6510000000000005e-05,-0.0031608,-0.00014157,0.0019503899999999998,0.0004554,0.00031785,0.0021910000000000002,-0.00208728,-0.0015038800000000002,-0.00071344,-0.00047658000000000005,0.0013120200000000001,0.0034322000000000003,0.00212562,-0.0043827499999999995,-0.00097344,0.00013319999999999999,0.016775969999999998,-0.00045936,0.00589548,-0.00081198,0.0052083,0.00029145999999999995,0.00097128,0.0008643800000000001,7.572e-05,-0.00017976,-0.00037240000000000005,-0.0020093999999999997,0.00251085,-5.270000000000001e-05,0.00439444,0.0017434499999999997,-9.918e-05,0.0005075899999999999,-6.599999999999999e-05,0.0,0.0,-0.00045000000000000004,0.00154707,1.43e-05,-7.840000000000001e-06,0.0,8.759999999999999e-06,-0.00026169,-0.00012044999999999999,0.0,0.0009127299999999999,0.0063376000000000005,0.0015221999999999998,0.00315446,0.0022543199999999998,0.00025326,0.013514240000000002,0.0077224,0.0065555,0.00025597,0.00232632,3.479999999999999e-05,-0.00026082,0.01393315,0.00233044,0.00880968,0.0017677800000000003,-0.00069845,0.00169171,6.699e-05,0.00610708,0.0041725,3.51e-05,0.01043884,0.0015797600000000001,-0.0006400500000000001,0.00027180000000000005,0.0025481699999999998,0.0034988800000000002,0.0020657,-1.34e-06,-0.00012936,-5.405e-05,0.00012095999999999998,0.0006943,0.006474,-4.2640000000000005e-05,0.004732,4.9199999999999995e-06,0.00069864,0.00016524000000000004,-1.883e-05,0.00011784,0.06915599999999998,0.06915599999999998,0.03467995,0.01748425,0.00060385,0.00030925999999999995,0.00826728,0.00074529,0.00193724,0.03257012,0.06566528,0.04954096,0.01646298,0.0170395,0.01586104,-5.704999999999999e-05,0.011020499999999999,-0.00047502000000000004,-0.00039647999999999994,0.00035777,0.00328412,0.00525168,-0.00024528,0.00042942,0.00313796,-8.949e-05,0.00010602,0.00046294999999999995,6.747e-05,-0.03317412,-0.00535545,-1.0399999999999999e-05,-0.005297759999999999,0.0,-0.027840689999999994,-0.027840689999999994,0.0180412,0.013397719999999998,0.0085962,-0.00023879999999999998,0.006375179999999999,0.0015981300000000001,0.00072576,0.0030935999999999993,0.00029906,-0.00027063,0.00025145,0.0018382499999999998,0.00264107,-0.00081804,0.00452088,0.0070590800000000006,0.0039837299999999996,-0.0020212999999999997,-0.00011484,-7.92e-05,0.00398208,0.0002667999999999999,0.00042914,-0.00262136,-0.004513539999999999,0.00065284,0.0014533600000000001,0.0,0.0,-3.42e-06,-0.00102339,0.0125172,0.0021189,0.0034474,0.0031252,0.00068432,-0.00404092,0.0025396800000000003,0.00054969,-0.00331313,-0.00511384,-0.0038272799999999997,0.00030627,0.0049847699999999995,-0.0009376900000000001,0.0009163999999999999,0.00029601000000000003,0.00194913,-0.0005296200000000001,-0.00188,6.867e-05,0.00104081,0.00941829,0.00941829,0.00108171,-0.00563428,-9.432e-05,0.00024738,0.00749805,5.321000000000001e-05,0.005563200000000001,0.00139482,0.00139482,0.0015763200000000002,0.0005484200000000001,-0.00070413,-0.00044829,-0.00044829,-0.00017183999999999998,3.887e-05,-0.00031486000000000003,0.01185894,0.01185894,-0.012780040000000001,0.012677599999999999,0.0,0.0,0.00022344,-0.00064175,-0.023719149999999998,0.0,0.00041448,0.033243840000000004,0.01114622,0.0011689699999999999,0.00337316,0.00085241,0.0015150600000000001,0.011474419999999999,0.00032333000000000004,0.0016741600000000003,-0.00027805,0.00043602000000000007,-0.0032793199999999996,-0.00862223,-0.0035205299999999996,-0.007542359999999999,0.0023250000000000002,0.059388090000000004,0.01668876,0.01679472,0.002359,0.002099,0.00023261,0.00043186,0.00040173,0.00052676,0.00019052999999999998,0.0014663099999999997,0.007129589999999999,-3.423e-05,-0.00067015,0.029015870000000003,0.00669972,0.00204309,0.00167314,1.0079999999999998e-05,0.0026163000000000002,0.00014898,0.00197154,0.019806720000000003,0.019806720000000003,0.013809120000000003,0.013809120000000003,0.001953,0.0021024,0.00547992,0.00118941,-0.00012285,-0.00025005,0.0007081800000000001,0.0008958999999999999,0.04327974,0.059879999999999996,0.059879999999999996,0.00026244,0.01038579,0.04126869000000001,0.00013392000000000002,0.00045209000000000004,0.0038335,7.626e-05,-0.01659582,0.0026451599999999997,-0.00022338,-0.00082316,-0.00018585000000000002,0.00021054,0.007618799999999999,-8.000000000000001e-07,0.00133452,-0.026474059999999997,0.0,0.0,0.00020424999999999998,-0.00033806999999999994,0.00054412,0.023185110000000002,0.023185110000000002,0.00040545,0.0013307999999999998,0.00044992000000000003,0.00016985,0.002112,0.0008115799999999999,9.432e-05,0.00119301,-0.00048336,-0.00048336,-0.00048336,0.0,0.0,0.0005870000000000001,0.0015031000000000003,-0.0023615999999999997,0.0,0.0
201209,0.0,0.0,0.0,-0.00012543,0.00120256,0.0,0.0003444,0.0021184800000000003,0.0009800000000000002,-0.00020172,-7.810000000000001e-05,-0.0004565,0.021170380000000003,0.0001626,-0.000597,0.0005819400000000001,0.01091778,0.00015925,-0.00012441,-1.64e-05,-0.00010368,1.3200000000000002e-05,9.8e-05,-0.00013674000000000002,0.0005656,-0.0007959299999999999,0.0010167199999999998,0.0007695,0.00125928,-0.0001044,-0.00012705,0.000344,-0.00043992,-0.00151848,0.0030608400000000004,0.002847,0.0017068799999999998,0.0,-0.0247536,3.744e-05,0.000506,0.00073548,-0.0003995,0.00331258,0.003941610000000001,0.0,0.0,0.0,0.0,0.0,0.0,2.199e-05,-0.00019981,0.0027124999999999996,0.00039676000000000007,9.18e-05,0.00060372,0.00081012,0.0,0.0,0.0007875800000000001,0.00119966,-0.00423306,-0.0001188,0.00038869999999999996,0.0009860399999999999,3.4760000000000006e-05,0.0007984000000000001,0.00407949,0.0005138,0.00081965,1.9949999999999997e-05,0.006757679999999999,0.00176035,0.0030044299999999998,-0.0019872,-3.8879999999999994e-05,0.00039164999999999995,0.00076636,0.00129132,-0.0001421,-0.00014416,6.15e-05,0.00022147999999999997,0.0012919199999999998,-6.732e-05,0.0,-0.00029464,0.00043803,0.0,0.00032424,-0.00029224000000000003,0.0010366,0.00053856,0.00054918,0.0005091200000000001,0.0004161000000000001,0.022996079999999995,0.00026880000000000003,0.0009320099999999999,0.0017375000000000003,0.0021462399999999998,0.0,0.0008117800000000001,0.0,0.0,4.5900000000000004e-05,-9.88e-06,-4.0499999999999995e-05,0.00059319,-0.00021312,0.00034271,0.0,0.0,0.0,0.0,0.0,0.57,0.29673504,0.2614345,0.037774,0.04389887,-0.0024909,0.00154938,-0.0009387,0.009276750000000002,0.00014577,-0.00053571,0.00074422,-0.0001748,9.282000000000001e-05,0.00238896,5.7719999999999996e-05,0.006248339999999999,0.00593736,0.03593743,-0.0004851000000000001,0.00097962,-0.00018795999999999998,0.00024552,-0.00024814000000000005,-0.045724,0.019835799999999997,-0.00435071,0.008891519999999998,0.0031987200000000004,0.00125154,0.0008650499999999999,9.881000000000001e-05,-0.01119366,-0.00759114,-0.00034936000000000006,-0.0004836,-0.00047249000000000005,-0.00088109,-0.0008274999999999999,0.0,-0.00058784,0.015849179999999997,0.0008585,0.0005481,-8.580000000000001e-06,0.00184617,1.554e-05,0.00124246,0.000634,0.00028890000000000003,0.00300516,0.00138472,0.00025752,0.00123284,0.0021650000000000003,0.00111852,0.0032175,0.00071877,-0.00087906,-0.00167134,-0.00011925,0.055333520000000004,0.0004128,0.00777944,-9.591999999999999e-05,0.00988912,0.00133874,0.00799715,0.01321377,0.0050706499999999995,0.00034361999999999994,0.00107001,0.00067106,0.004118350000000001,0.00069608,0.0019239,-0.0007395,0.0004292,-0.00030438000000000004,-1.3569999999999999e-05,0.0,0.0,0.0004212,-0.0005875199999999999,-4.679999999999999e-06,0.00022344000000000002,0.0,0.00027593999999999996,-0.00103075,0.00020448,0.0,-0.00046258000000000003,0.018647610000000002,0.0035818999999999994,0.006702199999999999,0.0028118399999999995,0.00013464,0.02725376,0.00597134,0.00973336,-0.00013775,0.00208032,2.925e-05,-7.752000000000002e-05,0.03867867,0.00223673,0.03188386,0.0010388,0.00072576,0.0029856600000000002,-0.00018269999999999997,0.0124104,0.008984550000000001,0.00044459999999999996,0.027582839999999997,0.00061636,0.00572832,0.00036873000000000006,0.00992404,0.00152746,0.00044884000000000005,2.68e-05,0.00037696,-1.739e-05,9.991e-05,7.772e-05,0.005923499999999999,5e-05,0.00410743,0.00010742000000000001,0.0006709500000000001,-4.3679999999999995e-05,-8.844000000000001e-05,0.0003675,0.035139170000000004,0.035139170000000004,0.036257040000000004,-0.018125,0.00099617,0.0009753199999999999,0.012169619999999999,0.00031409000000000005,0.0020719800000000006,0.10491669999999999,0.06273545,0.05669271,0.023361169999999997,0.019257769999999997,0.014121080000000001,-0.00025919999999999996,0.00538978,0.00065405,0.00019403999999999998,0.00028016,0.00103132,0.0010026,0.0003474,-0.00060576,0.00012880000000000001,0.00030888,1.0439999999999998e-05,-0.0005713,9.823e-05,0.041331,0.013804829999999997,6.369999999999999e-05,0.013891260000000002,-0.00011144000000000002,0.02749458,0.02749458,0.00811746,0.011375,0.013778879999999999,0.010877520000000002,0.00189468,0.0010098,0.0001947,0.0008783900000000002,0.0002361,0.00076296,-0.00027612,-0.0031977000000000004,-0.0026352,-0.000553,-0.004701,0.004579519999999999,0.001196,0.0018549200000000004,4.832e-05,0.00010472,0.00010525000000000001,0.00020592,0.0004668600000000001,-0.009235600000000002,-0.00492655,0.00046548000000000005,-0.00451605,0.0014176,0.0014176,-7.980000000000002e-06,0.0017052,0.05849881,0.030822060000000002,0.00563004,0.0022167400000000005,0.00066862,-0.0031624,0.0030873600000000004,-0.00015872,0.02014896,0.007642530000000001,-0.0021742199999999997,-1.5e-05,0.00257025,0.007675110000000001,0.0025328,0.00194215,0.0049735199999999995,0.0006330899999999999,-0.00015749999999999998,-0.00044898999999999997,0.00196378,0.0203891,0.0203891,0.0029721999999999995,0.006327760000000001,0.0001235,4.3799999999999996e-06,0.005204759999999999,0.0004056,0.00356031,0.00687204,0.00687204,0.00343408,0.00298035,0.0004648,0.00040066,0.00040066,0.00051701,0.00012336999999999998,-0.00024335999999999997,-0.0157588,-0.0157588,0.023925719999999998,0.00220592,0.0,0.0,-0.0016324,-0.00158162,0.02473044,0.0,0.00031119,-0.038111580000000006,-0.0026213599999999997,0.0011656700000000002,0.0012120499999999999,0.0010189599999999997,-0.0013552400000000002,-0.009444600000000001,0.0012933200000000001,0.00026103,-0.00016439999999999998,-0.00033659999999999994,-0.00413784,-0.00151305,-0.005060510000000001,0.00236314,0.00054524,0.03590144000000001,0.00227634,0.00105039,-0.0016136400000000002,-0.0012606,-3.312e-05,3.9179999999999994e-05,-0.0001719,-2.023e-05,-0.0008014200000000001,-0.00103012,0.005822819999999999,0.00013122,3.059999999999999e-05,0.026695200000000006,0.0040070999999999996,0.0010442399999999999,0.00230571,0.0,0.00197744,0.00029692,0.00113336,0.020475840000000002,0.020475840000000002,0.00717714,0.00717714,-0.0002798,0.00043965000000000003,-0.00162544,0.0014707400000000001,9.681999999999998e-05,0.00111019,0.00049312,0.0006081600000000001,0.0752411,0.05268984,0.05268984,0.00032076,0.0037697999999999994,0.04643056,-5.45e-06,0.00127395,6.982e-05,6.15e-05,0.02404997,0.0004548,1.6499999999999998e-05,0.00067467,0.00011889999999999999,0.0010314,0.0037654399999999997,-9.56e-05,0.0020210000000000002,0.00704616,0.0,0.0,-0.0008649600000000001,-0.0008505,-1.245e-05,0.0045512,0.0045512,0.0,0.0,0.0,0.00016985,0.0019180599999999999,0.00066912,0.00014934,0.0011091200000000001,0.0014442,0.0014442,0.0014442,0.0,0.0,0.00027025,0.0023976,-0.0010917000000000001,0.0,0.0
201210,0.0,0.0,0.0,0.00026487,0.0020619500000000003,0.0,0.0023002199999999995,-0.00016464,0.00044863999999999993,0.00019480000000000002,0.0004536000000000001,0.00056672,0.01100925,0.00165804,0.0008891999999999999,0.00014812,0.01200933,0.00012,0.0004760000000000001,0.00011560000000000002,6.882000000000001e-05,6.864000000000001e-05,0.000484,-4.836e-05,0.0053519200000000005,0.00016497,2.868e-05,-6.325e-05,0.023395680000000002,-0.00027454000000000004,0.00021717,-0.00085002,-0.0003348,0.00083328,0.00810934,0.00554646,0.00063147,0.0,-0.0025421800000000002,4.7520000000000006e-05,0.00027551999999999996,0.00056994,5.8870000000000004e-05,0.00250439,0.0002505,0.0,0.0,0.0,0.0,0.0,0.0,0.0,-0.00035075,0.0,0.0,0.0,0.0,0.0,0.0,0.0,0.0014562800000000001,0.00102235,0.003936240000000001,0.00021093,-0.00020296,0.00148447,5.891999999999999e-05,0.0013777499999999999,0.005431640000000001,0.00022349999999999998,0.00467831,6.027e-05,0.00960645,0.0007684899999999999,0.00391878,-0.00037950000000000006,8.880000000000002e-05,-0.0015057900000000003,-0.00071435,0.0014755200000000001,6.292e-05,0.00027745,0.0012546,4.059e-05,0.00114996,0.0019577600000000002,0.0,0.00020417999999999996,-0.00042008,0.0,-0.00170718,2.2300000000000003e-05,-8.531999999999999e-05,0.00044307,0.0007322399999999999,-0.00056335,0.0032299800000000004,0.00928004,-0.00013419,0.00091172,0.00289593,-0.004641199999999999,0.0,0.0,0.0,0.0,-0.00012744,9.308e-05,-0.00018286,0.00036815999999999997,0.0006566499999999999,0.0007084400000000001,0.0,0.0,0.0,0.0,0.0,0.59,0.32247096000000003,0.24102965,0.062081399999999995,0.05682976000000001,-0.0007348000000000001,0.00112944,0.0009880000000000002,0.029303699999999995,7.296e-05,0.00225259,0.0005439,1.7600000000000003e-06,-5.253000000000001e-05,0.0012427,6.552e-05,0.022880789999999998,-0.04034683,0.011321930000000001,0.00032148,0.00041375999999999994,-0.00136772,-0.0006944499999999999,0.0011609500000000002,-0.04068225,-0.00267345,-0.008357040000000001,-0.008182239999999999,-0.0008131200000000001,-0.00811512,0.0005935,4.074e-05,-0.00014406,0.00040160000000000006,0.00044352,-0.00014939999999999997,0.00043392,-0.00104429,0.00014765999999999998,0.0,-0.0003744,0.00958626,-0.0004536000000000001,0.00033814,4.444000000000001e-05,-0.0037022400000000003,-4.033000000000001e-05,-0.00107584,0.00012096000000000001,4.8089999999999995e-05,0.0030209399999999993,0.0013616,-6.668999999999999e-05,0.0013859200000000001,0.0007317900000000001,-0.00042456000000000004,0.0019501999999999998,0.00287928,0.0016791199999999999,0.0017390599999999997,6.003e-05,0.05056344000000001,0.0,0.00224175,9.523e-05,0.005597759999999999,0.00170856,0.0051351999999999995,0.011482649999999999,0.0048125,0.00026376,0.0034424,0.00133055,0.006224559999999999,0.00031926000000000003,0.006494120000000001,0.00727136,0.00033702000000000005,-7.074000000000002e-05,0.00019136,0.0,0.0,0.00040796,0.00164312,2.9639999999999994e-05,-0.00011193999999999999,0.0,0.00037125,0.002327,0.00021456,0.0,-0.00068684,0.026712,0.00284027,0.01028855,0.00276741,0.000411,0.015628319999999998,0.00298155,0.01234728,3.8610000000000005e-05,0.0016305,-2.375e-05,-0.0005353,0.019360950000000002,0.0034228799999999997,0.01784668,0.00058115,-0.0013165999999999998,-0.0014175,0.000324,0.014636699999999999,0.01061415,9.716999999999999e-05,0.035672,0.0019751799999999996,0.01016551,-6.24e-06,0.01100562,0.0006932499999999999,0.0011193,3.4840000000000005e-05,-6.045e-05,-1.012e-05,0.00011834,-0.0002412,0.0057797,4.2000000000000004e-05,0.00314184,-0.00011070000000000001,0.00054609,5.967e-05,-5.035e-05,0.00059902,0.08079093,0.08079093,0.0343567,0.023374330000000002,0.0010483200000000002,0.00041895,0.01475056,0.0011392000000000002,0.0008204800000000002,0.056227839999999994,0.057618960000000004,0.03437742,0.01953963,0.00472178,0.00970452,7.791e-05,0.021486080000000005,-6.228000000000001e-05,-1.617e-05,0.00054054,0.00020160000000000002,0.0024122199999999996,0.00024317999999999999,-0.0002498,0.0009608999999999999,6.084e-05,4.001999999999999e-05,0.00036038,-0.00045319999999999996,-0.00270462,0.0054588200000000005,4.225e-05,0.00539588,-1.58e-05,-0.00797016,-0.00797016,0.016620769999999997,0.011139660000000001,0.00835664,0.0037305399999999996,0.0036822399999999994,0.00265186,-0.0017972699999999997,-0.00010292,-0.00140515,5.2140000000000006e-05,0.00038743999999999996,0.0028938,0.00122349,0.0016614,0.001492,0.006652160000000001,0.0034846000000000005,-0.00047060000000000005,7.808e-05,0.0008105399999999999,0.0025128,0.00017155,-0.00031248,-0.00503616,-0.0027809300000000005,0.00012068000000000002,-0.0021230000000000003,0.0037149,0.0037149,8.344e-05,-0.0003192800000000001,0.07187133,0.03763721,0.018105279999999998,0.004815,-0.00025935,0.00019068,0.005059780000000001,9.072e-05,0.008174879999999999,0.0021508599999999997,0.0003854,-0.00041333999999999994,-0.0016135099999999999,0.00641512,0.0018068699999999997,-0.00046359,0.011186350000000001,0.00098258,0.0009053799999999999,0.00087984,0.0030685200000000004,0.028992000000000004,0.028992000000000004,0.00137024,0.00771502,4.5499999999999995e-05,0.0009179100000000002,0.01064496,0.00032028,0.00732585,0.00521101,0.00521101,0.00214528,0.0031987200000000004,-0.00014872,0.00032189999999999996,0.00032189999999999996,9.095e-05,4.3939999999999996e-05,0.00018426,0.04697592,0.04697592,0.00829277,0.0,0.0,0.0,-7.359e-05,5.0419999999999995e-05,0.0083835,0.0,0.0,0.00871308,0.0104192,0.00116061,-0.0031113,0.0007180800000000001,0.0017775000000000002,0.00543456,0.00036715,0.00011150999999999998,0.0008221400000000001,0.00064512,-0.0054057,0.030585400000000002,0.0289935,0.00036267999999999994,0.00081024,0.053717759999999996,0.0026421500000000002,0.0017411500000000001,0.00023440000000000003,0.0023740499999999995,-0.00016465000000000002,0.00031184,-0.00045527999999999996,-0.00014084000000000001,0.00066848,-0.0006286400000000001,-0.00121023,0.00044620000000000006,0.0006591000000000001,0.03288954,0.0117829,0.007586250000000001,0.0023498800000000004,5.2499999999999995e-05,0.0005804,0.0007852199999999999,-0.00094874,0.02049432,0.02049432,0.01775567,0.01775567,0.0040573399999999996,0.001404,0.0040332,0.00175957,-7.8e-05,0.0013935599999999999,0.00040603,0.00052056,0.010323800000000001,0.00125782,0.00125782,0.00030617999999999997,0.013785200000000003,-0.00603104,-2.18e-06,-0.0024164,-0.007705620000000001,7.626e-05,0.008848189999999999,0.00111451,-0.00027267,0.00076783,0.00017586999999999998,0.0021504000000000002,0.0009207999999999999,0.0002964,0.0008888,0.0034329399999999998,0.0,0.0,0.00054604,0.00029468,0.00024947,0.0022649,0.0022649,0.0,-0.00011006,0.0,0.00023639999999999997,0.00221569,0.00103569,-2.358e-05,0.0012138,0.01484342,0.01484342,0.01484342,0.0,0.0,-0.00014064,0.012086010000000001,0.0027851599999999996,0.0,0.0
201211,0.0,0.0,0.0,-0.00014874000000000002,-0.00097422,0.0,-0.00231,-0.00059972,-0.0001398,0.00147744,-0.000555,-2.3100000000000002e-05,0.015119999999999998,0.0034718199999999996,0.0041328,0.00010304,0.009301,0.0001173,0.00027755000000000005,2.091e-05,1.55e-05,-7.095e-05,0.00021721,0.00028055,0.00291346,-1.823e-05,-0.000285,-8.565e-05,0.016051199999999998,0.0003072,0.00025146000000000006,0.0,0.0008694,-0.00075777,-0.0012038399999999999,0.00049249,0.00349332,0.0,-0.0089058,-2.232e-05,0.00017175,-0.00101325,0.00015884,-0.00111923,0.0008476200000000001,0.0,0.0,0.0,0.0,0.0,0.0,0.0,-0.00019656000000000003,0.0,0.0,0.0,0.0,0.0,0.0,0.0,0.00034316,0.0018934500000000003,-0.005336459999999999,-0.00012509999999999998,-0.00011323,0.0013892400000000001,5.615999999999999e-05,-0.0013711399999999999,0.00385032,0.00023104,-0.0008560200000000002,3.591e-05,0.0188436,0.0014089600000000001,0.0022059200000000005,0.00033462,-2e-05,0.0004946400000000001,0.00010822,-0.0013301600000000002,0.00035925999999999997,0.0010257999999999999,0.00062721,-1.089e-05,0.00050176,0.00024336,0.0,-7.000000000000001e-05,0.00074865,0.0,0.0009331599999999998,0.00012188,0.0013131599999999998,0.00059184,0.00037666,-0.00011096,0.005848679999999999,0.035384799999999994,-0.0011729000000000002,0.0004752,-0.0016471999999999997,0.00924178,0.0,0.0,0.0,0.0,7.643999999999999e-05,-0.00025635999999999996,0.0001694,-7.12e-05,0.0007475,0.00015181,0.0,0.0,0.0,0.0,0.0,0.6,0.18871441,0.08161088,0.01952975,0.025434,-8.423999999999999e-05,-0.00100284,0.00055047,0.03089863,-7.458e-05,0.00182736,0.00042606,0.0,0.00022185,0.00124891,0.0002145,0.029334660000000005,-0.0833598,-0.006589440000000001,-5.376e-05,0.001082,-0.0003245,-0.0016174400000000002,-0.00063121,-0.055447699999999996,-0.01349685,-0.00617076,-0.007328800000000001,0.0005022499999999999,-0.007098330000000001,-2.372e-05,0.00017808,-0.0012877199999999998,0.00038113999999999997,-0.00020680000000000004,-0.00011748,-7.2e-07,-0.00099905,-0.00038720000000000003,0.0,4.056e-05,0.010566250000000001,0.00056032,-0.00018938999999999995,0.00015356000000000004,0.00012240000000000002,0.0004706400000000001,-0.0017087699999999999,0.00104253,0.00015497999999999998,0.00426725,0.0034335999999999998,-9.743999999999999e-05,-9.620000000000001e-06,-0.0016422200000000002,0.00044693000000000006,-0.00045796000000000004,0.00263767,0.00199716,-0.0006349400000000001,-3.264e-05,0.010053600000000001,0.0002451,0.005812949999999999,-6.206e-05,-0.00094304,0.0009634800000000001,-0.00010616,0.0008236000000000001,0.0019795999999999998,0.00026871,0.0016605,0.0003950800000000001,-0.0019914399999999997,0.00015963000000000001,-0.0005138,0.00339948,-0.0004822400000000001,2.849e-05,-5e-06,0.0,0.0,3.81e-05,0.0015559999999999999,0.00020332,0.00108584,0.0,-2.574e-05,0.0011489599999999999,0.0003034,0.0,0.0001391,0.01852836,0.00511292,0.0095465,0.00085624,-0.00024920000000000004,0.019469640000000003,0.00090343,0.026393789999999997,0.00036494,0.00156528,4.919999999999999e-05,9.554999999999999e-05,0.006482,-0.00023795,0.0053187899999999995,0.00052205,0.00142848,-0.0007930999999999999,0.00024239999999999998,0.009572839999999999,0.0073547099999999995,0.0,0.01715478,0.00089595,0.00632548,-0.0002604,0.00181843,-0.0013747499999999997,0.00132883,6.7e-07,-0.00032742000000000003,-9.2e-06,-5.096e-05,0.00086064,0.0006834,-0.0001296,-0.00027378000000000005,-5.912999999999999e-05,4.536e-05,3.570000000000001e-06,0.00029193000000000003,0.000494,0.10733485000000001,0.10733485000000001,0.0447174,0.045995520000000005,0.00129858,0.0003857,0.0093728,0.0006728799999999999,0.0022501599999999997,0.09449919999999999,0.03703392,0.01822392,0.0114864,0.00730575,0.0,-0.00022101,0.019591200000000003,0.00022659999999999998,0.0001932,0.00027146,0.0022077000000000004,-0.00074628,-0.00041037999999999996,-0.00026019,0.0007663199999999999,0.00039989999999999996,-7.829999999999999e-05,-0.00017478,0.000381,0.05642658,0.011019570000000001,0.00014365,0.01088802,0.0,0.04544892,0.04544892,0.021063049999999996,0.02157355,0.01598955,0.00776322,0.00667856,0.00133598,-0.00021539000000000004,0.00322245,0.00059059,0.0003546499999999999,0.0003572,0.00235986,0.0037872599999999998,-0.0014256000000000002,-0.0009276,-0.00280719,0.0006886500000000001,-0.0012375500000000002,-2.4639999999999998e-05,-5.589e-05,-0.0023376600000000005,-9.4e-06,0.0001992,0.0018756500000000002,-0.00010224000000000001,0.0009609600000000002,0.00011445,0.0007108,0.0007108,9.633000000000001e-05,0.00062118,0.05697843999999999,0.038587640000000006,0.005021759999999999,0.002417,0.00040857999999999997,0.00040725,0.0028271999999999998,0.00015311,0.02836342,0.010471999999999999,0.0009593999999999999,0.00035574,0.0035308000000000006,0.010842000000000001,0.0010606200000000002,0.00124822,0.00502596,0.00165804,0.00028086,0.00025704000000000005,0.00162936,0.01579581,0.01579581,0.00239904,0.004027520000000001,9.62e-05,-7.874999999999999e-05,0.004216159999999999,0.0006583499999999999,0.0010515,0.0023322700000000004,0.0023322700000000004,-0.00015183,0.0023321399999999995,0.00014140000000000002,0.00039882000000000003,0.00039882000000000003,0.00022875999999999997,-2.028e-05,0.00018923999999999997,0.13264352000000001,0.13264352000000001,0.06168898,0.0,0.0,0.0,-0.00014628000000000002,5.01e-05,0.061678600000000014,0.0,2.808e-05,0.019267600000000003,0.01688648,0.00115533,-0.0011243100000000001,0.00052272,-0.00110432,0.0074531599999999995,0.0003141,0.00014807999999999998,0.00031801,0.00041574000000000005,0.00208945,0.05215808,0.0456896,0.00568323,0.00046842,0.03577248,0.00826078,0.00623448,0.00041976,0.00183216,-0.0007198399999999999,0.0016296,0.00039522,0.0009590400000000001,0.0007915400000000001,-0.0010142600000000001,0.0028264,0.00056979,3.0420000000000004e-05,0.025770960000000002,0.00249895,0.0007016,0.00031612000000000003,3.8219999999999997e-05,0.00294627,-0.00037587000000000005,0.0029684,0.0202033,0.0202033,0.0021212,0.0021212,0.0005886299999999999,-0.00064878,0.0012071999999999999,0.0006567000000000001,9.996000000000001e-05,9.978e-05,0.00197997,0.00038934,0.05445432,0.0187602,0.0187602,0.00042282,0.00453384,0.02469324,0.00019872000000000002,0.0012525000000000001,-0.01815716,7.688000000000001e-05,0.030425,0.00200234,-0.0008149,0.00017237,4.907999999999999e-05,0.00010736000000000002,-0.0004586,4.633e-05,-0.00157014,0.023055999999999997,0.0053892,0.0053892,-0.00024893,-0.0002775,2.728e-05,0.00225255,0.00225255,0.0,5.47e-05,0.0,0.00026792,0.0020846700000000003,0.0006565,0.0001554,0.00126728,0.01480219,0.01480219,0.01480219,0.0,0.0,0.00039542,0.01689463,-0.00250952,0.0,0.0
201212,0.0,0.0,0.0,-3.052e-05,0.00029712000000000006,0.0,-0.0010206,0.00070148,0.00266688,-0.0016334399999999997,4.828e-05,0.0007347200000000001,0.023896620000000004,0.00833888,0.00256516,0.0031618499999999995,-0.0025025,0.0001404,0.00030317,2.87e-05,4.340000000000001e-06,5.184e-05,0.00046308000000000005,0.00019782,0.0011392,-0.00019932,0.0005086800000000001,0.00058298,0.003963680000000001,-0.00031232,0.00037719000000000007,0.00030981,-0.00075621,0.00084084,0.00908995,0.00291284,0.00063643,0.00070656,0.00161271,-2.8400000000000003e-05,0.0024303299999999996,-0.0001206,0.00020825,0.0007496,-0.00119376,0.0,0.0,0.0,0.0,0.0,0.0,0.0033279399999999997,0.00103638,0.0,0.0,0.0,0.0,0.0,0.0,0.0,0.00349445,0.00236115,0.008906949999999999,3.293e-05,-0.00023045999999999999,-0.00079744,-4.764e-05,0.00157604,0.00272335,7.878e-05,0.00024301000000000005,-2.3320000000000004e-05,0.01464182,0.0015962100000000003,0.00039215999999999996,0.0018501300000000002,3.634000000000001e-05,0.0022277200000000003,0.0010919799999999998,-0.0002516,-4.32e-06,0.00113919,0.0006853,1.666e-05,-0.00047823999999999995,-0.00065415,0.0,-8.432e-05,0.0008319,0.0,0.00095382,-0.00045182,0.0014453399999999998,0.00046284,0.0006604,-0.00060795,0.0066912000000000004,0.11532664,0.0003399000000000001,0.00274247,0.0008370000000000001,0.0046340899999999996,0.0,0.0,0.0,0.0,7.420000000000001e-06,-1.5189999999999999e-05,0.00063648,9.531e-05,0.00042846,0.00058904,0.0,0.0,0.0,0.0,0.0,0.79,0.246479,0.18343025999999998,0.018740740000000002,0.007726669999999999,-0.0006805199999999999,0.00149136,0.0012246,0.02077935,9.295999999999999e-05,0.0032766,0.00079534,3.397e-05,8.48e-06,0.0011952000000000002,-8.880000000000002e-05,0.016506210000000004,0.00763268,-0.0036612,5.7e-06,0.0006402,0.0002809,-0.00012496,-0.0008996,0.0130521,-0.00050106,-0.00119064,0.007496559999999999,0.0018603,0.00229284,0.00021222000000000002,-4.343e-05,0.00765201,0.00372372,0.0007709500000000001,0.00032384000000000004,0.00031895999999999997,0.0008500799999999999,0.00120576,0.0,0.0004681,0.009442770000000001,0.00041364000000000006,9.827e-05,0.00037175999999999995,-0.00082926,0.0002173,0.0025948800000000004,0.0019822,6.923e-05,0.00339696,-0.00015312,-0.0004913399999999999,0.0005927599999999999,5.03e-05,0.0003025,0.0015883999999999998,-0.0038078,0.0024516,0.00047817000000000004,7.084e-05,0.014292179999999998,2.331e-05,0.006132,0.00011766000000000001,0.006676,0.00076881,0.0007644399999999999,0.005862999999999999,-0.00175063,6.800000000000001e-05,-0.0013182299999999999,-0.0007527,-0.0018029700000000003,-0.00015912,0.0005463,0.00422013,2.106e-05,0.00055728,-4.08e-06,0.0,0.0,0.00048387,0.0006311400000000001,-5.600000000000001e-06,0.00014539,0.0,-0.00026257,0.0015478999999999998,-0.00013452,0.0,0.00057028,0.012459719999999999,0.0041601599999999996,0.00334589,0.0019890000000000003,-8.083e-05,0.03329361,0.0010485,0.02169935,0.00036,0.00267279,6e-05,-5.432e-05,0.015147039999999999,0.00226896,0.00823022,0.0017515200000000001,0.00150616,0.0009439500000000001,0.00037332000000000006,-0.0007070700000000001,-0.0013923,0.0002867,0.00573562,0.00112332,0.0027272,0.00019630000000000003,-0.00027048,-0.0006347000000000001,0.00046515999999999994,-0.00022968,-1.7879999999999998e-05,8.648e-05,1.358e-05,-0.00057452,0.005162580000000001,2.1450000000000003e-05,0.0005025,-0.00012240000000000002,0.0006663300000000001,-5.100000000000001e-07,0.00052735,5.456e-05,0.06354117000000001,0.06354117000000001,0.03648274,0.019781280000000002,0.00039858,0.0010989,0.0015638399999999997,0.00079178,0.0023066999999999996,0.09305856000000001,0.046187099999999995,0.031441500000000004,0.02061504,0.0081085,0.0022983,0.00030225,0.01104075,0.00034952000000000003,0.0002553,0.00014734,0.0017688099999999998,0.004198830000000001,-8.549999999999999e-05,0.0011183900000000001,0.0031491899999999996,-0.00020504000000000003,2.337e-05,0.00035631,8.128e-05,0.04597548,0.004635930000000001,-2.9040000000000003e-05,0.003973679999999999,0.00071162,0.041485,0.041485,0.01208358,0.0038736200000000004,0.0013029299999999999,0.00030305,0.001506,-0.00117705,0.0006285,0.0035812,0.00036095999999999996,0.00102816,-0.00029624999999999996,-0.0010217599999999998,-0.0023948100000000003,0.0013604799999999998,0.00810832,0.01071616,0.0052086599999999995,0.00249372,-8.704000000000001e-05,-7.712000000000001e-05,0.0031877999999999997,-3.042e-05,-5.4670000000000003e-05,-0.00268092,-0.0008886499999999999,0.0007844200000000001,-0.00185906,0.0002832,0.0002832,-6.213e-05,0.00065718,0.07371621,0.05570513,0.019556249999999997,0.006904039999999999,-0.0007512599999999999,0.00130176,0.00277056,0.00019829000000000003,0.0295809,0.00339712,0.0016005,0.0006392800000000001,0.0056606,0.016258929999999998,0.0008683200000000001,0.0012204,0.00648721,1.356e-05,0.00048018000000000003,0.00129516,0.0010350000000000001,0.01387269,0.01387269,0.0007962399999999999,0.00534872,0.00031217999999999996,-0.00020646000000000003,0.0073278,-0.00023925,-0.00013958000000000002,0.00414358,0.00414358,0.00028475,0.0037651599999999996,0.00010010999999999999,0.0001732,0.0001732,-0.0001062,0.00013860999999999998,0.00013527,0.14642325,0.14642325,0.10464172000000002,0.0,0.0,0.0,-0.0005815200000000001,0.0059261999999999995,0.09946719999999999,0.0,0.0,0.01343412,-0.0012982,0.00125448,0.00077671,0.00047828000000000004,0.0021896000000000003,0.00558162,0.00039709999999999995,0.0006759500000000001,0.00046668999999999997,0.000127,0.00021531,0.028713179999999998,0.007010459999999999,0.01904275,0.00021454000000000004,0.0445928,-0.004114769999999999,-0.006553479999999999,0.00030186,-0.0002078,0.00081125,1.944e-05,-0.00061875,-3.992e-05,-0.00018701999999999998,-3.8690000000000004e-05,-0.00613611,0.00044988,0.00048384,0.02814595,0.0028147600000000004,0.00091686,0.00053904,-8.232e-05,0.0049045,-4.5119999999999995e-05,0.00427868,0.020220850000000002,0.020220850000000002,0.020833090000000002,0.020833090000000002,0.00231736,0.00066999,0.014111279999999999,0.0009352999999999999,-5.610000000000001e-05,4.9619999999999996e-05,0.0016020000000000001,0.0008190899999999999,0.1642944,0.0492644,0.0492644,0.00030617999999999997,0.0092981,0.030703259999999996,7.412e-05,0.0004215,0.00191632,7.626e-05,0.07910637,0.00053144,0.00036584,-4.677e-05,2.0350000000000003e-05,0.0015617000000000003,0.0034155,2.4599999999999998e-05,0.0019127999999999999,0.06386064000000001,0.03539696,0.03539696,0.0008596800000000001,0.00066429,0.00019266,0.0085139,0.0085139,0.0,0.005384610000000001,0.00078717,0.00022120000000000004,0.0031104600000000002,0.0005375099999999999,1.554e-05,0.00255633,0.00142851,0.00142851,0.00142851,0.0,0.0,2.318e-05,0.0025552700000000005,-0.00113904,0.0,0.0
201301,0.0,0.0,0.0,0.00045576,0.0023234400000000004,0.0,0.00094545,0.00126524,0.0014601599999999998,0.0012667,0.0004862,0.0009639000000000001,0.02427725,0.020495,0.00811635,-0.00015795,0.01088626,0.00025387,0.00054102,8.880000000000002e-05,6.634e-05,-4.521000000000001e-05,0.00055269,0.0005988200000000001,0.0024453599999999997,0.00095135,0.0003801600000000001,0.0006248000000000001,0.0098595,0.00035784,0.00012954000000000004,0.0006427199999999999,-8.986999999999999e-05,0.0008772,-0.00794087,-0.0011564000000000001,8.172000000000001e-05,0.0020331200000000002,-0.004371,6.0200000000000006e-05,0.0015117400000000001,-7.976000000000001e-05,2.484e-05,0.00153094,0.00248056,0.0,0.00021036,0.0009458400000000001,0.00025848,0.0040826199999999995,0.00011150000000000001,0.00226304,0.00286309,0.0,0.0,0.0,0.0,0.0,0.0,0.0,0.0039411,0.0018072999999999997,0.01359133,0.00074671,0.0007726199999999999,0.0002562,-7.691999999999999e-05,-6.23e-05,0.0008059199999999999,-7.189e-05,0.00053382,2.4779999999999997e-05,0.00676872,0.00433257,0.0018838399999999997,0.00446336,-1.9750000000000002e-05,-0.00221914,0.00027054999999999994,0.00054824,-6.578000000000001e-05,0.00074783,0.00019375,-1.358e-05,0.00110539,0.00123012,0.0,0.0006419,0.0005166600000000001,7.070000000000001e-05,0.0018112,0.00018512999999999998,0.00045439999999999993,0.00114608,0.0006388200000000001,0.00023897999999999997,0.0060696,0.1106935,-0.0007835899999999999,0.0026599000000000006,0.00018109000000000002,0.00490428,0.00592221,0.0,0.0,0.0,-2.1839999999999998e-05,0.00026735999999999996,0.00052875,0.00070902,0.0008048099999999999,0.00050148,0.0,0.0,0.0,0.0,0.0,0.86,0.47728956,0.39179901,0.01683416,-0.00032585,0.00259896,0.00029725,0.0006363100000000001,0.028907169999999996,0.00035056,0.00500192,0.00034272,1.677e-05,-2.756e-05,0.00174696,0.00025506,0.0202797,0.12585658,0.040768979999999996,0.0024234499999999997,0.00221835,0.00078516,-0.00015318,0.00014229,0.057503849999999995,0.0167865,0.00461027,0.00189735,-0.00137856,-0.0008327999999999999,0.0005278500000000001,5.46e-05,0.02257794,0.013801999999999998,0.00075348,0.00126024,0.00016682,0.0036347999999999997,0.0018152600000000002,0.0,0.0011432100000000002,0.023551079999999995,0.00030303,0.00098908,-7.648e-05,-0.00025568,0.00010707000000000002,0.00801784,0.0005306999999999999,2.944e-05,0.00097341,0.00171588,-0.0012744000000000002,0.00026149,0.002145,0.00054432,0.0009053799999999999,-0.00035808,0.008188,0.0006905599999999999,0.00012215999999999998,0.029020879999999995,-0.00040606,0.0057216,9.434000000000001e-05,0.01171819,0.00018409999999999998,0.00338367,0.010810120000000001,-0.00030944,0.00011660999999999998,-0.00136272,-0.001142,-0.00339456,0.0001232,0.00318472,0.011607020000000001,0.00068445,0.0004437,2.1119999999999998e-05,0.0,0.0,-0.00033798000000000004,0.000505,7.7e-05,-0.00015209000000000002,0.0,-0.00017168,0.00335544,0.0006075400000000002,0.0,0.0037692000000000003,0.007645599999999999,0.0037637599999999997,0.0011293199999999998,0.0010857000000000002,0.00039825,0.047911999999999996,0.0031752800000000004,0.021776399999999994,0.00031458,0.0018094,-3.3e-05,0.00055488,0.025309380000000003,0.00711512,0.013539500000000001,0.00031808000000000004,0.0026555,0.00138176,0.00023072000000000001,0.0010778,-0.00109399,0.00027375999999999995,0.02283336,0.0009599300000000001,0.0013622,0.00033440000000000005,0.00406192,0.0008193599999999999,0.00228228,0.00014784,5.920000000000001e-06,4.784e-05,0.00024767999999999996,-0.00021829,0.0032980400000000003,-7.254000000000001e-05,-0.0028328299999999997,7.02e-06,0.00112392,5.406000000000001e-05,0.00015811999999999998,0.0009564199999999999,0.08414591999999999,0.08414591999999999,0.03596491,0.0284704,0.00223965,0.0007056,0.00926926,0.00022134000000000005,0.004979979999999999,-0.029491800000000002,0.09717454999999998,0.07867511999999999,0.059397,0.019074699999999997,0.00015227,-3.925e-05,0.014183319999999998,0.00058082,0.0004508,-0.000139,0.0023968000000000006,0.00468027,0.00010169999999999999,0.00050471,0.0023583799999999998,0.000437,-8.960000000000001e-05,0.00031614,0.0004747,-0.1269277,0.0036697799999999997,-0.00019272,0.0016486499999999998,0.00219461,-0.13032812000000002,-0.13032812000000002,0.0512049,0.01766622,0.013801919999999999,0.007941120000000001,0.004147509999999999,0.00066946,0.00106505,0.00276156,0.00085904,-0.00015624,0.00032853,0.00113688,0.0009745699999999998,0.00014839,0.02717576,0.01642311,0.013247759999999999,2.316e-05,0.0001182,0.00037683,0.00089655,0.00040831999999999994,0.0006951299999999999,0.010683890000000001,0.0037399,0.00127724,0.0058062999999999995,0.00629185,0.00629185,1.232e-05,0.0030714199999999996,-0.035310720000000004,-0.04017654,-0.01555884,-0.008649019999999999,7.752e-05,-0.00150315,0.0026136,-0.00012048000000000001,-0.02426667,-0.010759,-0.0011620399999999998,-0.00028768,-0.00336924,-0.010499479999999999,0.00052932,0.00120764,-0.00014594,-0.00051148,-0.00014560000000000002,0.00025079999999999997,0.00029302,0.0023431199999999998,0.0023431199999999998,0.0002143,-0.0036764000000000002,-0.00016244000000000002,-0.00010682,0.00464656,0.00018525999999999997,0.0011772500000000001,0.0022724000000000004,0.0022724000000000004,-0.00011655000000000001,0.00206302,0.00030940000000000004,8.61e-06,8.61e-06,-0.00025774,0.00011759999999999999,0.00014528999999999999,0.1463895,0.1463895,0.0643864,0.008871060000000002,0.0,0.0,0.02045652,0.00020240000000000001,0.034736750000000004,0.0,0.0001665,0.05817996999999999,0.04539635999999999,0.0,0.0025872,0.00034688,0.00023412,0.007073639999999999,0.000936,0.0008466299999999999,0.00035275,0.0005667199999999999,0.0007124000000000001,0.0231288,0.0104544,0.010158720000000001,0.00071535,0.08106869,0.010380160000000001,0.00853925,0.000577,0.0010305,-0.00077472,0.00027006,-0.00046350000000000004,1.979e-05,-0.00041160000000000003,0.00276336,0.005478650000000001,-0.0001568,0.00151755,0.043803039999999994,0.01594404,0.008942460000000001,0.00455328,2.3369999999999998e-05,0.00768208,0.00034658000000000003,0.00666669,0.0201916,0.0201916,0.02689536,0.02689536,0.00067032,0.0003395,0.018521439999999997,0.00132601,0.0001919,0.00111588,0.00027755,-5.736e-05,0.1604467,0.04926756,0.04926756,0.00017945,0.01733142,0.02172332,0.00010779999999999999,0.002105,0.00177552,0.0,0.017407600000000002,0.0033983999999999998,0.00030302,0.00222912,-0.00015352,-0.00010758,-0.00022765,-7.79e-05,0.0075506,-0.004846240000000001,0.09367926,0.09367926,-0.0006631699999999999,-0.00044712,-0.00021983,0.01558935,0.01558935,0.00038403,0.0053925299999999995,0.0,0.00025215999999999997,0.00424192,0.00263812,9.766000000000001e-05,0.0015049999999999998,-0.0037801600000000003,-0.0037801600000000003,-0.0037801600000000003,0.0,0.0,-0.00154234,-0.00044802000000000004,-0.0018752000000000003,0.0,0.0
201302,0.0,0.0,0.0,0.00031746,0.0016560000000000001,0.0,0.0023422000000000004,-0.00016163999999999998,0.00227934,0.0011347100000000001,0.00019296000000000002,0.00027946,0.0108773,0.02244442,0.00203278,5.19e-05,-0.0010674,7.315e-05,0.00098868,4.305e-05,-0.00024118000000000002,6.463999999999999e-05,0.00017091000000000003,0.00023489999999999996,0.00622688,-1.789e-05,0.0008673800000000001,-0.00016500999999999997,0.0059073,0.00023184,3.4110000000000004e-05,0.00042688,-0.00115687,-0.0023247000000000003,0.00235332,0.0016267799999999998,0.00338342,0.0,-0.00835548,0.0001274,8.113000000000002e-05,-0.00086966,0.00013136000000000002,0.0029109599999999998,0.0007626,0.0,0.014902960000000002,0.05560102999999999,0.02708225,0.08720131,0.008534459999999999,0.00030534,0.0010756499999999998,0.042234299999999995,0.00850425,0.00284544,0.019201029999999997,0.00260712,0.0,0.0,0.00027647999999999995,0.0011632,0.01881009,9.309999999999999e-05,-3.91e-05,-0.00033385,4.708000000000001e-05,-0.0004882500000000001,0.00022040000000000004,0.00022715000000000002,0.00018975,5.586e-05,-9.387e-05,0.0005664600000000001,0.0019385099999999996,0.00659061,-5.5379999999999995e-05,0.0019396800000000003,-0.0002849,0.00042194,0.00015792,0.00036040000000000003,0.0007650599999999999,0.00019583999999999997,0.00167055,0.00172701,0.0,0.00067479,0.00038,0.00046900000000000007,0.0007464600000000001,-4.3280000000000006e-05,-0.00015532,0.0005189400000000001,0.0010221199999999998,0.0006010200000000001,0.004875999999999999,0.01340672,0.0008939200000000001,0.00277305,-0.00012447,-0.00063602,0.19359056,0.00908229,0.0,0.0,0.00015704,-0.000487,-0.00025419000000000006,-0.00022009999999999998,0.0010126800000000002,0.00165946,0.0,0.0,0.0,0.0,0.0,0.6,0.35162354999999995,0.26059625000000003,0.02043208,-0.00368106,0.00045424,0.00174724,0.0031328599999999995,0.045209679999999995,-3.078000000000001e-05,0.0053922,0.00024843,3.8700000000000006e-05,0.00011883000000000001,0.0035678799999999994,8.480000000000001e-05,0.0334628,0.10289409000000001,0.018715100000000002,0.00120832,0.00098328,0.0007797,-0.00090919,4.288e-05,0.05546750000000001,0.015539400000000002,0.0109191,-0.007539839999999999,-0.003976199999999999,-0.00604032,0.00028031999999999997,0.00010363000000000001,0.014349800000000001,0.00374034,0.00118107,0.0014137200000000003,6.52e-05,0.005844719999999999,0.0014973399999999998,0.0,0.00061685,0.0037379899999999996,0.00144753,0.0008236500000000001,-0.0002499,-0.00284829,7.92e-06,0.011956000000000001,-0.00015561,-0.00028773,-0.00247789,-0.0054740399999999995,-0.00034199999999999996,-0.0003688000000000001,0.00034122,-0.00129888,-0.00023,-0.0031647999999999997,0.00626886,-0.0002717,9.725e-05,-0.00326157,0.0002275,0.00147745,-5.618e-05,0.00076208,-0.00185665,-0.00063192,-0.0016372200000000002,-0.000957,1.68e-06,0.00036708,0.0007286500000000001,-0.0018684,0.00023256,0.0003258,-0.00238315,0.00018089999999999995,0.00041448000000000006,-9.696e-05,0.0,0.0,0.00058212,-0.0009256799999999998,6.02e-05,0.00012675,0.0,-0.00035713000000000005,-0.00099969,-0.00018881000000000003,0.0,-0.0020230600000000006,0.0069273,0.00296582,0.00262164,0.0006732,0.0,0.042850919999999994,0.009484529999999998,0.0036079099999999998,0.00018056000000000002,0.0006533999999999999,-5.0159999999999994e-05,0.00034104,0.02933428,0.00512136,0.0190372,0.00127581,0.0023628200000000003,0.0014396099999999998,1.0350000000000001e-05,-0.00026765000000000003,-0.00292992,0.00071574,0.0024025300000000004,0.00014598,0.00201396,0.00010010000000000001,-0.005568,0.00017055,0.0021186000000000004,-2.5999999999999997e-06,0.0003822,1.886e-05,-4.802e-05,0.00042569999999999994,-0.00016084,0.00012160000000000001,-0.00026055,0.0002079,-0.0004793999999999999,1.4280000000000004e-05,8.010000000000001e-05,-7.469999999999999e-05,0.09088639999999999,0.09088639999999999,0.05117008000000001,0.0221916,0.00121793,0.00090048,0.00443156,0.0009395999999999999,0.0036834800000000003,-0.3472896,0.12594093,0.11380008,0.08665292,0.02156994,0.005285349999999999,0.000434,0.010243379999999998,-0.00019607999999999998,0.00046600000000000005,0.00047128,0.0013245499999999999,0.00237394,0.00055539,-0.00013486000000000002,0.00133686,0.00029965000000000005,-1.1e-05,0.00045744,-0.00052624,-0.47403081,0.007770180000000001,6.741000000000001e-05,0.00742084,0.00022316000000000003,-0.48173852,-0.48173852,0.02366662,0.01335347,0.00820401,0.0029016,0.0018981000000000002,0.00350482,-0.00032578,0.0023450800000000003,0.00017687,0.0006442500000000001,-2.808e-05,0.00273354,0.0024143399999999996,0.00032592,0.008868,0.00759492,0.005565629999999999,-6.887999999999999e-05,0.00016802,0.00083889,-0.00101724,0.00024804,0.00212288,0.00129136,-0.00027786,-0.00061628,0.0032061999999999998,0.00127692,0.00127692,2.52e-05,0.00017276,0.03613665,0.026026979999999998,0.00586226,0.0028859099999999998,0.0012390599999999997,0.00049728,-0.0014286,0.00025194,0.014875629999999999,0.0022136400000000002,0.00064543,1.458e-05,0.0008777600000000001,0.00990099,0.00065395,0.00064752,0.005424750000000001,0.0018473099999999998,0.00036369000000000006,0.00014364,0.00035840000000000004,0.0036827699999999997,0.0036827699999999997,0.00210573,-0.0016435800000000002,0.00037797,-0.0002451,0.00028854,0.00043819999999999997,-0.00096292,0.006138879999999999,0.006138879999999999,0.0009564199999999998,0.00497221,0.00020448,0.00023884000000000004,0.00023884000000000004,0.00038925000000000006,-5.678e-05,-9.018000000000001e-05,0.15792408000000002,0.15792408000000002,-0.04576724000000001,0.01657818,0.0,0.0006953999999999999,0.0028645500000000004,-0.00110484,-0.07021928,0.0,0.00501774,0.02093124,0.019098300000000002,-0.0032956800000000005,0.0014770800000000002,-0.0001078,0.0013935599999999999,0.007210240000000001,0.0016447800000000002,0.0,0.0006557000000000001,0.0009278100000000002,-0.00028276,0.18228756000000002,0.1578418,0.019807200000000004,0.00465372,0.0720902,0.0025802700000000004,0.0013581200000000002,-0.0006882,0.00077843,0.00044688000000000003,0.00051705,0.0014488600000000002,-0.00017666999999999997,0.00052962,0.00069012,-0.0014555100000000001,0.00060016,0.0007076999999999999,0.03858678,0.015176,0.00584535,0.0060805600000000005,4.9199999999999995e-06,0.0030180800000000002,0.0005008500000000001,0.0015079800000000001,0.0201461,0.0201461,0.031162619999999995,0.031162619999999995,0.002082,0.0001158,0.016464060000000003,0.00016015999999999998,-7.171e-05,0.00024569999999999995,0.0018868,0.00467509,0.05940597,0.045497249999999996,0.045497249999999996,4.830000000000001e-05,-0.00340848,0.0418376,0.0001903,0.0020691,0.0,7.93e-05,0.0027896400000000003,0.001906,-1.4000000000000001e-06,0.0025846199999999997,0.00066234,0.00136488,0.00234624,8.76e-05,0.0024096,-0.01209825,0.00940695,0.00940695,0.0009734,0.00069504,0.0002783,0.23929020000000004,0.23929020000000004,0.00033790000000000003,0.00169105,0.0,0.00028689,0.0018969599999999996,0.00170409,0.00017152,1.751e-05,0.0046813,0.0046813,0.0046813,0.0,0.004818480000000001,0.00023646,0.00029608,-0.00066845,0.0,0.0
