YearMo,101448,101466,101642,101644,107608,107609,107611,107615,107616,107617,107618,107619,107621,107624,107625,107628,107630,107633,107638,107639,107640,107641,107642,107643,107645,107648,107649,107650,107652,107653,107654,107656,107657,107659,107661,107666,107668,107671,107672,107673,107674,107676,107678,107679,107681,107682,107683,107688,107702,109463,109464,12222,12224,12294,12300,12301,12302,12304,12305,12379,12393,12394,12395,12396,12397,12398,12399,12401,12402,12403,12405,12406,12408,12409,12411,12412,12414,12416,12420,12421,12427,12428,12431,12433,12434,12435,12436,31694,41129,47617,47618,47619,47620,47621,47623,47624,47627,47628,47630,47631,47632,47633,47634,47635,47636,47637,47638,47639,47640,47641,47642,47643,47644,47645,47646,47647,47648,47649,47650,47651,47652,47653,47654,47655,47656,47657,47658,47659,47660,47661,47662,47663,47664,47665,47666,47667,47668,47669,47670,47671,47672,7169,7170,7171,7172,7173,7175,7176,7184,7185,7187,7188,7190,7191,7195,7200,7201,7202,7203,7204,7206,7209,7210,7212,7215,7216,7219,7220,7221,7230,7233,7241,7242,7244,7245,7246,7248,7249,7253,7254,7255,7256,7257,7258,7259,7260,7262,7263,7265,7266,7267,7268,7269,7270,7271,7272,7275,7276,7279,7280,7281,7283,7285,7287,7288,7290,7291,7292,7293,7294,7295,7296,7298,7299,7300,7301,7302,7303,7305,7306,7309,7310,7311,7313,7317,7320,7323,7333,7335,7336,7339,7341,7343,7347,7349,7355,7356,7358,7359,7367,7368,7372,7373,7375,7376,7377,7378,7380,7384,7385,7386,7389,7390,7392,7393,7396,7397,7399,7401,7406,7407,7411,7412,7415,7416,7418,7420,7421,7422,7423,7424,7425,7428,7432,7433,7434,7435,7438,7440,7443,7444,7445,7446,7447,7448,7449,7451,7453,7454,7455,7456,7459,7461,7463,7464,7465,7466,7467,7470,7471,7477,7479,7480,7481,7482,7483,7484,7485,7486,7487,7488,7489,7490,7492,7493,7495,7497,7498,7508,7517,7518,7520,7521,7522,7523,7526,7530,7531,7539,7541,7542,7543,7548,7549,7555,7558,7559,7560,7561,7563,7565,7572,7573,7574,7575,7576,7577,7579,7587,7589,7590,7591,7604,7605,7606,7607,7608,7614,7615,7616,7617,7618,7619,7620,7621,7622,7623,7625,7626,7627,7628,7629,7630,7631,7632,7634,7635,7639,7640,7641,7642,7643,7644,7645,7647,7648,7649,7653,7654,7656,7657,7658,7659,7660,7661,7662,7663,7664,7665,7666,7669,7670,7671,7673,7674,7677,7683,7684,7685,7686,7690,7691,7692,7695,7696,7697,7698,7699,7703,7704,7707,7708,7709,7710,7711,7712,7713,7714,7715,7720,7721,7723,7724,7727,7728,7730,7733,7735,7736,7738,7746,7758,7759,7766,7767,7769,7777,7778,7782,7783,7785,7786,7787,7788,7789,7794,8874
202001,0.0005466499999999999,7.499999999999999e-06,-0.00098928,-0.02495934,0.0021571,0.00148912,0.00093456,0.00030887000000000004,0.00020193,0.00684376,0.01437184,-0.00296155,-0.00281979,0.00068322,-1.7519999999999998e-05,0.00085729,0.0,7.548e-05,0.0003318400000000001,0.00027735,0.00042822,0.00141813,8.976000000000001e-05,-9.3e-06,-5.13e-05,-1.26e-05,-0.00619782,9.940000000000002e-05,-3.774e-05,0.0,-0.00877726,-0.00023664,0.00016146000000000002,0.00041150999999999997,-0.0016183299999999999,0.00089518,0.0,0.0,0.0,0.0,0.0,5.6000000000000006e-05,0.00244093,0.0,0.0,2.6079999999999998e-05,0.00018833,0.0,4.94e-05,0.00020824,-0.00225862,-0.000945,-0.0002074,-0.00297724,2.4700000000000004e-05,-1.84e-06,0.0008032399999999999,-7.157000000000001e-05,0.00023577,0.0033271900000000003,-0.00234498,0.00010430000000000001,-1.804e-05,0.00696577,-1.72e-06,0.0025458899999999994,-0.00018816,-0.00053728,0.00132594,-0.0002012,9.338e-05,4.6349999999999995e-05,0.0013193,8.598e-05,0.00144686,0.0007905599999999999,0.0001368,0.00016752,0.0014961100000000001,0.0011518799999999999,0.0,0.0022512,-0.00029359,0.00010509000000000001,-0.00090728,1.316e-05,2.868e-05,1.2e-07,-0.00015504,0.00065219,2e-05,-0.00035771999999999996,8.500000000000001e-07,-0.00059796,0.00079232,-2.6999999999999996e-06,0.0007203,-8.184e-05,-0.00031185,5.56e-06,-0.00016523999999999998,-0.00028896,-8.058e-05,-0.00014762,-0.00037113,0.00193775,6.608e-05,0.00024000000000000003,6.524e-05,-0.00214776,-4.732e-05,0.00037464,0.00021372,-0.00048307,5.9999999999999995e-05,-0.0001008,-0.00084788,-0.00117558,0.0013479199999999998,0.00030749999999999994,-0.00036387999999999997,-0.00225862,0.0021696000000000003,-0.00029120000000000003,0.02091221,-0.00039078,0.0007524,-0.00098617,0.0170532,-0.00027569,0.0014206400000000001,0.0,0.0,0.0,0.00530128,0.00124356,0.0,0.0,0.0,0.0,0.0,0.21,0.07545837,0.0269626,0.00519525,0.006226430000000001,0.0005219999999999999,-0.00130248,0.004044600000000001,3.5e-05,-0.00026406,3.397e-05,-3.0600000000000003e-06,0.0001377,0.0023167299999999995,0.0412368,0.00096669,0.01611124,3.135e-05,-0.00032805000000000003,0.00107818,0.0002626,-0.0010157200000000001,0.02466856,-0.006223619999999999,0.0057072,0.00457986,0.0003872,0.0022062600000000003,-0.00023687999999999997,-7.14e-06,0.0045612,0.00260172,0.00017176,0.00034104,0.00019964,0.00057247,0.0006656399999999999,7.11e-06,0.01586134,0.00040515,-0.00021062999999999998,9.180000000000001e-05,-0.0018107,0.00041880000000000004,0.01171056,-0.00033087000000000004,0.00028905000000000006,-0.00804275,0.0039648,-0.0016522000000000002,0.00148208,0.00189112,-0.00092988,-0.00041327000000000003,0.00104372,0.00038223000000000006,0.0021686400000000003,0.00530222,-0.00011147000000000002,0.0002025,-0.10743174000000001,0.00031151999999999997,0.005584239999999999,-7.098e-05,0.00012584,-0.022976260000000002,-0.0028448400000000004,-0.02080418,-0.021233449999999997,-0.01401088,-0.00032308,-0.00258552,-0.0049973100000000005,-0.01640432,1.08e-05,-0.0042313,0.007380030000000001,1.5059999999999996e-05,0.00195888,3.9999999999999996e-05,3.127e-05,0.0006776000000000001,2.5359999999999998e-05,-3.635999999999999e-05,0.001827,0.00025299999999999997,0.00084528,0.01023852,0.00195489,0.00423564,0.00042201,0.00012416,1.1440000000000002e-05,0.02318324,0.00195924,-0.004243590000000001,8.447999999999999e-05,0.0009327900000000001,-0.00055575,-0.0001827,0.01204742,0.0025316899999999996,0.00985056,-0.0010731500000000001,-0.0005697399999999999,0.00096773,0.00039274,0.00411125,0.004866240000000001,-0.00072709,0.00187512,0.0009338800000000001,-0.00065297,8.991e-05,-0.00198891,-6.0119999999999994e-05,-0.00018306,0.0019467,9.752e-05,-3.12e-06,2.0900000000000003e-06,0.00027004,0.00211161,5.02e-05,0.00152456,3.64e-06,9.7e-06,-9.859999999999999e-06,0.0003471,8.25e-05,-5.3009999999999996e-05,-5.21e-05,0.0481094,0.0481094,0.038964450000000005,0.006810719999999998,-0.00017415,0.00311115,-9.24e-06,2.1149999999999996e-05,0.08576975,0.06786944000000002,0.060135,0.023085449999999997,0.03205062,0.005461499999999999,0.0,0.005831759999999999,-3.036e-05,-7.748e-05,0.0010850400000000002,0.00170867,-4.914000000000001e-05,0.0005652,-0.00011712,0.0007993999999999999,-0.0007211599999999999,-5.940000000000001e-06,-7.308e-05,-9.65e-05,0.01740278,0.01012704,-6.78e-05,0.00926811,0.0008588800000000001,0.0070531199999999995,0.0070531199999999995,-0.0026270300000000003,-0.00341031,-0.00438789,-0.004583039999999999,0.0013005199999999999,-0.00046662,-0.00011760000000000001,0.0013420400000000003,-0.00038688,0.00037392,-3.472e-05,-0.00043815,-0.0003885,-4.3200000000000007e-05,0.00032864,-0.00337516,-0.0021640500000000003,-0.0035596800000000004,5.044e-05,0.00314347,4.416e-05,0.003775,0.005957550000000001,-0.00010875,0.0004720499999999999,0.0004720499999999999,-4.590000000000001e-06,-0.0219696,-0.019998079999999998,-0.0039286799999999995,0.0023824000000000002,-0.00032429999999999997,-7.154e-05,-0.016704029999999998,-0.0070076999999999995,-0.00030495,-4.851e-05,-0.0011429300000000001,-0.006720800000000001,-0.0009290599999999999,0.00050376,-0.0006942,-6.3e-06,-0.00039468,-0.0031135,-0.0031135,-0.00111328,-0.00133968,-0.00050657,0.00081558,0.0013772399999999998,0.0013772399999999998,6.498e-05,0.0018465999999999997,-0.0005363599999999999,-9.918000000000001e-05,-9.918000000000001e-05,-0.0001589,5.82e-05,0.06591328,0.06591328,-0.026304630000000002,0.010551060000000001,0.0008168,0.00049649,0.004986679999999999,0.0004280100000000001,-0.046865250000000004,0.00119364,0.00185909,0.02684472,0.0171767,0.007098,0.00440695,0.0007626,-0.00021299999999999997,0.0008522499999999999,-0.0007004000000000001,9.48e-05,3.358e-05,0.004683120000000001,0.06569532,0.04583055,0.017394439999999997,0.00267598,-0.043306880000000006,0.0094745,0.011485650000000002,0.00120576,-0.00016626,-0.0004814,0.0006486399999999999,0.00036280000000000004,0.0008212799999999999,0.00299335,0.0008660400000000001,0.0030738000000000002,0.0011350599999999998,0.0290205,0.00253792,-0.00174034,0.0040950000000000005,0.0025044000000000004,0.00045119999999999996,0.00190638,0.0241458,0.0241458,-0.08154765,-0.08154765,-0.00146073,4.141e-05,-0.04903718,-0.00027354,-0.0005142800000000001,0.00110732,-0.0005877200000000001,-0.00461584,0.0375655,0.016289520000000002,0.016289520000000002,3.168e-05,0.01217151,-0.00018507,0.00030955999999999996,0.0005313000000000001,0.00036498000000000005,6.756e-05,0.02209805,-0.000232,-0.00017869,0.0009206399999999999,0.00305102,-5.9e-05,-0.001092,-0.001092,0.0098376,0.0098376,0.0,0.0065945,0.0,0.0006366799999999999,-0.00032639999999999996,0.0009571800000000001,0.00685752,0.00685752,0.00685752,0.0,0.006828640000000001,6.58e-05
202002,-0.0018106799999999998,5.939999999999999e-06,0.0,0.02660544,0.00020145,0.00230202,-8.552e-05,-6.58e-05,-9.66e-06,0.00213838,-0.0014939600000000001,0.005585399999999999,0.00191412,-0.000392,1.344e-05,-0.00010146000000000002,-5.04e-05,0.0008666399999999999,0.00013338,-0.0001962,-0.0008843000000000001,0.00108016,-8.357e-05,1.355e-05,6.392000000000001e-05,-9.617999999999999e-05,-0.005253430000000001,-0.0011711500000000001,7.524e-05,0.0,-0.01156255,-0.0009346500000000001,6.842e-05,-0.00017261999999999998,2.631e-05,-0.0002756,0.0,0.09233589999999998,0.02118312,0.05185812,0.004218819999999999,0.0,0.02249208,0.00259407,0.011568750000000001,4.592e-05,0.00021378,0.0,-5.358e-05,0.00059184,-0.0035542399999999997,-0.00459928,-0.00015624,-0.0023020799999999998,2e-05,-3.556e-05,0.00033653999999999997,0.0008882800000000001,0.00016821,0.0001093,0.0052139,0.00136896,0.00037799999999999997,0.0031163999999999996,-8.6e-07,2.2729999999999998e-05,0.00030942,-5.4340000000000005e-05,0.00118771,-0.00013000000000000002,-0.00010367999999999998,3.78e-05,0.00036377999999999996,0.00074412,-0.0014150299999999998,-0.00071555,0.00016617,0.0003208500000000001,-0.0008747700000000001,0.0006757500000000001,0.20362055999999998,0.008108339999999999,0.00054362,4.16e-06,-0.0014279999999999998,8.119999999999998e-06,-0.00047222999999999997,5.369999999999999e-06,-0.00030058,0.00030353,0.000294,0.00021360000000000004,-1.5100000000000001e-05,-0.0015637799999999996,-0.0002068,-1.5599999999999999e-06,0.00110608,8.384000000000001e-05,-0.0001274,0.00011080000000000001,0.00012324000000000002,-0.00020439999999999998,-0.00016642,1.77e-05,0.0005496699999999999,-0.00023814000000000002,-0.0005775,7.171999999999998e-05,-0.00014644999999999998,-0.0007683,0.0,-0.00067792,-0.00220596,-0.0007364499999999999,-0.00089251,-9.879999999999999e-05,-0.0021372,-0.00445166,0.00016875,-0.00151626,-0.00177876,-0.0035542399999999997,-0.00227787,0.00063555,0.0197905,0.0026355999999999997,0.0008582399999999999,0.009536999999999999,0.01248735,-0.0019940999999999995,-0.0038815699999999996,0.0190353,0.00231288,0.00043924000000000003,0.00110404,0.0012675000000000002,0.00134524,0.0,0.0,0.0,0.0,0.25,0.02131976,0.00808746,0.0015320800000000001,0.004806,-0.00045133,0.00119196,0.0030317500000000006,-0.00012936,-0.0007158900000000001,9.006e-05,-9.898e-05,-0.00023920000000000001,0.0037288,0.04100959999999999,0.0014472000000000003,-0.005909349999999999,-0.00011628,0.00040656000000000004,0.00013392000000000002,-1.5680000000000002e-05,-0.00049476,0.03847439999999999,-0.0021644999999999998,0.009260609999999999,0.00758962,0.0006173999999999999,0.00430392,0.000655,-2.114e-05,0.006626579999999999,0.00435528,0.00043505000000000003,0.00013199999999999998,-2.19e-05,0.00027811,0.00049911,0.0009605200000000001,-0.00318977,-0.00022869,-7.000000000000001e-05,-0.0003726,-0.004385099999999999,0.00015752000000000002,0.00501113,0.00022458000000000002,0.00010388,-0.0038069600000000003,0.0045987300000000005,-0.00200109,0.0036741599999999997,-0.00072768,-0.00149303,-0.00049206,-0.00024562999999999994,-0.00047375999999999994,-0.00433653,0.00160742,0.00022260000000000004,-0.00012376,-0.0901209,-0.00024839999999999997,-0.01017074,-8.735999999999999e-05,6.052e-05,-0.021379999999999996,-0.00195362,-0.011437240000000001,-0.02559816,-0.006498799999999999,-0.00020698000000000003,-0.0011247599999999998,0.0006054000000000001,-0.00068063,-0.00022378,-0.005503129999999999,8.984e-05,2.3399999999999996e-06,-0.00048048,7.616e-05,-1.4840000000000002e-05,-0.00048356,1.976e-05,3.54e-05,0.0013047500000000001,-2.2879999999999998e-05,-0.0005984000000000001,0.004684939999999999,0.0006867,0.003344,-0.00040872000000000006,-6.761999999999999e-05,-4.312000000000001e-05,0.00641816,0.00580096,0.015485579999999999,0.00046706,0.00089866,0.00076428,4.840999999999999e-05,0.00597854,0.00055991,0.0034507499999999994,0.00080801,0.00235204,-0.0011371,-9.282000000000001e-05,0.00259194,0.0023490900000000003,-0.00014448,0.0010927,-0.00022842,-0.00124388,1.804e-05,-0.00274108,2.6640000000000002e-05,0.00022275000000000002,-0.00039393,3.515e-05,0.00014352,-9.31e-06,2.2120000000000005e-05,0.00603624,-7.77e-06,0.00529578,6.3e-06,-1.7100000000000002e-05,-1.14e-06,-0.00026431999999999996,-0.00012375,8.004e-05,0.0004784,0.0129855,0.0129855,0.013095949999999999,0.00032500000000000004,9.246e-05,-0.00185256,2.6180000000000003e-05,1.215e-05,-0.06101979000000001,0.012032399999999999,0.010342410000000002,0.007218479999999999,0.0023327,0.00054666,0.0,0.0013283000000000001,-2.184e-05,0.00025181,0.0007910400000000001,0.0011145,4.2930000000000004e-05,-0.0005877600000000001,-0.0003212,0.00150942,0.0005106900000000001,-0.00023088000000000004,-1.8860000000000002e-05,-0.00010486000000000001,-0.07417212000000001,0.0009704800000000001,4.9199999999999997e-05,0.0007506100000000001,0.00024264,-0.0753426,-0.0753426,-0.0029938400000000006,-0.0017877000000000001,-0.0019012800000000004,0.00284154,-0.0047538,6.336e-05,-3.864e-05,9.594e-05,0.0,-0.0004113,-0.0001176,7.583999999999999e-05,5.526e-05,1.4580000000000003e-05,-0.0014760899999999998,0.0030022,0.0032366499999999998,0.00177463,-7.178e-05,-0.0005126999999999999,-1.38e-05,-0.00439118,-0.00348114,4.96e-06,3.1450000000000006e-05,3.1450000000000006e-05,0.00086104,-0.033182149999999994,-0.030360399999999996,-0.011392500000000002,-0.0035340999999999997,-0.00031647,-6.768e-05,-0.01702566,-0.00205632,-0.00042018,-0.00015973999999999999,-0.004607999999999999,-0.00929334,0.00022420000000000003,-0.0021382600000000003,-0.00020072000000000002,-0.0002061,-0.00077112,-0.00548274,-0.00548274,-3.108e-05,-0.0029660400000000005,-6.672e-05,-0.00018116,0.0026479200000000002,0.0026479200000000002,-0.00018576,0.0024564,0.00037,1.098e-05,1.098e-05,-7.684e-05,8.342e-05,-0.047429910000000006,-0.047429910000000006,-0.0346122,0.0048981599999999995,0.00014315,0.00033320999999999996,0.00831675,-0.00197448,-0.044257849999999994,0.00038335,0.0016326799999999999,0.022377800000000003,0.013971689999999998,0.007104899999999999,0.0120096,0.00044659999999999996,0.00012383,-0.00238266,0.0006039000000000001,0.0,-5.84e-06,0.00381632,-0.0337502,-0.037332,0.006597120000000001,-0.0027876,0.09826676000000001,-0.0170604,-0.013242239999999999,-0.0025683600000000004,0.00248805,-0.00128856,-0.0009338000000000001,-0.00137864,-0.00046893,-0.0007854,-0.0012384,-0.00111469,-0.00188544,0.03259368,0.00634535,0.00083775,0.005808000000000001,0.0025096,0.0001469,0.0020619500000000003,0.02383128,0.02383128,0.08161364,0.08161364,0.00980065,-8.063999999999999e-05,0.04384818,-0.00063644,0.00022200000000000003,-0.00026262,-0.0009400500000000001,0.004068090000000001,0.03331694,0.013578400000000003,0.013578400000000003,-0.00011088000000000001,0.01531936,-0.00012474,6.188000000000001e-05,-0.00075582,0.0,7.882000000000001e-05,0.0204864,0.0004776,-0.0001254,0.00017388,0.0007192,-0.00029601000000000003,-0.00059807,-0.00059807,0.22735760000000002,0.22735760000000002,0.01209627,0.0023671499999999997,0.0,-0.0011164999999999999,-0.00065758,-0.00046461,0.01199016,0.01199016,0.01199016,0.0100513,0.00040964,-3.633e-05
202003,-1.452e-05,1.7639999999999997e-05,-0.00032592,0.00049816,0.0006754499999999999,-0.00225212,0.0009372,-0.00017732999999999998,0.00025440000000000006,0.00107229,-0.00045744,-0.00267245,0.00830466,5.418e-05,-2.0039999999999998e-05,0.0003498,4.3889999999999995e-05,0.00078244,-8.892e-05,0.00010800000000000001,-0.0006263999999999999,0.00107952,0.00022032,1.58e-05,-1.7860000000000002e-05,3.7800000000000004e-05,0.00165474,0.0003936,0.00017556000000000003,0.0,0.01353312,-0.00021887999999999996,-0.00048516,-0.00058255,0.00047232,-0.00312403,0.0,0.015729,0.00480436,0.010518200000000002,0.00174348,0.0,-0.00232956,-8.03e-06,-0.00143685,5.6100000000000005e-06,0.00037229999999999994,0.0,2.79e-05,0.00016485,-0.0028086,-0.0016602300000000002,4.316e-05,0.0005418,-4.1500000000000006e-05,4.494e-05,0.001349,4.270000000000001e-05,-0.0001935,0.00077532,0.01079925,5.992e-05,0.00062238,0.00298494,3.354e-05,-0.00322056,-0.00023039999999999996,-0.0005842499999999999,-0.00135705,0.00084162,0.0001952,-9.2e-06,0.0005512000000000001,-0.00146268,0.00147975,-0.00139428,9.6e-06,2.788e-05,0.0006461199999999999,-0.00023825999999999999,0.03550668,-0.0012725500000000001,0.00022101,-2.24e-06,-0.0023092,6.76e-06,0.0,-2.1899999999999998e-06,0.0002899,0.0008410799999999999,9.064e-05,7.504000000000001e-05,-4.519999999999999e-06,-0.00023808,-3.42e-06,8.699999999999998e-06,-0.0007842999999999999,-0.00010611000000000001,0.00031232000000000005,0.00023629999999999997,-0.00020480000000000002,-0.00080264,-3.41e-05,-2.242e-05,-0.00025192,0.00081312,-0.00085785,1.9559999999999996e-05,-6.399e-05,0.0026165999999999997,0.00014784,-0.00012418000000000002,-0.00084144,-0.00043771999999999995,-0.0008658299999999999,-0.00012852000000000002,-0.00107431,-0.00371536,0.0,-0.00085218,0.00043875000000000007,-0.0028086,-0.005290530000000001,-0.0007826,-0.0337297,0.00274365,0.00022246,-0.01160478,-0.01282304,0.00091008,-0.00286995,0.00176384,0.0001547,1.9200000000000003e-05,0.0030763199999999996,7.88e-05,0.00018165000000000002,0.0,0.0,0.0,0.0,0.07,0.21870585,0.18835599999999997,0.00828478,0.0077472,0.00067976,0.00060016,0.0031808,0.00012428,2.9e-05,0.00011760000000000001,0.00011399999999999999,0.00070224,0.0013496399999999998,0.0859005,0.0018354,0.012696959999999998,-2.8980000000000004e-05,0.00033075000000000004,0.00210605,-0.00019655999999999997,0.0006619800000000001,0.03807506,0.019050779999999996,0.01137762,-0.00037691999999999994,0.00021263999999999997,0.00066129,1.314e-05,1.218e-05,0.0070781,0.0021203600000000004,0.0005038199999999999,0.0009226100000000001,-0.0002166,0.00101331,1.985e-05,0.0027023499999999996,0.023047919999999996,-0.00167772,0.00024534,-0.00014355000000000002,0.0035568699999999997,-0.00020294999999999997,0.007724430000000001,0.00034600000000000006,-0.0004915000000000001,0.00077088,-0.0044113,0.00264492,0.00602276,-0.0004540800000000001,0.0016794200000000003,0.0014962499999999998,-0.000462,0.00102213,0.00113568,0.0035984500000000004,0.00057816,8.75e-05,-0.0073701,-0.00028674,-0.00350012,-0.00017625,0.00024119999999999998,-0.00960561,-0.0005689600000000001,0.0014092000000000002,-0.0033103800000000004,0.00230947,-0.00022116000000000003,-0.001113,-0.00017203999999999999,0.00399114,-5.8080000000000006e-05,0.0034921600000000007,0.00194967,1.1639999999999999e-05,0.0005717799999999999,6.647e-05,-3.127e-05,-0.00021868,-8.01e-06,-4.5599999999999995e-06,6.400000000000001e-05,-3.692e-05,-0.0004277200000000001,0.00566307,0.0022457999999999996,0.0022995,0.0003885,7.154e-05,-9.57e-06,0.011495,0.010825060000000001,0.010085120000000001,-0.00019502999999999998,0.0023513600000000003,0.0005499,-8.735999999999999e-05,0.0051978300000000005,0.00150535,0.00104481,0.00043628000000000004,0.00058776,0.0016937500000000002,-0.00018698999999999997,0.0022050600000000004,0.001564,1.7999999999999997e-05,0.02290995,0.0012766400000000001,0.00345261,5.4120000000000004e-05,0.00495256,0.0008897600000000001,0.00046643999999999993,0.00088511,0.00010672,8.240000000000001e-05,2.5270000000000004e-05,0.00021488000000000003,0.007763849999999999,4.0319999999999993e-05,0.00658304,5.39e-06,-1.0500000000000001e-05,-3.078000000000001e-05,0.000222,1.476e-05,0.00023092,0.00051254,0.030093059999999998,0.030093059999999998,-0.0037457,0.030804699999999994,0.0005346600000000001,0.00248808,2.1560000000000004e-05,1.71e-05,0.0202111,0.008012479999999999,0.00556283,0.0030376000000000005,0.00046602,0.00218184,-4.047999999999999e-05,-0.00145915,3.8219999999999997e-05,0.00010721,0.00116278,0.004156320000000001,-4.644e-05,0.000225,0.0019324900000000002,0.0014924,-0.00021866999999999996,0.00019924000000000002,3.28e-06,6.24e-05,0.0110628,0.00593439,-6.6e-06,0.006421199999999999,-0.0005665799999999999,0.00518436,0.00518436,-0.04028184,-0.011044060000000001,-0.0122485,-0.006774700000000001,-0.0009391700000000001,-0.00339388,-0.00052164,-0.00019144000000000002,9.888000000000002e-05,0.0009160700000000001,0.00015565,0.0013243999999999999,0.0012866,2.538e-05,-0.029751540000000003,-0.02227176,-0.012931100000000001,-0.0021987,-0.00030301000000000004,-0.004437,-0.00010812,-0.007509,-0.009982419999999999,-4.8360000000000005e-05,0.0005962200000000001,0.0005962200000000001,0.00035339999999999997,0.009451679999999999,0.00826146,0.0032126999999999998,0.0023025600000000004,0.00015504,-6.461e-05,0.00627302,0.0025798500000000003,0.00011080000000000001,-3.6479999999999996e-05,0.00018108000000000002,0.00424035,-0.00035840000000000004,-0.0012504,0.0,-9.222000000000001e-05,0.00020088,-0.00260348,-0.00260348,-9.294e-05,0.001368,3.601e-05,-0.00289024,0.003405359999999999,0.003405359999999999,0.00016561999999999998,0.004000200000000001,-0.0007530000000000001,0.00036716,0.00036716,0.0002475,0.00011857999999999999,-0.18472950000000002,-0.18472950000000002,-0.09696919999999999,0.0043593600000000005,0.0,3.088e-05,0.00143154,-0.0005742,-0.10056700000000002,0.0,0.00210368,0.02795975,0.00804438,0.00711,-0.011310939999999998,6.385000000000001e-05,0.00038829999999999995,0.00813696,-0.00031771999999999996,0.0,8.76e-05,0.0005985000000000001,-0.11444687999999999,-0.089852,-0.01952286,-0.0050668499999999995,0.02840187,-0.01393013,-0.01142757,0.00027346,-0.0012188000000000001,-0.00021255000000000002,-0.00022176,-0.0008436499999999999,-0.0012151800000000002,-0.00061992,-0.00141496,-0.00274302,-0.00067935,0.024522119999999998,0.00092568,0.0016179099999999997,-0.00069225,-0.00050272,-9.032e-05,-0.00041371,0.0243186,0.0243186,0.018037519999999998,0.018037519999999998,-0.0008965600000000001,-7.421000000000001e-05,0.011984149999999999,-0.0021739199999999998,0.00074303,0.0015994000000000002,0.0012035,0.00432531,-0.02473443,0.00882167,0.00882167,-2.0799999999999997e-05,0.01441594,0.0005259899999999999,0.0,-9.59e-06,0.0,7.306000000000001e-05,-0.03357774,0.00016758,0.00048872,-0.0020265,-0.00552398,-0.00014591999999999999,0.0,0.0,0.0375004,0.0375004,0.0006912200000000001,0.0041914,0.0010472,0.0002009,0.00067968,-0.00048816,0.0022830800000000003,0.0022830800000000003,0.0022830800000000003,0.0005848,0.0012263999999999999,4.48e-06
202004,-0.0008131200000000001,-1.032e-05,-0.00120506,-0.01166144,0.00070269,-0.00324316,-0.00038663999999999994,-0.00010404,4.889999999999999e-05,0.0056181600000000005,0.00862059,-0.00714692,0.00594286,0.00087075,0.00010164,0.00035777,0.00029468999999999996,-2.5380000000000004e-05,2.214e-05,-0.00021049,0.00079072,0.0007425000000000001,-0.00014796,-4.165e-05,0.00012596000000000002,-2.058e-05,0.0032020800000000004,0.0010446300000000002,0.00023864,0.0,0.0018925,-0.0018200700000000002,-0.00048585,-0.00073073,-0.00173382,0.00221,0.0,0.0,0.0,0.0,0.0,0.0,0.0006019300000000001,0.0,0.0,0.0,0.00013338,0.0,0.00017138,0.003069,-0.003588,0.0219583,-9.018000000000001e-05,-0.001524,1.2000000000000002e-06,5.565e-05,-0.00046360000000000005,-0.0007814100000000001,-0.00021271,0.00030744,0.060186840000000005,0.00257656,-0.00029931,0.00264792,2.064e-05,-0.00031276000000000003,-0.0006684999999999999,-0.00093186,0.0008100000000000001,0.000606,9.453999999999999e-05,3.818e-05,0.00017060000000000003,1.419e-05,-0.00033796000000000005,-0.0008415000000000001,1.1519999999999998e-05,-8.358000000000001e-05,-8.936e-05,0.00150708,0.0,0.0004499,0.0005747700000000001,-5.12e-06,-0.00245,0.0,0.0,1.1309999999999998e-05,0.0005311,0.0007603499999999999,0.00010504,0.00019905999999999998,4.5599999999999995e-06,-0.00074,6.080000000000001e-05,4.9199999999999995e-06,0.0008051400000000001,0.0002431,0.0008150599999999999,0.00090763,4.992e-05,0.000165,-0.0004681,-0.00023423,-0.0002014,0.00309764,0.00113928,0.00016136999999999998,6.183000000000001e-05,0.00263885,-0.00019546,0.00226688,0.0005229000000000001,-0.00014720999999999997,-0.00072375,-0.0003131,-0.0019747000000000002,-0.0093285,0.0,-0.0069251700000000005,-0.0008302800000000001,-0.003588,-0.0027916200000000007,-0.00051014,-0.02713632,-0.00301059,0.0,-0.014816940000000002,-0.00809748,-7.155e-05,0.00010764,0.0,0.0,0.0,-0.0005958,-0.0002561,0.0,0.0,0.0,0.0,0.0,-0.31,0.35010252000000003,0.30536352000000005,0.04892105,0.0190702,0.0018868200000000002,0.0051009,0.006355079999999999,1.092e-05,0.0016518599999999998,3.645e-05,1.5149999999999999e-05,0.00220388,0.00151623,0.08881696,0.0027340199999999998,0.03836642,-8.33e-06,0.00116334,0.00010355,-8.84e-06,0.0021237499999999998,-0.00825115,0.039288239999999995,0.013359610000000001,0.00031375,0.00152564,0.0033364799999999997,-0.00086658,4.228e-05,0.01518978,0.0058562,0.0005177199999999999,0.0011024000000000001,0.00035979999999999996,0.00145573,0.0057088600000000005,0.00018768,0.051960719999999995,-0.00156325,0.0020011200000000003,5.9539999999999996e-05,0.00800296,2.58e-06,0.0048760900000000005,-7.040000000000002e-05,1.53e-05,0.0017044200000000001,0.0031694,0.01572021,-0.0018011000000000001,6.131999999999999e-05,0.00017235999999999998,0.0013305200000000002,0.00046844000000000003,0.00214676,0.00390192,0.01033978,0.00121758,0.00021012000000000003,-0.04920881999999999,0.00028188000000000003,-0.00888352,3.68e-06,6.072e-05,-0.013770359999999999,-0.0006770400000000001,-0.002722,-0.01324323,-0.0035062,-0.00039442000000000004,-0.00017082,-0.0011413,-0.00099624,-0.0003916900000000001,-0.0005043199999999999,0.00246122,7.199999999999999e-07,0.00024948,0.00053838,-0.00025069000000000003,0.00014382,-4.8e-06,9.959999999999998e-06,0.0005984000000000001,0.0001378,0.00029400000000000004,-0.00667056,0.00058406,-0.0062048699999999995,-0.0004959,0.00010388,-1.479e-05,0.029582549999999996,0.015295439999999999,0.060690179999999996,0.00034125,0.00403186,-0.0005958999999999999,0.0005726799999999999,0.004579389999999999,0.00616759,-0.00394058,-5.894e-05,0.00029543,0.00263232,-0.00050303,0.0037296000000000004,0.0027624600000000004,0.00127587,0.0240236,0.0036975000000000003,0.0036907,0.00026892,0.0026273000000000004,0.00016758000000000002,0.0029920000000000003,0.0015903100000000002,-0.00044268,7.134e-05,-2.7930000000000002e-05,0.00020034000000000002,0.02294623,6.93e-06,0.01923168,1.274e-05,1.773e-05,0.00014592,0.00066008,0.00011643999999999999,-4.654999999999999e-05,-0.00027456000000000003,0.0450414,0.0450414,-0.004861219999999999,0.05068877,0.00013838,-0.0010149,-1.54e-05,1.8449999999999998e-05,-0.0155544,0.015024299999999999,0.014303519999999998,0.0018986,0.00884716,0.0038207399999999996,6.272e-05,-0.00052956,5.3689999999999996e-05,-0.0001976,-7.452e-05,0.0007459000000000001,2.809e-05,0.0005643000000000001,0.0011915100000000002,-0.0033726,0.00034691999999999996,-0.0004851,-6.273e-05,-8.624e-05,-0.030460100000000004,0.0024318,-0.0001152,0.0024745700000000006,0.0,-0.032850239999999996,-0.032850239999999996,-0.05051738,-0.02689336,-0.03214044,-0.01013226,-0.015874600000000003,-0.00505812,-0.00013565999999999999,0.0027735599999999996,-0.0002476,0.0008702,-0.0007095199999999999,0.0025704000000000005,0.0025173599999999997,3.7800000000000004e-05,-0.025502010000000002,-0.03082738,-0.014618999999999998,-0.007477799999999999,-0.00027405,-0.00605364,3.015e-05,0.005348879999999999,0.0027184500000000003,-8.364e-05,0.0019794599999999997,0.0019794599999999997,-0.00022980999999999997,0.0045075,0.01011879,0.0062263,0.00246842,-2.3000000000000003e-05,9.800000000000001e-05,0.00328608,0.00038508,0.00020571999999999998,0.00012095999999999998,-0.00114684,0.0037452499999999994,0.00018972000000000002,0.00056124,-0.00070656,5.481e-05,0.0007224000000000001,-0.00814269,-0.00814269,-0.0021517199999999998,0.0008244,-0.00025761,-0.00452985,0.0022865999999999997,0.0022865999999999997,0.00039672,0.0027222,-0.0008249799999999999,0.00023142,0.00023142,0.00025763999999999995,-2.5740000000000004e-05,-0.5407753399999999,-0.5407753399999999,0.06749346000000002,0.00150161,0.0,0.0,4.3490000000000005e-05,-8.883000000000002e-05,0.0754396,0.0,0.0,-0.035858560000000005,-0.0113449,0.007128,-0.021811500000000004,-0.0010096200000000001,0.0,-0.00272368,0.0004905599999999999,0.0,-7.007999999999999e-05,-0.006465960000000001,-0.57255177,-0.46948468000000004,-0.09084124,-0.01179024,-0.02979636,-0.06297312000000001,-0.059329679999999996,-0.0070382100000000005,0.0007735,-0.0021542400000000004,-0.00205224,-0.0029111799999999998,-0.0019600000000000004,-0.00329616,-0.0026018499999999997,-0.02235656,-0.00641424,0.027535419999999998,0.0026617900000000002,0.00134184,0.0013287499999999999,0.0006276000000000001,-0.00019159,0.0009012,0.024442199999999997,0.024442199999999997,0.005511380000000001,0.005511380000000001,0.00370678,3.2000000000000005e-05,0.00926992,0.00436888,0.00064728,0.00245448,0.0032109,-0.00346926,-0.01501262,0.012901949999999999,0.012901949999999999,-8.84e-05,0.010382130000000002,0.00010132,4.4200000000000004e-05,0.00024908,0.00345078,7.332e-05,-0.027128799999999998,0.002912,-0.00040053,-0.00033984,-0.00575056,0.00018999999999999998,0.0,0.0,0.0,0.0,0.0,-0.0008329499999999999,0.0,0.00012924,-0.0008608,0.0009878,-0.011411,-0.011411,-0.011411,0.0,-0.01155312,2.681e-05
202005,-0.0015913199999999998,2.07e-05,-0.0002692,0.01921465,2.404e-05,0.004256520000000001,0.00043993000000000005,-1.675e-05,0.0001558,-0.00158985,0.004823129999999999,0.00028626,-0.0034469200000000005,0.00023025999999999998,6.63e-06,2.457e-05,0.00023217000000000002,-0.00061056,-0.00020007,0.00032465,3.982e-05,-0.0006778,0.0001972,2.4750000000000002e-05,9.887999999999999e-05,2.96e-05,-0.00224952,-0.0006361600000000001,-0.0004992800000000001,0.0,-0.00589403,0.00040356,-0.0007429800000000001,-0.0016125299999999998,0.00280126,0.00092691,0.0,0.0,0.0,0.0,0.0,0.00031527,-0.00051804,0.0,0.0,0.0,-0.00053251,0.0,-0.000114,-0.00057885,-0.00121524,0.0129467,-0.00018203000000000002,0.00037319999999999996,1.0000000000000002e-06,-2.4e-07,6.318e-05,-0.00021892,-2.61e-06,-0.00186238,-0.009659999999999998,-0.00155958,-6.342000000000001e-05,-0.00299234,-6.321e-05,0.00288702,0.00070499,-0.00016801999999999998,-0.0007189599999999999,-8.224000000000001e-05,-4.756e-05,8.280000000000001e-05,0.0,-0.0007832000000000001,0.00300792,-0.0004445,5.79e-05,-2.7920000000000004e-05,-0.0017472000000000002,-0.00011978999999999999,0.0,4.1070000000000005e-05,-0.00015364,-0.00022303999999999998,-0.00033565,1.7599999999999999e-06,-8.496e-05,3.93e-06,-0.00067048,0.0003799,7.844e-05,0.00015232,-1.96e-06,0.00032032,-4.104000000000001e-05,-2.9999999999999997e-06,0.0007286399999999999,1.4629999999999997e-05,-0.0006162300000000001,0.0006256500000000001,0.00014196,0.00034775999999999996,0.00015,6.327000000000001e-05,0.00029945,-0.0011651300000000001,5.747000000000001e-05,-5.7749999999999994e-05,0.00020763000000000002,0.01575525,0.0004381,0.001638,-0.00026295,-0.0012898399999999998,-0.00028076999999999996,-0.00019403999999999998,-0.00294,0.00993984,0.0,0.00076284,-0.0033779199999999995,-0.00121524,-0.0020407900000000002,-0.00019944,-0.01253952,-0.00277932,0.0,-0.00881398,-0.0031779,-0.0007174999999999999,0.0,0.0,0.0,0.0,3.9779999999999995e-05,0.0008775399999999999,0.0,0.0,0.0,0.0,0.0,-0.38,0.04792704,0.04613268,0.027935,0.010293209999999999,0.00020448,0.0040250400000000006,0.0018595999999999999,9.52e-06,0.00017639999999999998,0.00018873,-1.3130000000000001e-05,0.0009155599999999999,0.00040320000000000004,0.044290350000000006,-0.001104,0.033960080000000004,-3.4000000000000003e-07,-0.0004275,-0.0018038399999999997,0.00023503999999999997,-0.00037926,-0.01998682,0.045871999999999996,-0.0120497,0.00831336,0.0005248999999999999,0.00029869999999999994,0.0029452499999999995,2.385e-05,-0.0034684200000000003,-0.0036176,0.00027875999999999997,0.00025112,-8.308000000000001e-05,-0.0005494,0.0006188000000000001,-0.00037125000000000005,-0.019614000000000003,0.00011704,0.00048265,-1.638e-05,-0.007092299999999999,-0.00030360000000000006,-0.00818275,9.976e-05,-0.00049455,0.00195624,0.0008059799999999999,-0.01135602,0.012672949999999999,-0.00048972,-0.00048785999999999995,-0.00033695999999999997,0.0005527500000000001,-0.0003131,-0.0017238,-0.00628641,0.0009445800000000001,-0.00013303,0.0012032500000000001,0.00055047,-0.00178472,7.199e-05,-0.0001581,0.00387234,-0.0008107,-0.00148665,-0.00278428,0.0019311600000000001,-6.440000000000001e-05,0.00069748,0.00037036999999999997,0.0016346099999999999,0.00053975,-0.00056808,-0.00116739,6e-07,-0.00011934,-2.921e-05,2.05e-05,-0.00013552,8.079999999999999e-06,-2.244e-05,-0.00046761,0.0,0.00021827,-0.0019094999999999997,-0.0023774399999999998,0.00336885,-0.00048267000000000004,-1.089e-05,-0.00029667,-0.0041748,-0.007441920000000001,-0.011386379999999998,-0.00082983,0.00019030000000000002,-0.0004914,2.97e-05,0.00730664,0.0060554400000000005,0.00216675,0.00036335,-0.0006912,-0.0013178799999999998,0.0007419999999999999,-0.0010224,-0.00083072,-0.00012894000000000002,-0.01014048,0.00017108,0.0033466,7.740000000000001e-05,-0.00636948,0.00016905000000000002,-0.00111784,0.0006364,-8.736e-05,4.2e-05,8.740000000000001e-06,0.00029531999999999996,0.00685253,3.36e-06,0.0063969199999999995,-6.879999999999999e-06,-1.8400000000000003e-05,-2.891e-05,0.00034958000000000005,0.0002178,7.314999999999999e-05,0.0005006499999999999,0.002396,0.002396,-0.01273538,0.01417059,0.0012423,-8.952e-05,-9.779e-05,-5.98e-06,-0.03896375,0.0,-0.00878405,-0.00800268,-0.00093744,0.0,-6.544e-05,0.006371999999999999,-5.796e-05,-0.00040619,0.00358848,0.0023219,-4.86e-05,0.0009953800000000001,0.00154648,-0.00061641,0.0008613,0.00034219999999999997,7.216e-05,-6.047999999999999e-05,-0.038664500000000004,-0.013561980000000001,0.0,-0.012545399999999996,-0.00102144,-0.024949859999999997,-0.024949859999999997,0.021162459999999998,-0.0323417,-0.0339824,-0.01288736,-0.014214420000000002,-0.00683773,0.0001572,0.00053075,0.00048204000000000004,0.00050112,0.00025235000000000004,0.0011422399999999999,0.00116684,-3.3480000000000005e-05,0.050823929999999996,0.01648944,0.006041330000000001,0.007153120000000001,-0.00010659000000000001,0.00369369,7.683999999999999e-05,0.03429785,0.01793848,0.00034892,0.0027287800000000005,0.0027287800000000005,0.0005744099999999999,-0.026252539999999998,-0.019751679999999997,-0.005957050000000001,-0.0033099,-0.00012880000000000001,4.7520000000000006e-05,-0.01211672,-0.00480227,1.9670000000000003e-05,-0.00012222,-0.00449235,-0.0009059300000000001,-0.00059466,-0.00181598,-0.0009320799999999998,0.00017052,0.00066456,-0.00869944,-0.00869944,-0.0008114300000000001,-0.0004977,-0.00018975,-0.0035632000000000007,0.00209,0.00209,4.725000000000001e-05,0.0023830899999999996,-0.00034577,0.00015012,0.00015012,0.00010944,3.8610000000000005e-05,-0.3772146,-0.3772146,-0.14855699999999997,0.0,-0.00022462,0.0,-0.0001744,-0.0014003000000000002,-0.15657066,0.0,0.0,0.01793408,0.02209048,0.007172099999999999,-0.0170793,-0.0001273,0.0011005,0.007675200000000001,-2.7200000000000004e-05,0.0,0.00025257999999999997,-0.0011884,-0.24693311999999998,-0.19956929999999995,-0.03481236,-0.011746560000000001,-0.013553300000000002,-0.0406615,-0.03944116,-0.00404808,-0.004164,-0.0026663999999999998,-0.00277722,-5.283e-05,-0.0014670400000000002,0.00024904,-0.004322479999999999,-0.01119976,-0.00417456,0.02597144,0.00093088,0.0005059800000000001,0.0005345,0.000252,0.00030456,-3.775e-05,0.024654,0.024654,0.0019771000000000003,0.0019771000000000003,-0.0068982900000000005,-4.56e-05,-0.011617220000000001,-0.0010944,-0.00057426,-0.00127065,-0.00114696,0.00442917,-0.00429708,0.008188919999999999,0.008188919999999999,-1.5479999999999997e-05,0.0098146,0.00021599999999999996,9.812e-05,0.00047334000000000005,0.0,7.371000000000001e-05,-0.01248824,-0.00037394999999999996,0.00031872,0.00233415,0.00026568,-0.00033077000000000003,-0.0002717,-0.0002717,0.0012819600000000002,0.0012819600000000002,0.0,0.00122364,0.0,0.0003605,-0.00034515,0.00071058,0.013705440000000001,0.013705440000000001,0.013705440000000001,0.0,0.013889060000000003,-8.54e-06
202006,0.0002223,0.0,0.00095708,0.00015752,-0.00044658999999999996,0.0005722599999999999,-0.00022722,2.881e-05,0.00042329999999999993,-0.00243639,-0.00629267,0.011884160000000001,-0.0012127199999999998,0.00022456,2.236e-05,-0.00010138,7.992000000000001e-05,-0.0010803499999999999,2.214e-05,0.00026499,0.00035308000000000003,-0.00142716,4.278e-05,-3.1000000000000004e-06,-3.88e-05,-7.581e-05,-0.00017300999999999997,-0.00310284,-0.0001953,0.0,-0.00038058000000000005,0.00016192000000000002,0.00060903,0.00233681,0.00031872,0.00321315,0.0,0.0,0.0,0.0,0.0,0.0008376799999999999,0.00017322,0.0,0.0,0.0,0.00034438000000000003,0.0,4.769e-05,0.00141625,8.889e-05,0.008084800000000001,2.324e-05,0.00064684,-4.7e-06,9.999999999999999e-06,-0.00012200000000000001,0.00044520000000000003,-8.265e-05,0.00306534,0.01591157,-0.0016253300000000004,0.00088173,9.086000000000001e-05,6.192e-05,-0.00170625,0.00010036000000000001,5.94e-05,0.00166566,-0.00018539999999999998,3.7720000000000005e-05,7.990000000000001e-06,-8.620000000000001e-05,0.0016483599999999998,0.00040600000000000006,0.0033554400000000003,4.485e-05,0.00035049999999999995,0.00169632,-0.00192336,0.0,-0.00020615,-0.00010125999999999999,4.83e-05,0.00090146,-2.64e-06,0.00022183999999999998,3.5199999999999998e-06,1.3559999999999999e-05,0.00042911999999999996,0.0,0.00044388,1.2e-06,3.312e-05,1.4060000000000001e-05,9.72e-06,0.00053664,-6.383999999999999e-05,-2.4850000000000004e-05,0.0002093,-9.36e-05,-0.00034612000000000005,0.00010488,-2.9579999999999998e-05,-0.00047972000000000005,-0.00114444,-0.00018975,4.125e-05,0.00011339999999999999,0.0143601,0.00035412,0.0037392,-0.00135289,-0.0009397600000000001,-0.00031460000000000006,-1.536e-05,-0.00201858,-0.02916945,0.0,0.004217940000000001,0.00102144,8.889e-05,0.00150654,0.0002331,-0.01489904,-0.0013518,0.0,-0.00737884,-0.0036959999999999996,-0.0002868,0.0,0.0,0.0,0.0,0.00039940000000000006,0.0020979,0.0,0.0,0.0,0.0,0.024556319999999996,0.26,0.07635605999999999,0.0633546,0.027817320000000003,0.014368559999999999,0.0010295,0.0039352499999999995,0.0037488,3.36e-06,0.00098959,5.124e-05,-6.018e-05,0.0011477,0.00160528,-0.03924208,1.5959999999999996e-05,0.00157365,-2.8049999999999997e-05,-0.00044394,0.00122148,0.00031349,0.0012884300000000001,-0.038081279999999995,0.0009955,-0.006109440000000001,0.0014733799999999998,0.0002739,-0.00021776999999999997,0.00112812,-5.025e-05,-0.0030864399999999998,-0.0016450100000000001,2.3749999999999998e-05,-0.0004637500000000001,-0.00013082,-0.0007616000000000001,0.00014816000000000002,-0.00025024,0.007526779999999999,0.0019157999999999998,-0.00045854,-1.9180000000000003e-05,-0.00390624,0.00024681999999999997,-0.006443000000000001,-0.00015004000000000002,-0.00018245000000000002,0.0016616999999999997,0.00311304,0.00202259,0.00959802,-9.2e-05,0.0016012799999999998,0.00044520000000000003,0.0008921699999999999,0.0003542,0.0014611499999999998,-0.004542580000000001,0.000194,-0.00014351999999999998,0.028762299999999994,0.00175314,0.00019098,-1.1519999999999998e-05,4.1400000000000003e-05,0.0073834,-1.1750000000000001e-05,0.0017003699999999997,0.0083638,0.00318218,8.960000000000001e-05,0.00276224,6.0540000000000007e-05,0.00141305,-0.00011437999999999999,0.0010437900000000002,0.0,-2.8199999999999997e-06,1.1650000000000002e-05,-3.105e-05,-0.00016626,-1.842e-05,-5.76e-06,4.416e-05,-0.00015181000000000003,0.0,3.375e-05,0.00439599,-0.0012051599999999998,0.00243399,-0.000258,-6.930000000000001e-06,-3.36e-06,-0.009425490000000002,-0.00065494,0.028297440000000004,0.00033234,0.00137664,8.148000000000001e-05,-0.0001221,-0.0032038000000000006,0.0017860000000000003,-0.0016156,-0.00020448,-0.0010324800000000001,-0.00171462,-0.00038634,0.0067518000000000005,0.00466089,0.00123,0.0025689600000000003,0.00034372,0.0013770999999999998,-0.00016878,0.0017754000000000001,-2.088e-05,0.00031635,0.0004923600000000001,0.00010010000000000001,2.4509999999999997e-05,-1.349e-05,0.00010725,0.00626975,1.596e-05,0.00396668,-7.840000000000001e-06,0.0,-9.322e-05,0.0004773600000000001,-7.728e-05,-7.104e-05,0.0005820600000000001,0.01323278,0.01323278,-0.0026227600000000005,0.0174528,0.00054272,-0.00020965,-6.688000000000001e-05,-8.28e-06,0.00624192,0.00504935,0.00560399,0.00458004,-0.0021156299999999994,0.00330606,-5.968e-05,0.00107104,-0.00010028000000000001,0.00028268000000000005,0.0031458799999999998,-0.00143298,-2.538e-05,0.00025840000000000005,0.0005127199999999999,0.00050292,-0.0009438,-0.00022124999999999998,2.173e-05,0.00010105,0.0,0.01491867,-2.36e-05,0.015132119999999997,-0.00024083999999999998,-0.01459688,-0.01459688,0.0478933,-0.01068012,-0.013859930000000001,-0.00656884,-0.00340326,-0.00417428,0.00028273999999999997,0.0014065,-0.00024414000000000003,0.00012181,0.00026416,0.0017986000000000002,0.00186298,-6.75e-05,0.05478602,0.024895920000000002,0.010905320000000001,0.00727766,0.00040733999999999996,0.005369340000000001,4.14e-05,0.0299326,0.015382380000000001,7.308e-05,0.0036937999999999997,0.0036937999999999997,-0.0003515,-0.02077958,-0.0153905,0.00021626,0.00125454,0.00042550000000000004,1.728e-05,-0.013015,0.00146602,5.377e-05,-1.1519999999999998e-05,-0.00450282,-0.0091848,0.00011200000000000001,-0.00256988,-0.00036336,-6.659999999999999e-05,-0.0002885,-0.00714554,-0.00714554,-0.00041255999999999997,-0.0022445100000000003,6.6e-05,-0.00235055,0.0011442600000000002,0.0011442600000000002,-0.00039248000000000006,0.0006847899999999999,0.00083905,0.0006204900000000001,0.0006204900000000001,0.0005921100000000001,2.4e-05,0.06060344999999999,0.06060344999999999,-0.13977647999999998,0.0,-0.0007164499999999999,0.0,-4.3740000000000005e-05,-0.0010996800000000002,-0.10973619,0.0010038599999999999,0.0,0.0259187,0.010866599999999999,0.007221,-0.0179775,0.00039587000000000004,0.0021515999999999996,0.015652,0.00050468,0.0,-0.00017730999999999997,0.00666624,0.17483897,0.14272848000000002,0.03163888,6.852e-05,0.04757025,0.048811,0.04858127999999999,0.00155545,0.006140520000000001,0.0035568500000000003,0.0014835,0.0018917600000000001,0.0032725000000000002,0.0030257500000000002,0.00207828,0.011971789999999998,0.00282898,0.027966409999999997,0.00444258,0.0008473499999999999,0.00338373,-0.00120194,-0.00030672,-0.0012503700000000002,0.0248916,0.0248916,-0.028592639999999996,-0.028592639999999996,0.0038418,-6.52e-05,-0.037248640000000006,-0.00337958,0.00071936,0.00212688,-0.00091203,0.0031813600000000007,-0.00538925,0.0102867,0.0102867,-4.128e-05,0.00796875,7.852000000000001e-05,2.7e-05,-0.00020454,0.0021987599999999997,7.397e-05,-0.01451508,0.0002493,0.00043601999999999996,0.00173016,-0.00732025,3.6660000000000005e-05,-0.00049059,-0.00049059,0.0032173,0.0032173,0.0,0.003357,0.0,-0.0004353,-0.0007155,0.0002766,0.04309575,0.04309575,0.04309575,0.0,0.01836248,2.66e-06
202007,0.0015640799999999998,1.554e-05,0.0004607000000000001,0.0028296000000000003,-0.00067144,-0.00234442,-0.0005385,-3.752000000000001e-05,-0.0001683,0.00258926,0.007893440000000002,0.0019098300000000002,-0.0008043200000000001,0.00024522,4.29e-06,0.00022113000000000002,0.00022032000000000003,0.0008799,0.0009897999999999999,0.0009127299999999999,-0.00015371999999999999,-0.00162336,9.174e-05,4.600000000000001e-06,1.455e-05,-3.740000000000001e-05,-0.007706339999999999,0.00072261,-0.00022536,0.0,0.0009487499999999999,-1.416e-05,0.0003410400000000001,0.00038080000000000004,-0.00047735999999999997,-3.479e-05,0.0,0.0,0.0,0.0,0.0,0.0,-0.00077751,0.0,0.0,-1.0880000000000001e-05,0.0001032,0.0,4.0000000000000003e-07,0.0001716,0.0026604,-0.0101507,-0.00021945000000000002,0.0018420300000000001,-2.9100000000000003e-05,-1.568e-05,-0.0001552,0.0005639200000000001,1.1180000000000001e-05,0.0012476800000000001,0.0264163,-0.00208361,0.0006137200000000001,-0.0015689100000000004,-7.955000000000001e-05,-0.0025897999999999997,0.00042846000000000003,0.00054,-0.0012173,-0.00054166,0.00015908,3.6660000000000005e-05,0.00058412,0.0005019,0.00253625,0.002041,3.315e-05,0.00035049999999999995,0.0007177600000000001,0.00127264,0.0,-0.00086289,-5.248e-05,-5.61e-05,0.0005983000000000001,-2.4e-07,-0.0003081,1.176e-05,3.842e-05,0.00057681,7.918e-05,9.73e-05,1.04e-06,0.00037904000000000003,-1.33e-05,-4.979999999999999e-06,-0.0014508,8.976000000000001e-05,0.00030195,0.000387,9.243000000000001e-05,-3.528e-05,-0.00024327000000000002,6.897e-05,2.893e-05,0.00101362,8.210000000000002e-05,0.00012705,3.038e-05,0.0120963,0.00030735,0.0021332499999999997,-0.00125208,-0.0007412000000000001,0.00026649,-0.00018719999999999997,-0.0012701000000000001,-0.01466515,0.0,0.0010040000000000001,-0.00270907,0.0026604,0.0005374,0.00021090000000000003,0.00350586,0.00095456,0.0,-0.005185099999999999,0.00118725,-0.00025667999999999996,0.00043247999999999995,0.0,0.0,0.0,-0.00418635,-0.00035594999999999995,0.00018221,0.0,0.0,0.0,0.01742856,0.36,0.00201194,0.019750080000000003,0.0032476,0.0118294,0.00011704,0.0007775,-0.00113064,-1.736e-05,-0.00123089,0.00024527999999999996,-0.00015958000000000001,0.0005334000000000001,5.1550000000000006e-05,-0.12347700000000002,-0.0007102,-0.06026449,7.208e-05,-0.0005041000000000001,7.829999999999999e-05,5.92e-05,0.00023244,-0.03600988000000001,-0.013466250000000003,-0.012939420000000002,-0.00198524,-0.00010968,-0.0011867999999999998,0.00232372,6.733999999999999e-05,0.00409366,0.007011,-0.00055084,-0.0005865000000000001,-9.976e-05,-0.00051944,-0.0018838399999999997,0.0007182299999999999,0.0100607,0.0007377600000000001,-0.00047673999999999997,1.1309999999999998e-05,0.00222456,0.00022489000000000002,-0.00378624,-0.00018360999999999999,-0.00050466,0.004680269999999999,0.0036956999999999997,0.00139265,-0.00308108,-0.00015677999999999997,0.00031937000000000003,0.0008475999999999999,0.0006177600000000001,0.0006789,0.0014859799999999998,0.00166496,-0.0004702200000000001,0.00016320000000000004,0.089792,0.0014720000000000002,0.01318455,5.52e-06,-0.00037812,0.010035539999999999,0.00103896,0.0098842,0.007464340000000002,0.00122715,0.00034506000000000006,0.00592614,0.0064008,0.008770950000000001,0.0005676,0.020167420000000002,-0.00086716,-3.24e-06,-0.00010019000000000001,-4.14e-06,1.7149999999999997e-05,-7.061000000000002e-05,4.4399999999999995e-05,-5.9999999999999995e-05,-0.00024150000000000002,0.0,-2.432e-05,0.011834450000000002,0.0006376500000000001,0.00965952,-0.00014818999999999998,9.009000000000001e-05,-0.00021587999999999997,0.003306800000000001,-0.007119879999999999,0.02787397,0.00018329999999999998,0.0021707299999999996,0.0005063400000000001,0.00019656000000000003,0.0038270400000000003,0.00017884000000000002,0.0013671400000000002,0.00041503,-0.00147108,0.0031716300000000004,0.0001728,0.00027759999999999997,-0.00055941,0.00023125,-0.00529452,-0.00071442,0.0018784,2.7200000000000004e-05,-0.0048504,5.2050000000000005e-05,-0.00011984999999999999,0.0008062200000000001,7.280000000000001e-06,-2.6660000000000002e-05,7.79e-06,0.00013,-0.00299081,-8.19e-06,-0.0027435,8.119999999999998e-06,-6.1e-06,0.00013223999999999997,-0.00037503000000000005,0.00013193,5.7e-06,-0.00022637999999999998,-0.017435669999999997,-0.017435669999999997,-0.00224058,-0.014970879999999999,-0.001177,-0.00041776000000000004,0.00011475,-1.2420000000000001e-05,0.12456719999999999,0.01310062,0.0159802,0.02019989,-0.00421614,0.000367,0.0,-0.0012028499999999999,0.00015015,7.049999999999999e-05,0.0007686,-0.00210224,-2.65e-05,-0.0012292999999999998,-0.0016308000000000002,-0.00079975,0.00051084,-0.00010512,7.38e-06,3.84e-05,0.11151804999999998,0.0012248000000000003,0.0,0.00119427,-1.3320000000000001e-05,0.11055933,0.11055933,0.033499799999999996,-0.0011951800000000001,-0.0022561,0.00109296,-0.0021229,-0.00188356,0.00013192,-0.0008731799999999999,0.00025461,0.00032724999999999996,9.845e-05,0.0018302400000000001,0.00185755,-2.65e-05,0.032294279999999995,0.00883952,0.0027021600000000003,0.0027250000000000004,0.00037049999999999995,0.00251959,-4.3469999999999995e-05,0.02340772,0.011218660000000002,4.826e-05,0.0025920000000000006,0.0025920000000000006,-1.88e-05,-0.023321480000000002,-0.02199456,-0.015103199999999997,-0.005595040000000001,-0.0006318000000000001,8.248999999999999e-05,-0.008256349999999999,-0.00466324,-0.00074995,-0.00023039999999999996,-0.00041006,-0.0007851,-0.00060426,0.00112068,-9.024e-05,-0.00027234,-0.0005672699999999999,-0.0035997200000000003,-0.0035997200000000003,-0.00086697,0.00032891999999999996,-0.00022467999999999997,-0.0011880000000000003,0.00221,0.00221,-0.00049192,0.0021462,0.0005570899999999999,0.00028199999999999997,0.00028199999999999997,0.00027317,9e-06,0.15255006000000002,0.15255006000000002,-0.02975359,0.0,0.0,0.0,0.00013092,-0.0028227399999999994,-0.013105730000000001,0.0006673999999999999,0.0,0.01464203,0.009362,0.007224899999999999,-0.01113684,0.0008300500000000001,-1.81e-05,0.0005191799999999999,-0.00035620000000000004,9.479999999999999e-06,7.35e-05,0.0046839,0.16688256,0.1551312,0.004183199999999999,0.00719489,0.059861120000000004,0.010386040000000001,0.007851740000000001,-0.00100926,0.006358919999999999,0.0006670700000000001,-0.0005964000000000001,-0.00188892,0.00078624,0.0028047799999999998,0.002299,-6.307e-05,-0.0022890299999999996,0.028024689999999998,0.0011705,0.00062073,0.0008624000000000001,0.0018269999999999998,0.00046329999999999993,0.0010173600000000001,0.024973200000000004,0.024973200000000004,0.020843840000000002,0.020843840000000002,-0.004690249999999999,5.4989999999999994e-05,0.024036599999999998,0.00198968,0.00039479999999999995,0.00100912,-0.0027799200000000004,-0.0025027499999999998,-0.011819830000000002,-0.015069780000000001,-0.015069780000000001,9.675e-05,-0.01657292,0.00032562000000000004,0.00014625,-0.00126939,0.0,7.397e-05,-0.00368731,-0.0012147199999999999,0.00046883,0.00109446,-0.0010730000000000002,2.85e-06,0.0071715600000000004,0.0071715600000000004,-0.0077037600000000005,-0.0077037600000000005,0.0,-0.00454653,0.0,-0.0022077900000000003,-0.0010993099999999998,-0.0011156200000000001,0.029451480000000002,0.029451480000000002,0.029451480000000002,0.0,0.011522500000000003,-1.638e-05
202008,0.0009256,0.0,6.77e-05,0.0035881299999999997,-0.00055883,0.0030889,0.00214467,-1.188e-05,-1.67e-05,-0.00217558,0.01090518,0.008084999999999998,0.00330132,-6.851e-05,2.86e-05,0.00027948,-0.00013516,0.00046657,0.00137668,0.0021436000000000003,0.0009828,-0.0007397500000000001,0.00023768999999999998,-1.5550000000000002e-05,0.00013289,1.8000000000000001e-06,-0.00627483,-0.00322245,-0.00029808,0.0,0.0018918000000000001,0.0009240000000000001,-0.00048269000000000003,0.00043792000000000006,0.00073864,-0.00128242,0.0,-0.06542560000000001,-0.01167605,-0.0792688,-0.01764848,0.0,-0.0094622,-0.00135876,-0.007632,2.125e-05,-0.0001542,0.046864569999999994,1.86e-05,0.00075372,0.0023768,-0.009354149999999999,-6.803999999999999e-05,0.0023688499999999996,9e-06,0.0,5.784e-05,0.0018617999999999998,0.00019092000000000002,0.0028249200000000003,0.034896399999999994,0.0008690699999999999,0.00072522,-0.00231577,8.105999999999999e-05,0.00394804,0.00064408,-0.00030688000000000004,0.0007321500000000001,0.00042335999999999996,-4.125e-05,-6.72e-05,-0.00032718,-0.00224981,0.00376464,0.00115808,2.134e-05,0.00015400000000000003,-0.0004482,0.0006759200000000001,-0.21172043999999998,-0.00036783000000000003,-4.726999999999999e-05,-7.26e-05,0.0012196800000000001,0.0,0.0007597799999999999,1.3279999999999998e-05,-0.00018449999999999999,0.0003539200000000001,-6.4199999999999995e-06,0.00014734,-8.799999999999999e-07,0.0002035,5.320000000000001e-06,-6.5999999999999995e-06,0.0010785600000000001,-2.112e-05,0.00020874,0.00024846,9.76e-05,0.00061244,9.9e-05,-0.00011889999999999998,0.00036942,-0.0006199199999999999,0.0007043399999999999,0.00014774,5.58e-06,0.0058038,0.00089473,0.00181487,-0.0005157,-0.00036126,-0.0009826400000000001,-0.00014194,-0.00141109,0.0006079099999999999,0.0,0.00070385,0.0005809,0.0023768,0.0010715,0.00093072,-0.00233124,-0.00011928000000000001,0.0,-0.00958886,-0.004271400000000001,7.095e-05,0.0,-0.026267969999999998,-0.0021263999999999996,0.0002528,0.0,0.0007272,0.00023372999999999997,0.0,0.0,0.0,0.0,0.24,0.15636972,0.16184985,0.0073892,0.01685992,-0.00021544999999999998,-0.0002826,-0.0024814600000000004,7.83e-06,-0.0006446,-0.00012556,0.00026433,0.000128,-0.00170316,-0.029818090000000002,-0.00113851,-0.0225928,3.78e-06,0.00084592,-4.186e-05,-0.00031616,0.00199396,0.02309142,-0.03185172,0.00018277999999999998,0.00617017,-0.00040905,0.0004978399999999999,0.0009453,7.2e-06,-0.01007424,-0.0021854199999999996,-0.00030272000000000003,-0.00117424,-0.00019992,-0.00108186,-0.0027244500000000002,-0.00240672,0.03133089,-0.0005256,-0.0005644799999999999,-3.7800000000000002e-06,0.00810628,0.00011429999999999999,-0.01197352,-0.00031652,0.00047974,0.010689249999999999,0.00485922,0.013276320000000001,0.0004900999999999999,0.0003458,0.0033511999999999995,-0.00125514,0.0008265400000000001,0.00235736,0.0001817,0.00145768,-0.00029585,-0.00032916,0.08391933,0.0007263300000000001,0.01965012,4.531e-05,0.00014256000000000002,0.00908325,0.00025515,0.0044736,0.0061083,0.0037441199999999997,0.00033818000000000005,0.005093339999999999,0.004342690000000001,0.01069742,0.00062198,0.01505497,-9.048e-05,5.399999999999999e-06,0.00017093999999999999,-9.2e-06,0.00010436999999999999,7.93e-05,-2.214e-05,1.21e-06,-0.00019716000000000002,0.0,-3.8249999999999995e-05,0.01265745,-4.9250000000000004e-05,0.006650379999999999,0.0010668000000000001,-8.7e-05,0.00018942,0.00601698,-0.0026928600000000005,0.04971246,0.00036847999999999997,0.0035180600000000004,0.00054312,0.000352,0.00732596,0.00521469,0.005697749999999999,0.00045792000000000006,-0.00137048,-0.0023940000000000003,-0.00028184,0.020137199999999997,0.01816368,0.00123125,-0.00079655,0.0006817199999999999,-0.00200124,-8.245e-05,-0.00147223,-8.65e-05,0.00077922,0.0006432800000000001,0.00022932,-7.611e-05,1.159e-05,0.0003445,-0.01993584,5.166e-05,-0.021480720000000002,-2.38e-06,-3.9869999999999996e-05,2.8319999999999997e-05,0.00012824,-8.063999999999999e-05,3.29e-05,0.0005778000000000001,-0.00657085,-0.00657085,-0.020826960000000002,0.01341366,0.00095865,-0.0013059200000000001,3.724e-05,3.2399999999999995e-05,0.05630472,0.0402236,0.02633202,0.0122192,0.00629235,0.007863839999999999,-7.14e-05,0.0126407,0.00024932,0.000117,0.0037134499999999997,0.0016412,-6.148e-05,0.00051273,0.00056544,0.00124795,-0.00025627999999999995,2.0300000000000002e-05,4.633e-05,-2.8319999999999997e-05,0.01507761,0.0035417699999999996,7.729e-05,0.005629520000000001,-0.0022194299999999997,0.011780100000000002,0.011780100000000002,0.020955200000000004,-0.00628963,-0.0083599,-0.00158928,-0.005080470000000001,-0.0023131199999999997,0.00091653,0.0022190400000000002,-2.488e-05,-0.00013104000000000002,0.00020404999999999997,-0.00019789999999999999,-0.00026964000000000003,7.208e-05,0.025407159999999998,0.00819144,0.0006366900000000001,0.0029460600000000003,0.00033003,0.0029583,5.7959999999999994e-05,0.017219540000000002,0.01120626,0.00020538,0.00205065,0.00205065,-0.00057096,-0.034670219999999995,-0.033536430000000006,-0.00784104,-0.00046799999999999994,-0.00039044000000000004,-0.00023140999999999998,-0.01648569,-0.00153664,-0.0006986999999999999,-8.463e-05,-0.0042835799999999995,-0.00874944,-0.0007312800000000001,-0.00907244,-0.0014885200000000001,-9.803999999999999e-05,-0.0007232,-0.0063431500000000005,-0.0063431500000000005,-0.0007530000000000001,-0.00248885,-0.00022492999999999998,-0.0010057900000000001,0.00496248,0.00496248,-7.636000000000001e-05,0.00389928,0.00114576,0.00012972,0.00012972,9.279999999999999e-05,3.9000000000000006e-05,0.16104636,0.16104636,-0.009589140000000001,0.0,0.0,0.0,-0.0013916800000000002,-0.00296704,-0.00585484,0.0,0.0,0.00899072,-0.007246079999999999,0.007221299999999999,-0.01492335,-0.00040992000000000003,0.0016758600000000002,0.014488319999999999,0.00027160000000000004,0.00011352,5.733e-05,0.00132616,0.16157064,0.15049314000000003,0.007525860000000001,0.00441726,0.068076,-0.0014826000000000002,-0.00375034,-0.00185952,0.00196735,-0.0013829500000000002,-0.0022700999999999997,-0.0024422299999999997,-0.0006190799999999999,0.00013914,0.0028861000000000004,-0.00320484,0.00020152,0.02865648,0.00268525,0.00140675,0.0004842,0.00107032,0.0006892999999999999,0.00022595999999999998,0.025038,0.025038,0.04056861,0.04056861,0.00482904,9.480000000000001e-05,0.022632760000000002,0.0042535,0.00100392,0.00382743,0.0037278,-0.00395661,-0.00106963,0.0006810900000000001,0.0006810900000000001,-1.419e-05,-0.00821496,0.00052548,4.5e-06,0.00061945,0.0051058,7.384000000000001e-05,-0.014681920000000001,-0.00063726,0.00032391,0.00143985,-0.0007447999999999999,-2.6320000000000006e-05,0.01256294,0.01256294,-0.22174341000000003,-0.22174341000000003,-0.009715159999999999,0.00072124,0.0,-0.00111864,-0.00066548,-0.00045400000000000003,0.03875146,0.03875146,0.03875146,0.0,-0.0084408,1.169e-05
202009,0.00221555,7e-06,0.00160769,-0.013256459999999998,0.0020886,0.008809540000000001,0.00106428,-0.00016368,-5.3439999999999997e-05,0.007658200000000001,0.00744875,0.01634472,0.0060263999999999995,0.00117384,5.979999999999999e-05,0.00039467999999999995,0.00026784000000000004,0.00153964,0.0006060900000000001,0.0011721700000000002,0.00155868,-0.00040206,3.834e-05,2.4500000000000003e-06,9.211999999999999e-05,5.440000000000001e-05,0.00423852,0.00147532,-2.4679999999999997e-05,0.0,0.0075552000000000015,0.0009509,-0.0019181200000000002,-0.0006876,0.00525161,0.00375505,0.0,0.0,0.0,0.0,0.0,0.00023697999999999997,-0.00653345,-0.00048856,-0.00470592,-2.686e-05,-0.00015872,0.0,1.4000000000000001e-06,0.00200725,0.0011948000000000002,-0.00061541,8.372e-05,0.001742,7.600000000000001e-06,-2.32e-06,-1.446e-05,0.0011258499999999999,0.00022616000000000002,0.0028126,0.045309390000000005,0.00186228,0.00163548,-0.0011369600000000002,7.740000000000001e-05,0.00849381,0.00120564,5.4e-06,0.0016952000000000002,0.00020787000000000003,-0.00019516,1.645e-05,0.00061632,0.00019698,0.00255594,0.0010335000000000001,-9.7e-06,0.00018174000000000003,0.00229793,0.00147001,0.0,-0.0011404400000000002,-0.00013445999999999998,4.4659999999999996e-05,0.00198331,-2e-07,5.236e-05,8.2e-06,2.007e-05,0.0025325300000000003,0.00035845,8.37e-05,-1.24e-06,0.0010602,-2.0520000000000003e-05,2.9999999999999997e-06,0.00075558,9.240000000000001e-06,0.00077035,-0.00019456,0.00047546999999999997,0.0005818999999999999,0.00011627000000000001,0.00023883000000000004,0.0002968,0.00242962,8.24e-06,-0.00011522999999999999,0.00011284000000000001,0.01090845,-5.520000000000001e-05,0.0019782000000000003,0.0015399,0.0008246,0.0002785,-4.692e-05,0.00155115,0.00248244,0.0,-0.00044286,-0.00133705,0.0011948000000000002,-0.00395937,-8.912e-05,0.00929544,-0.0016946099999999998,0.0,-0.00248066,0.00689577,-0.00104784,-0.00026895,0.0,0.0,-9.66e-06,0.0,0.00033462000000000005,0.0016342200000000002,0.0,0.0,0.0,0.0,0.64,0.45954084,0.41046669999999996,0.10571567999999999,0.1012274,-0.0004924800000000001,0.00269375,0.00483288,1.3770000000000002e-05,0.00046592000000000004,6.715e-05,0.00044339,0.0009881599999999999,0.0006746900000000001,-0.00240464,-0.00057575,-0.0100296,2.1059999999999998e-05,0.00056304,-0.0004913999999999999,0.00012528,-0.0022850699999999997,0.023498600000000005,-0.0180776,0.0048411,0.015827760000000003,-0.00016272,0.0032576000000000003,0.00284832,-0.00010815,0.00124372,7.536e-05,-0.00022015,0.00034048000000000005,-9.879999999999999e-05,1.8900000000000002e-05,0.0006723,0.0004543100000000001,-0.015241740000000002,-0.00040716,-0.00095418,2.3399999999999996e-06,0.0031442,3.496e-05,0.0046001,0.00018204,0.00059546,0.003995670000000001,0.0033222700000000004,-0.01430352,-0.00840622,0.00029120000000000003,-0.00268467,0.0008310800000000001,0.00052441,-0.00127426,-0.0008611000000000001,-0.004350080000000001,0.00063732,-0.00011711000000000001,0.11767128,-0.00010779999999999999,0.02896035,9.719999999999999e-05,0.0006408,0.01909824,-0.00049446,0.01300347,0.011618,0.005943919999999999,0.00040425,0.00468188,0.0011634000000000002,0.010177019999999998,0.00069927,0.01667115,-0.00060966,4.5599999999999995e-06,6.959999999999999e-06,-9.2e-06,-5.05e-05,1.22e-05,-1.791e-05,-3.1900000000000004e-06,-0.00012324000000000002,0.0,-9.525e-05,0.01901376,-0.00082488,0.014904,0.00031598,0.0001683,0.00025066,0.01633092,0.0011730599999999999,0.07241204999999999,0.0009333100000000001,0.00607185,0.00134064,-0.00013334,0.00526812,0.0074233500000000004,-0.00096768,-0.00116587,0.00038219999999999997,-0.00177117,0.0013109700000000003,0.06093204,0.05764122000000001,0.00165996,0.009214459999999999,0.0008942,0.0016918600000000001,0.00012936,0.001582,0.00017595000000000002,-0.00070092,0.0030109799999999995,0.0007045500000000001,4.62e-06,-7.0300000000000005e-06,0.00041656,-0.00238328,-2.5520000000000003e-05,-0.005897459999999999,1.3579999999999999e-05,-4.5e-06,0.00010384,0.000916,0.00017596000000000002,-5.64e-06,0.0002695,0.048808859999999996,0.048808859999999996,0.024350040000000003,0.01936144,-1.696e-05,0.00241736,-0.00017708,6.434999999999999e-05,0.05794089,0.03928314,0.015174540000000002,0.00420376,0.00023318,0.010258640000000003,2.772e-05,0.013535010000000002,-1.5040000000000002e-05,0.00027935000000000004,0.00044063999999999996,0.010515779999999999,-8.84e-05,0.0012084,0.0046637,0.0015015000000000002,2.372e-05,0.00034390999999999995,9.617999999999999e-05,-0.00018192,0.019555200000000002,0.01637748,-1.77e-05,0.01748299,-0.0011083999999999998,0.0030555000000000005,0.0030555000000000005,0.037537,0.01486496,0.0110946,0.00562077,0.00519225,-0.0001868,0.00042924,0.00222364,9.3e-05,-9.32e-06,0.00024681000000000003,0.0016170399999999997,0.0015735799999999998,5.194e-05,0.021028589999999996,0.004167489999999999,0.0013730899999999998,0.00020328,0.00058604,0.0,6.486e-05,0.01693689,0.00581791,5.12e-05,0.0015354899999999998,0.0015354899999999998,-0.00025355000000000006,0.01627778,0.00655732,0.00608536,0.0007862400000000001,-0.00064824,0.00014129,-0.0014526600000000001,0.00031130000000000003,-0.00108135,-6.256000000000001e-05,-0.00094545,-0.0012770000000000001,0.0007685999999999999,0.0019542400000000003,8.772e-05,-0.00033575000000000006,-0.00037252,0.006407520000000001,0.006407520000000001,0.0002691,-0.00045951,0.00035912000000000004,0.00474368,0.00266326,0.00266326,-0.00011714999999999999,0.00293134,-0.00014167999999999999,0.00052452,0.00052452,0.00042688,9.300000000000001e-05,0.13826329999999998,0.13826329999999998,0.01965404,0.0,0.0,0.0,-0.00025962,-0.0011840000000000002,0.01856934,0.0,0.0,0.008975200000000001,0.00030043,0.007226399999999999,-0.02042859,0.0008140800000000001,0.00087072,0.00641802,0.0009044000000000001,9.44e-05,4.4099999999999995e-05,0.0015670200000000001,0.10946643999999998,0.09382035,0.01302132,0.0044805800000000005,-0.08736128000000001,-0.0033266699999999995,-0.00441688,-0.0027611999999999997,-0.0005627000000000001,-3.218e-05,0.0010513800000000002,0.00141778,-0.0008381999999999999,0.0009256000000000001,-0.00055062,-0.00149712,-0.0002196,-0.09155979,0.00443574,0.0008441999999999999,0.00354486,0.00037746,-9.072e-05,0.00030072000000000003,-0.09674049,-0.09674049,0.007939400000000001,0.007939400000000001,-0.0012137200000000002,3.116e-05,0.004234000000000001,-0.0006379800000000001,0.00014755,0.00350766,0.00283905,0.00316014,0.009600929999999999,0.0006794500000000001,0.0006794500000000001,-7.610999999999999e-05,0.00188628,0.0006748800000000001,0.0,-0.00071775,0.00127645,7.358e-05,0.006295460000000001,0.00012119999999999999,0.0005688,0.0013252800000000003,-0.0008037000000000001,2.5380000000000004e-05,0.0027984999999999998,0.0027984999999999998,-0.00553779,-0.00553779,0.0,0.0005541000000000001,0.0,0.0004203,-0.000105,0.0005225799999999999,0.00871335,0.00871335,0.00871335,0.0,0.00741524,1.344e-05
202010,1.92e-05,1.155e-05,0.00120951,0.00308772,-0.00022686,-0.0032064,-0.000109,5.696e-05,8.085e-05,0.0085073,0.0055154,0.012291000000000002,-0.0016665,0.00130698,5.544e-05,0.00026131999999999994,0.00028427000000000004,-0.0015367,0.0007208599999999999,0.0013832,-0.00060988,-0.0007989599999999999,0.00034262999999999996,-1.0100000000000002e-05,-3.822e-05,3e-06,0.01200345,0.00297445,0.00046512,0.0,0.006593649999999999,0.00103984,1.7519999999999998e-05,0.0005086800000000001,0.0013102600000000002,-0.0012109999999999998,0.0,0.0,0.0,0.0,0.0,0.0004176,-0.00184118,0.0,0.0,0.0,-4.0560000000000005e-05,0.0,3.86e-05,-0.000406,5.96e-05,0.00056468,0.00010143000000000001,0.00387944,1.1900000000000001e-05,9.839999999999999e-06,0.000478,0.00085352,0.00012282,-1.168e-05,-0.00563953,0.00153161,0.0011581599999999999,0.0035637299999999998,-4.444000000000001e-05,0.00899001,0.0012855700000000002,0.00038056,0.0017996,4.5539999999999994e-05,9.821000000000001e-05,0.00017672,-0.0006077599999999999,0.0008120000000000001,0.00641323,0.00025213,5.759999999999999e-06,-0.00018070000000000003,0.0008284299999999999,0.0029722499999999996,0.0,-0.00177672,-0.00028960000000000005,4.3209999999999995e-05,0.010445139999999999,1.6e-07,0.00013745999999999997,3.6e-06,1.5470000000000003e-05,0.0001406,0.00014606,0.00045313999999999993,1.7199999999999998e-06,0.0016372800000000003,7.22e-06,8.04e-06,0.00078888,-4.3230000000000005e-05,0.00011044000000000002,-0.00045,0.0004505,0.00025959,0.00030502000000000003,0.00010384,0.0005019600000000001,0.00075856,0.00107289,5.904e-05,3.2319999999999995e-05,0.005254,-0.0005548500000000001,0.00420024,0.00485062,0.00154077,0.00100636,5.0050000000000004e-05,0.00216621,8.295e-05,0.0,-0.0017365199999999999,0.00083646,5.96e-05,0.0067801599999999995,-0.00028756,0.00462996,0.0007932600000000001,0.0,0.00266271,0.00657609,0.00034924999999999995,-0.00272493,0.0,0.0,0.0,0.0,-0.0018215999999999998,0.0063318,-0.007461200000000001,0.0,0.0,0.0,0.86,0.39530838999999995,0.37312545,0.09095648,0.08812255999999999,0.0004526,0.0015592699999999998,-0.0013059200000000001,6.48e-05,0.00027569,7.224e-05,-8.735999999999999e-05,-0.0005439,-0.0013393100000000002,0.05123952,0.00015708,0.025208820000000003,8.298000000000001e-05,0.00123819,0.0007123000000000001,0.000468,0.00209916,0.041603940000000006,-0.016868940000000002,-0.0034344,0.00443632,0.00318435,0.00128289,0.0030969000000000005,4.13e-05,0.00022066,-0.00043102,0.000996,-0.0007238,0.0001755,0.00075442,-0.00147069,0.0009118599999999999,0.024281249999999997,0.00017,0.00033250000000000006,0.0001157,0.009220799999999998,-0.00019228,0.00265677,5.5379999999999995e-05,0.0018713200000000003,-0.00022628999999999998,0.00691975,0.00445284,-0.006365,-8.036e-05,-0.0017760799999999998,0.00034155,-0.0011719900000000001,0.0005605199999999999,0.002328,0.00483128,7.3e-05,0.00011938000000000001,0.11461825,0.00047741999999999994,0.02185667,7.525e-05,0.00031114,0.019075420000000003,0.0007695800000000001,0.013164149999999998,0.013587,0.0040767,0.00030779999999999995,0.005859630000000001,0.00458843,0.007790559999999999,0.00054981,0.01654835,0.00024585,7.1399999999999986e-06,-0.0004481399999999999,-1.7160000000000002e-05,-2.205e-05,0.00025755,3.656e-05,-1.6940000000000004e-05,5.616e-05,0.0,-1.825e-05,0.004725,0.00084216,0.0045804800000000005,-0.00143486,-0.00027400000000000005,1.1900000000000001e-05,0.012868200000000002,-0.0012427999999999999,0.013841520000000003,0.00070794,0.0035008799999999996,0.00046046,0.00017094,-0.0007956,-0.0020443500000000003,0.0012801600000000002,0.00019205,-0.00089991,0.0010768,-0.0005143,0.04941078,0.04623344000000001,0.00203786,0.009207499999999999,0.00010528,-0.00023319999999999998,7.48e-05,0.006548700000000001,0.00083936,0.00032759,0.00229369,4.347e-05,0.00013571000000000001,4.465e-05,0.0001254,-0.00318864,6.3e-06,-0.0032648,1.897e-05,-2.79e-06,0.00011100000000000001,0.00049184,-2.171e-05,-1.5040000000000002e-05,-4.8419999999999994e-05,0.02146932,0.02146932,0.015132689999999997,0.00729582,0.00076622,-0.00106344,0.00017316,3.404e-05,0.05623128,0.04020000000000001,0.019087679999999996,0.007224939999999999,0.00672481,0.005307869999999999,3.8219999999999997e-05,0.01600907,2.325e-05,0.0005092,0.00379407,0.004884749999999999,-2.0400000000000005e-05,0.00023828,0.0014353799999999998,0.001911,-0.00048887,0.0006119,-2.268e-05,-0.0001449,0.015595160000000002,0.014026559999999997,6.496e-05,0.013917930000000002,0.0,0.0013017899999999997,0.0013017899999999997,0.05763204,0.023026160000000004,0.01570305,0.00269082,0.00925548,0.0009640800000000001,0.0024286999999999998,0.0034739999999999997,0.00043189999999999993,-9.260000000000001e-05,0.00018466999999999998,0.0037920000000000002,0.00367102,0.00010547,0.03023521,0.02106776,0.0062791999999999995,0.00030324,0.0006328200000000001,0.00325836,0.00013386,0.00922875,0.00403112,-7.68e-05,0.0042393000000000005,0.0042393000000000005,0.00031464,0.048693480000000004,0.03501886,0.01845184,0.0017406000000000001,-0.00023326000000000003,0.00012993000000000002,0.01035374,-0.00052632,-0.00033274,0.00013377000000000002,0.00099295,0.006328749999999999,0.00221796,0.006088,0.00111231,-0.00027864,0.00103024,0.0089154,0.0089154,0.00194797,-0.0020643700000000003,-8.339e-05,0.00647056,0.0043460999999999994,0.0043460999999999994,6.519999999999999e-06,0.0026774999999999998,0.0016515800000000001,0.00069495,0.00069495,0.0006695999999999999,2.9e-05,0.23517612999999998,0.23517612999999998,0.11915452000000001,0.0,0.0,0.0,-0.0012464199999999998,-0.00201372,0.12239759,0.0,0.0,0.06470595999999999,0.01821094,0.0072020999999999995,0.015991560000000002,0.00072504,0.00077873,0.002768,0.00016464,0.0013724,-5.145e-05,0.00318053,0.052001040000000005,0.041417100000000005,0.01143708,-0.0008122399999999999,0.037738400000000005,-0.012842549999999998,-0.01281094,0.00201579,-0.00413216,-0.00156604,-0.00250905,-5.196e-05,-0.0006900000000000001,-0.0015002000000000001,-0.00087986,-0.0029683199999999996,-0.00032706,0.0058572,0.0055896,0.002128,0.00327814,0.0005003999999999999,0.00085576,-0.00018695000000000002,0.0,0.0,0.043861649999999995,0.043861649999999995,0.0036737199999999992,-9.839999999999999e-06,0.028076300000000005,0.00416024,0.0006774,0.00123574,-0.001059,0.00063603,0.02016261,0.01553328,0.01553328,0.00010922,0.0037524,-0.00022607,0.0,0.00128384,0.0012693799999999999,7.332e-05,0.013197200000000001,0.0006842500000000001,0.00027047999999999997,0.00260838,0.00316194,2.7899999999999997e-05,-0.0086645,-0.0086645,-0.00244412,-0.00244412,0.0,-0.00099234,0.00042210000000000007,0.00023732000000000004,0.00044144000000000003,-0.000198,0.01214115,0.01214115,0.01214115,0.0,0.01337472,2.548e-05
202011,0.00122301,4.900000000000001e-07,-0.0016579799999999999,0.012379250000000001,0.00061464,0.000468,0.0014256000000000002,9.6e-06,0.00034484999999999995,0.01852411,0.012062009999999998,0.0036778,0.0031936,0.0009828,1.5120000000000001e-05,0.00060048,0.0006103999999999999,0.0013062,0.00019596,0.00039712,0.0020207199999999997,-0.00072534,0.000429,2.715e-05,-2.4959999999999998e-05,7.4e-06,-0.00412742,0.00112056,-0.00011016,0.0,0.023427500000000004,0.00027068000000000003,0.00076692,0.0004695,0.00015984000000000001,0.0008545,0.0,0.0,0.0,0.0,0.0,-0.00124392,0.000828,0.0,0.0,4.8e-06,0.0007014,0.0,-4.1400000000000003e-05,0.00010313999999999999,-0.0016843499999999996,0.00119718,7.52e-05,0.0053703299999999995,2.7700000000000002e-05,8.4e-06,0.0009655600000000001,0.00047174,0.0009989999999999999,0.0018676,-0.02713193,0.0005658200000000001,0.00166786,0.00175177,-4.9449999999999996e-05,0.01048134,0.00147084,-0.00032817999999999996,0.004592,0.0008132400000000001,-4.186e-05,2.4e-06,0.00100198,-0.0002792,0.00614592,0.0003295,-5.699999999999999e-05,0.00039904,0.0025399199999999998,-0.00051467,0.0,7.972e-05,0.00034008000000000004,9.337999999999999e-05,0.00288055,-1.016e-05,0.00030208,6.44e-06,0.00025288,0.00017205,-0.00010559999999999999,8.400000000000001e-06,9.24e-06,0.00356328,1.8500000000000003e-06,7.86e-06,0.00053766,0.00019499999999999997,-0.00027445000000000003,0.00013478,-0.00033108,0.0008872500000000001,0.00040239,0.00012449,0.00029859,-0.0006868,0.00026335999999999997,0.00014507,-4.896e-05,-0.0039995199999999995,0.00049802,0.0082431,0.0005593600000000001,0.0001354,0.00020232,-0.000144,-0.00017298000000000001,0.01266543,0.0,0.00031392000000000003,-0.00353576,-0.0016843499999999996,-0.007929,0.0011158799999999999,0.006893819999999999,0.0015773400000000004,-0.00038614,-0.00192511,0.011126699999999998,0.0018057000000000001,-0.00595623,0.0,0.0,0.0,0.0,-0.00140855,0.0,0.00832416,0.0,0.0,0.0,0.89,0.5257419,0.4916412,0.049260559999999995,0.046547359999999996,3.75e-05,0.0014476,0.0036888000000000008,4.032e-05,0.0016438799999999997,5.7959999999999994e-05,-0.00020805999999999998,0.0003563,0.00117096,0.10898218,0.00588098,0.050997999999999995,1.463e-05,0.0006432,-0.00170443,-0.00041004,0.00235972,0.048320550000000004,-0.00086136,0.0037750400000000003,0.00859584,0.0007368000000000001,0.0044078699999999995,0.001414,4.676e-05,0.00931788,0.00450475,3.404e-05,0.0008249,0.00011988000000000002,0.0034524000000000004,-0.000232,0.00061335,0.0209792,0.00041820000000000003,-7.08e-05,9.464e-05,0.0032509000000000006,0.0006182000000000001,0.00628725,0.00110487,0.00086366,-0.00936488,0.0101591,0.00535876,-0.00592586,-2.6729999999999996e-05,-0.0017097,-0.00082832,0.00102492,0.00069324,0.00455182,0.00420394,3.7e-05,0.00022367999999999997,0.18228287999999998,0.0005326100000000001,0.034767719999999995,0.00011125000000000001,0.00044522999999999996,0.033652800000000004,0.0018301499999999998,0.018971,0.01641413,0.0134801,0.00048389,0.01094344,0.0037392199999999997,0.01396386,0.0007372,0.02217348,0.0030372900000000006,7.1399999999999986e-06,0.00118575,6.820000000000001e-06,0.00010094,-0.00032421,-7.83e-06,-3.4320000000000003e-05,0.00016068,0.0,-2.4480000000000003e-05,0.01536948,0.00320408,0.008022450000000002,0.00061377,-5.917e-05,0.00027625,0.035823,0.00523254,-0.01832022,-0.00036636,0.00312466,0.00103878,0.00015904,0.02254824,0.0011661000000000002,0.018752559999999998,0.0010541,0.0020694399999999996,-0.0001614,-0.0003375,0.03056576,0.02852388,0.00036520000000000004,0.01725361,0.0007966599999999999,0.004590330000000001,7.99e-05,0.006083280000000001,2.088e-05,0.00066025,0.00296626,0.00025004000000000004,-4.988e-05,-1.9e-05,0.00061008,-0.0009705800000000001,-5.6909999999999996e-05,-0.0012138,-1.224e-05,-3.96e-06,-1.62e-05,-0.00020459999999999999,0.00020584,8.277e-05,0.00019721000000000002,0.03382665,0.03382665,0.025723599999999996,0.0015563699999999998,0.00104125,0.0038809400000000003,8.474999999999999e-05,2.5300000000000002e-05,0.06838744000000001,0.0500245,0.03478332,0.01662056,0.012223920000000001,0.00582368,-5.1e-06,0.014981669999999999,0.000529,0.0001638,-0.0004932399999999999,0.0005999200000000001,2.4e-05,0.0004102400000000001,0.00056573,-0.0015470000000000002,9.843e-05,0.0010495799999999998,8.4e-05,0.00013288000000000002,0.017720640000000003,0.01714982,-8.699999999999998e-06,0.01507548,0.0020033200000000003,0.00043038999999999995,0.00043038999999999995,0.03260862,0.026541840000000004,0.01509452,0.0050811300000000005,0.009132109999999999,0.0006467999999999999,0.00057448,0.00852786,0.0011704,0.0012471200000000002,0.00031781,0.00297404,0.0029518400000000003,2.214e-05,-0.0024680600000000002,0.0064692,0.00030366,-0.00097851,-0.00022236000000000003,0.00430274,0.0001575,-0.00881586,-0.004668299999999999,-0.00010457999999999999,0.0083487,0.0083487,-0.00036855000000000004,0.0030781800000000002,0.0023813600000000003,-0.0034900800000000004,-5.7860000000000005e-05,3.99e-05,5.976e-05,0.0039285,0.0029414399999999996,-0.00042578999999999995,-0.00016835000000000003,0.0026809,-0.0018295199999999998,0.00057772,0.0018285,-0.0001098,3.542e-05,-0.00013296,-0.0021699899999999997,-0.0021699899999999997,-0.0009113400000000001,-5.2759999999999996e-05,-2.9259999999999994e-05,-0.00065985,0.00213024,0.00213024,0.00027053999999999994,0.0019441799999999998,-9.766000000000001e-05,0.00081648,0.00081648,0.0007534800000000001,6.1e-05,0.26370043000000004,0.26370043000000004,0.020905499999999997,-0.00201705,0.0,0.0,-0.00204,-0.0014968800000000001,0.01372042,0.0,8.292e-05,0.10345320000000001,0.03126375,0.0071622,0.02427554,0.00224436,0.00205656,0.007043389999999999,-0.00069462,0.00045408,-1.45e-06,-0.0001794,0.13948503999999998,0.07989424,0.055823040000000004,0.0028605400000000004,-0.01742091,-0.006526079999999999,-0.004995149999999999,-0.00081095,0.002198,-0.00106692,-0.0005138100000000001,-0.00075548,2.722e-05,-0.0019547799999999997,-0.0033600000000000006,0.0020143200000000004,0.00170905,0.0034884599999999997,0.0029,0.00072449,0.00198357,0.00031035000000000004,0.00020250000000000002,-0.00025935000000000004,0.0,0.0,-0.013467400000000001,-0.013467400000000001,-0.0032216700000000003,-0.00010240000000000001,-0.0204079,0.00375575,-0.00051796,0.0030310099999999998,0.0031558999999999997,-0.012722400000000002,0.00105415,-0.00536928,-0.00536928,-4.064e-05,0.00248344,0.0002412,0.0,0.00044555999999999996,-0.00107946,7.280000000000001e-05,0.007553659999999999,0.00161805,0.00022755,0.0014392,-0.00290766,-6.256000000000001e-05,-0.00060027,-0.00060027,-0.00121116,-0.00121116,0.0,-0.00245565,0.00021873,0.0006237,6.448e-05,0.0005696,0.016659919999999998,0.016659919999999998,0.016659919999999998,0.0,0.00828947,8.259999999999999e-06
202012,0.0018602999999999998,2.282e-05,0.00086515,0.00046788,0.00417835,0.0018218200000000003,0.0015826399999999997,-8.32e-06,0.00016766,0.0102795,0.01468214,-0.00015513000000000001,-0.00129454,0.00146118,0.00012963999999999999,0.0006062999999999999,0.0007015200000000001,0.0010217199999999998,-5.500000000000001e-06,-0.0001911,0.0026173800000000003,-0.00058743,0.00011971999999999999,-1.1e-06,5.985e-05,0.0,0.007511400000000001,-5.778e-05,0.00043631999999999997,0.0,0.023309519999999997,0.0018258,0.00249368,0.00027114999999999995,0.00272126,0.00458595,0.0,0.01246308,0.0044851100000000005,0.0032336999999999995,-0.00213521,-0.00052164,0.00566766,0.00021392,0.0,-1.072e-05,0.0,0.0,2.0330000000000004e-05,0.0016145399999999998,-0.0008739,0.00422136,5.92e-05,0.0032004000000000004,0.0,-1.0880000000000001e-05,0.00082764,0.00042687000000000004,7.623000000000001e-05,0.00011700000000000001,0.01174203,0.00025194000000000003,0.0025542000000000004,0.00260574,9.072e-05,0.000198,0.00051183,0.00020328000000000002,0.00011697000000000001,0.000606,4.452000000000001e-05,-2.5439999999999997e-05,0.0008534500000000001,0.0007595500000000001,0.00600576,0.00023579999999999999,0.00015040000000000002,0.0004788,0.0006699000000000001,0.00066606,0.0247654,0.005453759999999999,0.0001106,-3.8100000000000005e-05,0.00206822,7.2e-07,0.0,1.0279999999999998e-05,0.00035478,0.00093795,0.00029052,0.00020849999999999997,2.92e-06,0.0024905000000000005,-1.1470000000000002e-05,8.339999999999998e-06,0.00068904,-0.00012838000000000001,-0.00024059,-0.00010804,6.460000000000001e-05,-0.00024527999999999996,0.0003069,4.14e-05,0.000486,0.0009492000000000002,-0.00037674,-2.282e-05,3.3480000000000005e-05,0.0042699999999999995,0.0004905599999999999,0.00130746,0.00196394,0.00047782999999999994,-0.00030186000000000004,8.976000000000001e-05,0.0015232000000000002,0.0232056,0.0,-0.0007402400000000001,-0.0011810500000000001,-0.0008739,0.00218379,0.00104025,0.04676583,-0.0018333,-2.205e-05,0.00380212,0.028781369999999997,0.00043183,0.0045977399999999995,0.0025133,0.00157413,-0.00024806,-0.00022967999999999998,-0.00153117,0.0,0.0,0.0,0.0,0.01439305,1.35,0.3660438,0.32056520000000005,0.03751511999999999,0.029975039999999998,-0.00015347,0.00219772,0.00663552,-7e-06,0.0008958999999999999,1.0079999999999998e-05,5.6999999999999996e-05,0.0005120700000000001,0.0007904,-0.023294389999999998,0.0003087,0.0161109,-7.657000000000001e-05,-0.000528,0.00073219,-0.00047640000000000003,-0.00202995,-0.04137604,-0.00062975,0.0046063499999999995,0.012685660000000001,0.0036708,0.0042159,0.0012168999999999997,0.00012137999999999999,0.0061537,0.0023736700000000005,-6.716e-05,2.432e-05,2.688e-05,0.0013147999999999999,0.0020935,0.0003922,0.06500507,9.515000000000001e-05,0.0010745000000000002,0.00015645,0.0163542,0.00039543,0.02346,0.000812,-0.00011410000000000001,-0.007410399999999999,0.0163664,0.00866023,-0.005058539999999999,0.0007952,0.0022781399999999997,-0.0006715000000000001,0.00018160000000000002,0.0017655,0.0008309999999999999,0.00524365,-0.00041184000000000007,0.000244,0.10536298,-0.00068544,-0.00135712,0.0001014,0.000777,0.02128269,0.00149292,0.01117428,0.02093154,0.00764313,0.00037323,0.006311969999999999,0.006691800000000001,0.0109186,0.0015438900000000002,0.01044912,0.0013826,4.979999999999999e-06,-6.345e-05,3.3e-06,5.194e-05,0.00019305,-7.92e-06,-8.800000000000002e-07,-0.00024332000000000002,0.0,-2.7690000000000004e-05,0.01804176,0.00315138,0.0120155,0.0021650000000000003,0.00011874999999999999,-3.956e-05,0.029143660000000002,0.00427631,0.01867614,0.0006437699999999999,0.00486234,0.00071154,-5.936e-05,0.007133399999999999,0.004457,0.00193488,4.9919999999999996e-05,0.0010497999999999998,-0.00109224,0.0008316,0.020888999999999998,0.01667658,0.00164176,0.00840739,-0.00101634,0.005668650000000001,-0.0001343,0.00148,0.00078542,0.0008548500000000001,0.0041097,0.0007484400000000001,1.68e-06,7.847e-05,0.00036852,0.0023247000000000003,-5.64e-05,-0.00088692,8.119999999999998e-06,2.268e-05,5.94e-05,0.00015606000000000002,0.00027722,4.9290000000000004e-05,0.0009911,0.0455532,0.0455532,0.02714394,0.01526795,-0.00070848,0.0026379000000000003,0.00017925,2.43e-05,0.44559647999999996,0.024913249999999998,0.011016740000000002,0.011655999999999998,-0.00252791,0.0018095000000000001,0.0,0.0051395,3.298e-05,3.768e-05,0.0021314399999999996,0.00899998,0.00012250000000000002,0.00041535000000000004,0.0037416600000000004,0.0014553499999999998,0.00061525,0.00111136,-9.114e-05,0.00018315,0.42071951999999996,0.0223182,3.074e-05,0.022003429999999997,0.00029531999999999996,0.39851911999999995,0.39851911999999995,0.06670928,0.03390948,0.029956280000000002,0.0080208,0.0152656,0.00545886,0.0009820800000000002,0.00043739999999999995,-0.00038564,0.0003688000000000001,4.48e-05,0.0035541600000000007,0.00349766,5.3460000000000007e-05,0.030185039999999996,0.008969,0.006024600000000001,4.9540000000000003e-05,0.000188,0.00047763,0.00013064,0.0213696,0.01669104,0.00035588000000000004,0.00246272,0.00246272,0.00063616,0.025736389999999998,0.017717399999999998,0.010449,0.0009747800000000002,-3.7619999999999996e-05,1.2240000000000001e-05,0.00338546,-0.00045989999999999996,-0.0002904,-5.161999999999999e-05,0.0036994399999999996,-0.001255,0.0012497799999999998,0.00381717,0.0014407600000000001,0.00014168,0.0009754399999999999,0.006102,0.006102,-7.36e-05,0.00146384,-0.00018936,0.00291651,0.00142144,0.00142144,0.00032925999999999995,0.00027882,0.00080422,0.00035973,0.00035973,0.00025434000000000003,0.00010593000000000001,0.27081000000000005,0.27081000000000005,0.14847870000000002,-0.0013312999999999999,0.0,0.0,-0.00016768000000000002,0.004347279999999999,0.122298,0.0,0.0,0.03226800999999999,0.00507025,0.0071208,-0.007807280000000001,0.00208477,-0.0010842,-0.00803418,-0.00010687999999999999,0.00191964,0.00010512,0.00171796,0.09054396,0.07558782,0.008632800000000001,0.0038147200000000006,0.0530628,0.0021522,0.00296613,-0.00189904,0.0051946,-0.0002163,0.00210672,-0.00083006,0.00122759,0.00147444,-0.0021462,0.0014567999999999998,-0.002034,0.0109554,0.008068200000000001,0.00398304,0.0038923599999999997,0.00289285,0.00090477,0.0015414,0.0,0.0,0.03951928,0.03951928,0.00977953,5.343e-05,0.00908802,0.00018092,0.00098879,0.00429572,0.0022071,0.00830001,0.0679172,0.02126912,0.02126912,8.568e-05,0.0009237299999999999,0.000372,0.0,0.00134849,0.014435010000000002,7.227999999999999e-05,0.0466466,0.00011382,0.00016926,0.0027581100000000002,0.0029869999999999996,0.00018899999999999999,0.0,0.0,0.02880336,0.02880336,0.00291676,-0.00231555,0.0,0.0007314000000000001,0.0001968,0.00054168,0.02227212,0.02227212,0.02227212,0.0,0.00807422,-1.68e-06
202101,0.00012493,0.0,0.0004887699999999999,-0.0092448,0.0008293799999999999,0.00135269,0.0001519,-2.016e-05,0.0003403,-0.00026502000000000003,0.009440200000000001,0.008415,0.00602454,0.00016964999999999998,2.94e-05,0.00019312000000000002,-0.00022374,0.0011894399999999997,0.00033332999999999995,-7.476000000000002e-05,0.0008051,-0.00019311000000000003,0.0002175,-5.600000000000001e-06,9.588000000000001e-05,3.3440000000000005e-05,0.00211394,0.001007,0.00023438999999999998,0.0,0.012392819999999999,0.00067233,0.0008399999999999999,0.00036114000000000003,0.0029500800000000003,0.0011889499999999998,0.0,0.0,0.0,0.0,0.0,0.0017929200000000001,0.0016326000000000001,0.0,0.0,4.32e-05,0.0005069400000000001,0.0,3.686e-05,-0.00030699000000000004,0.00220682,0.001905,0.00019276000000000002,-0.0009734,1.16e-05,-3.3599999999999996e-06,0.00036936,-0.00010511,-0.00026068,0.00199988,-0.010119600000000001,0.0013468800000000002,0.00197348,0.0028469999999999997,-4.578e-05,0.00461916,0.0003587,0.00015458,0.002607,5.05e-06,-1.256e-05,2.5380000000000004e-05,0.00140614,-0.0009864000000000001,0.0067724199999999995,-0.00033695999999999997,7.106000000000001e-05,0.00040619999999999995,0.0002652,0.0027110999999999997,0.0,0.00106758,6.28e-06,-1.914e-05,-0.00104434,7.16e-06,0.0005289599999999999,2.4e-06,9.416999999999999e-05,0.0005376,8.937999999999999e-05,-0.00016836,1.26e-05,0.00150177,2.16e-06,5.58e-06,0.0011715200000000001,0.00015999999999999999,0.00073746,0.00026026,0.00014868,-0.0005834799999999999,6.24e-06,0.000144,-0.00011381999999999999,-0.00036982,-0.00039396,0.0001296,2.387e-05,-0.00982376,0.00046759999999999993,0.00055132,0.00076296,5.3439999999999997e-05,-0.0002745,0.00011880000000000003,-0.00145761,-0.023700960000000004,0.0,0.0007273199999999999,0.00026334000000000004,0.00220682,-0.00010282,0.00038185,0.01785154,0.00011415999999999999,0.0,-0.00045972000000000005,0.00938184,0.0004692000000000001,-5.143e-05,0.0,0.0,0.0,0.00400256,-0.00041139999999999997,0.0,0.0,0.0,0.0,0.0,0.25,0.21538217999999998,0.1614698,0.0067968,0.0019188,0.00020009999999999998,0.00220675,0.0029510400000000003,-4.844e-05,0.00133362,0.00011619999999999999,-8.514e-05,0.0005757,0.00040261999999999996,0.06286845,0.0036573599999999997,0.025343920000000002,8.388e-05,0.00108958,0.0013776,0.00027625,-0.00169021,0.01283625,0.019742339999999997,0.00016616999999999996,0.00585353,0.00247328,0.00261488,-0.00091585,-1.725e-05,0.00656987,0.00372276,0.0003573,0.00056776,0.00023128,-0.0008372,0.0015539,0.0009805,0.027161910000000004,-0.00110424,0.00228018,2.431e-05,-0.0006990500000000001,0.00025583999999999996,0.015575719999999998,-0.0005301,-0.00024752,0.0014715,0.007174850000000001,-0.00668244,0.006820800000000001,-0.00069339,0.00053461,0.00229907,0.00226452,0.0006708,-0.00081144,-0.00038258,-0.00046624000000000004,-0.0005604900000000001,-0.0024056,-0.00031174999999999996,-0.00237633,4.185000000000001e-05,0.00016642,0.00111918,0.00012784,0.00059022,-0.00141804,-0.00176596,-4.45e-06,-0.00065169,0.00039168000000000004,0.00052308,8.944000000000001e-05,0.00032048,0.00170324,6.959999999999999e-06,0.00021483,1.953e-05,4.1649999999999996e-05,0.00025959999999999997,3.144e-05,5.2900000000000005e-05,0.00024983,0.0,1.7500000000000002e-05,0.00699122,0.00024216000000000003,0.00540078,-0.00042744999999999995,0.00014155,0.0,0.008497349999999999,-0.0007193999999999999,0.0026353499999999994,0.000147,0.0013409500000000003,0.0005117,-0.00013969999999999998,0.01398279,0.00102143,0.007335160000000001,0.00083844,0.0037113300000000005,0.0012899699999999999,-0.00017152,-0.00086513,-0.0037378800000000003,0.0008978,0.018876,0.0019507500000000002,0.0009359999999999999,9.429999999999999e-05,0.00487203,0.00084458,9.716000000000001e-05,0.0005947,1.552e-05,8.528000000000001e-05,6.65e-06,0.00027803999999999996,-0.00043955999999999997,9.880000000000002e-05,-0.00106299,1.855e-05,-2.025e-05,3.658e-05,0.00044946000000000005,0.00013693999999999997,5.0600000000000003e-05,0.00019721000000000002,0.0535353,0.0535353,0.0189618,0.0312564,0.00067459,0.00189735,6.764000000000001e-05,4.905e-05,-0.16805955000000003,0.053241840000000006,0.04199742000000001,0.020474300000000004,0.017903770000000003,0.00339511,1.1200000000000001e-05,0.00857408,0.00022752,0.0002697,0.00201845,0.0032678800000000004,8.05e-05,0.0008445500000000001,-0.00070702,0.00324558,-0.00040682999999999995,0.0006365400000000001,3.813e-05,-7.727999999999999e-05,-0.22159372,0.035983390000000004,0.00020406000000000002,0.03548237,0.00027962,-0.2576952,-0.2576952,0.03272558,0.019471029999999997,0.015415680000000003,0.006211840000000001,0.00751752,0.00171672,-0.00015371999999999999,0.0014397000000000001,-8.54e-05,-0.0007121400000000001,-0.00020412000000000002,0.00256032,0.0025309800000000004,3.3390000000000004e-05,0.011734380000000003,0.014120460000000001,0.009548079999999999,0.005474560000000001,0.00010348,0.00010499999999999999,-8.307e-05,-0.00231579,0.007435240000000001,2.394e-05,0.0014224399999999999,0.0014224399999999999,0.00035022000000000005,-0.00302995,-0.0020514200000000004,0.0024986399999999995,-0.00017027999999999998,-9.225e-05,-0.00010224,-0.00412096,-0.0019932,-2.35e-06,1.131e-05,-0.00101628,-0.00034587,-0.0007617599999999999,-0.0004211200000000001,-0.00010206000000000002,-0.00019173,-0.001287,-0.0044832000000000006,-0.0044832000000000006,0.0009866800000000002,-0.00217896,5.16e-05,-0.0022047300000000002,0.0029767500000000002,0.0029767500000000002,-8.692e-05,0.0038097,-0.0007598999999999999,0.00035154,0.00035154,0.00014508,0.00020592000000000003,0.08165272999999999,0.08165272999999999,-0.1367984,0.00052468,0.0,0.0,-0.0019434499999999998,-0.0019345999999999999,-0.10983423,0.0,-2.704e-05,0.0946989,0.03862404,0.0018790400000000002,0.02149155,-1.2820000000000003e-05,0.00249993,0.0026862400000000003,6.59e-06,0.00032266,0.00033176,0.00738486,0.12387654,0.10668588000000001,0.01132631,0.0048022,0.04205408,0.0077902,0.00553248,-4.4779999999999995e-05,-0.0018516399999999999,-0.00021294000000000006,0.00084465,-0.00013304000000000001,0.0012355600000000001,0.00070976,0.00299416,0.00066033,0.00033364,0.03249855,0.00755832,0.0047274199999999995,0.00222642,-0.00103717,2.22e-05,-0.0014548,0.026044920000000003,0.026044920000000003,0.0019497000000000002,0.0019497000000000002,0.00461908,-6.552e-05,-0.0010395000000000003,0.006158939999999999,0.0001106,0.00327654,-0.0019492800000000003,-0.0035208000000000006,0.04047693,0.022373700000000003,0.022373700000000003,0.000165,0.002128,0.00076288,0.0016813,0.00082215,0.01400591,3.3e-05,0.01208161,0.00032963999999999997,0.0001258,-0.0009423,0.00152588,0.00028119,0.00607506,0.00607506,0.00773682,0.00773682,0.0,0.005396820000000001,0.0,0.00060236,0.00060875,0.0,0.00113128,0.00113128,0.00113128,0.0,0.0012507599999999998,-1.4629999999999999e-05
202102,-0.0002821,4.655e-05,0.00058168,0.012374999999999999,0.000302,-0.00135926,-0.00013007999999999997,7.626e-05,6.0839999999999993e-05,0.0032079,0.00049672,0.006618880000000001,0.0006923000000000001,0.0007046999999999999,3.968e-05,0.00013394999999999998,-0.00026656,-0.00058656,-1.3700000000000001e-05,7.979999999999998e-06,0.00073428,6.418e-05,-7.203e-05,-7.950000000000002e-06,6.46e-05,-6.6e-05,0.0016713000000000001,9.525000000000001e-05,0.00107758,0.0,0.01338705,-0.00077625,0.00041882999999999997,-0.00038007000000000004,-0.0012217600000000001,0.007480000000000001,0.0,0.07249128,0.01671865,0.0166568,0.00625548,0.0,0.00611925,-0.0005654999999999999,0.00222908,4.096e-05,0.0007865700000000001,0.0,4.3400000000000005e-05,-0.0006452399999999999,-0.0038029200000000004,-0.0023028,-7.791e-05,0.0027827999999999998,-8.8e-06,1.608e-05,0.00050752,0.00040040000000000003,0.00036005,1.173e-05,-0.0243408,0.00392084,0.0025545000000000003,0.0014305799999999999,-5.46e-05,0.01058184,4.24e-05,0.0001315,0.00061827,0.00022132,-4.368e-05,8.507000000000001e-05,0.0006234200000000001,-0.00074635,0.00285768,-0.00024491,7.480000000000001e-06,0.00077235,0.00048554000000000007,0.0006224000000000001,0.1373064,0.0036376800000000003,-8.007e-05,-3.7699999999999995e-05,-0.00062586,3.4799999999999997e-06,0.0,6.639999999999999e-06,0.00042704999999999994,-7.448e-05,2.42e-05,0.0001233,-8.15e-06,-0.0004113,9e-06,-1.4399999999999998e-06,-0.00039442000000000004,8.514e-05,-0.0003172,0.00035424,1.978e-05,-2.4800000000000003e-05,-0.0001085,-6.649000000000001e-05,-0.0003834,-0.00147224,0.00025536,0.00019642000000000002,8.99e-06,0.0022028499999999997,0.00014091,0.00037411,0.0,-0.00017342,-0.00021216,5.161999999999999e-05,-0.00029968,-0.00012047000000000002,0.0,0.0018010399999999998,-0.000731,-0.0038029200000000004,0.0055377000000000004,0.00125465,0.0072329199999999995,0.0046992,0.0,-0.00132314,-0.004612499999999999,0.00208531,-0.0045144,0.019377540000000002,0.00046200000000000006,0.00027846,0.00182688,0.00010207999999999998,0.0,0.0,0.0,0.0,0.0,0.86,0.05745033,0.04299708000000001,-0.01375398,-0.0121524,0.00018375,0.0005382300000000001,0.0032402999999999993,1.161e-05,0.00150176,6.804e-05,-5.39e-05,0.0009587999999999998,0.0003152,-0.03534174,0.0029050699999999996,-0.0379995,5.040000000000001e-06,-0.0009811199999999998,0.0022403699999999998,0.000203,-0.00030535,-0.023478300000000004,0.02053203,0.0015471,0.0015885600000000001,0.0015955499999999998,0.00128934,0.0002792,1.185e-05,0.010298429999999999,0.00593123,-0.00014043,0.0009126,7.65e-05,0.00011025000000000001,0.00180624,0.00159742,0.0019792300000000002,-0.0011936000000000002,0.0006478,-0.00028152,-0.0036162000000000004,-0.00038665,0.00231,0.0001768,0.00020734999999999997,0.0017987600000000002,-0.01072164,0.00018606,0.009047379999999999,-5.280000000000001e-05,0.0006542399999999998,9.288e-05,9.176e-05,0.0005775000000000001,0.0017586999999999998,2.054e-05,0.00088021,-0.00018859999999999998,0.051551839999999995,-0.00020467,-0.008476749999999998,5.4000000000000005e-05,0.00019008000000000002,0.01002808,5.187e-05,0.009565919999999999,0.011019649999999999,0.00448308,0.00017711,0.0036708099999999996,0.0032558400000000003,0.00644688,0.00018920000000000002,0.009035479999999999,0.0006449599999999999,-5.279999999999999e-06,-0.00030057000000000006,2.31e-06,4.557e-05,-0.00016038,-9e-06,1.562e-05,-6.06e-06,0.0,0.0,0.01241194,0.0028756500000000004,0.00841824,0.0005355,-0.00012768,-8.840000000000001e-05,0.01063734,0.00689265,-0.011232,0.0006752,0.00072485,0.00093324,0.000567,0.008695500000000002,0.001332,0.00264825,0.00038088,0.0018572399999999998,0.00250783,-1.0639999999999998e-05,-0.00729648,-0.01075725,0.00090718,0.0031760000000000004,-0.00123936,-0.0006729800000000001,3.154e-05,0.00164,0.00046767,0.00068607,0.00082998,6.984e-05,-5.46e-06,-2.2990000000000002e-05,0.0001332,0.0048896600000000005,-1.4909999999999998e-05,0.0051369499999999995,-3.7599999999999996e-06,1.539e-05,7.67e-05,0.00043872,-0.00017303999999999998,-8.464e-05,0.00019188,0.01598886,0.01598886,0.015356459999999999,0.0019085,0.0002465,-0.0008204,-5.32e-05,2.43e-05,0.061998,0.055376720000000004,0.047578169999999996,0.024643080000000005,0.00501358,0.01821414,0.0,0.01304456,0.00027342,-0.00016328,0.0017469200000000001,-0.00580398,-4.182e-05,-0.0004943399999999999,-0.00016786000000000004,-0.0036675,0.00047144,8.164e-05,-3.1570000000000004e-05,-5.9340000000000004e-05,0.00729417,0.03769510000000001,0.00021358,0.03411802,0.0034062800000000002,-0.030764299999999998,-0.030764299999999998,0.025265460000000003,0.017206199999999998,0.011702730000000001,0.0036015000000000005,0.006419940000000001,0.00172776,-0.00014480000000000002,0.0019204000000000003,-0.00014592,0.00061404,7.991000000000001e-05,0.0036851600000000003,0.0035675999999999998,0.0001161,0.007386539999999999,0.0067007,0.004620320000000001,0.0033904800000000004,0.00010547000000000002,-0.00101268,0.00022400000000000002,0.00068256,-0.00139608,-0.0001386,0.00053024,0.00053024,3.608e-05,0.0163951,0.00116848,0.004684949999999999,0.00257439,0.00038964,4.2000000000000004e-05,-0.0034573500000000005,-0.00197472,0.0006204,-0.00020619,-0.0028901800000000004,0.0019696,-0.00074392,-0.00017990999999999998,0.00026136,0.00022574999999999996,-0.00043952,0.0086853,0.0086853,0.00075764,0.0002052,0.00046439999999999996,0.006435,0.00619662,0.00619662,0.00020374999999999997,0.00524275,0.00074649,0.00030726,0.00030726,0.00029016,2.0200000000000003e-05,0.4547961599999999,0.4547961599999999,-0.011186820000000002,0.00432003,0.0,0.00020776000000000003,-0.0006980200000000002,-0.0017409600000000002,-0.013379039999999998,0.0,8.088e-05,0.04542184999999999,0.01638505,0.0018760000000000003,-0.01174992,0.0010359900000000003,0.00109373,0.01995749,-0.00036792,0.00010439,1.022e-05,0.0015984,0.42007541000000004,0.35626077,0.053550640000000004,0.0102114,0.08153868000000002,0.00495572,0.00877986,-0.0035281400000000004,0.008121,0.00046964999999999995,-0.0006771599999999999,0.0013761399999999999,0.0006083999999999999,0.0004884,0.0013059,0.0011990000000000002,-0.00100035,0.034890779999999996,0.00448422,0.0007740599999999999,0.00366321,0.00401082,0.00081992,0.0024213800000000003,0.02654808,0.02654808,0.04164119,0.04164119,-0.00539392,-2.432e-05,0.038742660000000005,-0.00266326,0.0007956,0.00069713,-0.0009733699999999999,-0.0015591799999999999,0.017668950000000003,0.009880050000000001,0.009880050000000001,-5.0400000000000005e-05,0.0024276000000000002,-7.826e-05,4.8509999999999995e-05,-0.0006460000000000001,0.0010695599999999998,3.294e-05,0.00392304,3.2200000000000003e-05,-4.464e-05,0.0004864499999999999,-0.00043512,-3.7600000000000004e-06,0.00344064,0.00344064,0.14741616,0.14741616,0.00509217,0.00197284,0.0,0.00202908,0.00070848,0.00132729,-0.00733681,-0.00733681,-0.00733681,0.0,-0.007286999999999999,1.19e-05
